286 128
27 -0.116231 0.043115 -0.429220 -0.100966 0.297294 0.191786 0.456693 0.191950 -0.336329 0.197925 0.391989 -0.196356 -0.039645 -0.055663 -0.220660 -0.129289 0.043320 0.392504 -0.182878 0.169940 -0.233729 0.382424 -0.281695 0.299533 -0.573555 -0.203192 -0.302686 0.132890 0.165605 -0.470307 -0.267691 -0.163526 -0.013090 0.111704 -0.259005 -0.363385 0.593507 0.092869 0.450715 0.092014 -0.228714 -0.435809 0.360163 -0.144402 -0.356575 -0.162646 0.165547 -0.175027 -0.235552 -0.051951 -0.180263 0.471466 0.484351 -0.055989 0.095844 -0.316781 -0.933164 -0.394858 0.046730 0.301110 0.416419 -0.225774 -0.132423 0.385572 0.363433 -0.089156 -0.780478 0.117882 -0.208482 -0.351081 -0.003205 0.165243 0.199365 -0.185540 -0.559232 -0.052649 0.192751 -0.095926 0.479326 0.142758 -0.201163 -0.550326 -0.214120 0.193128 -0.070104 0.538545 0.279259 0.156026 0.169474 -0.033610 0.146541 -0.043931 -0.270307 0.055687 -0.005150 0.324054 -0.778635 -0.486939 0.132227 -0.157342 -0.638195 -0.588858 0.006841 -0.185240 0.010077 -0.059720 0.526641 0.006690 -0.130640 -0.066491 0.093379 0.314198 -0.214403 -0.208124 0.391040 -0.389950 0.063905 -0.308540 -0.369117 -0.584034 -0.371617 0.098028 0.309628 0.251889 0.386110 -0.548145 0.218868 0.028833
105 0.048355 -0.024524 0.104658 0.272324 -0.664984 -0.030888 -0.250886 0.228128 -0.227798 0.087303 0.132179 0.192608 0.158876 -0.258006 -0.048249 -0.377847 0.255917 -0.205208 -0.394925 0.111301 0.191676 -0.073498 -0.126063 0.913569 0.137517 0.660286 0.185903 -0.075027 0.542726 0.074948 -0.284267 -0.136613 -0.018140 0.784950 -0.420108 -0.237624 0.179499 -0.908662 0.546083 0.001448 -0.279156 0.045222 0.685479 -0.241354 0.108740 -0.125421 0.274495 0.093069 -0.033273 -0.353024 -0.224780 -0.056360 0.491197 -0.141964 0.244514 0.289181 -1.074515 -0.034941 0.005207 0.342783 0.000437 0.017223 -0.073622 0.063300 -0.092440 -0.273637 -0.722126 0.143790 -0.566356 -0.219200 -0.519092 0.179898 0.211071 -0.280120 -0.444664 -0.141637 0.694570 -0.378530 0.422934 -0.545737 -0.263872 -0.483747 0.093693 -0.164971 -0.109032 0.365453 0.630215 -0.076502 -0.172986 -0.425749 0.205269 -0.087265 -0.696963 -0.218263 -0.002139 0.332700 -0.223868 -0.311595 -0.132346 0.119611 -0.225361 -0.256907 -0.058315 -0.330049 -0.045790 -0.354144 0.956252 0.436554 -0.293850 -0.124213 0.177265 -0.144953 -0.107399 -0.265392 0.258349 0.110931 -0.455761 -0.405399 -0.335729 -0.710029 -0.623398 -0.593734 0.241689 -0.119299 -0.206749 -0.198036 -0.592318 -0.415524
104 0.091109 -0.107130 0.126117 0.218290 -0.747049 0.008580 -0.239044 0.199812 -0.303624 0.043439 0.121156 0.160100 0.165148 -0.142442 -0.024765 -0.394036 0.227571 -0.380848 -0.291041 0.042396 0.258569 -0.145075 -0.135071 0.880595 0.062192 0.618830 0.098455 -0.154516 0.650736 0.052380 -0.315737 -0.114024 -0.051990 0.824717 -0.433739 -0.156593 0.250061 -0.915002 0.602304 0.016431 -0.134920 -0.036006 0.614622 -0.307830 0.215222 -0.221592 0.289113 0.128292 0.042647 -0.310312 -0.172256 -0.048587 0.539431 -0.100886 0.408619 0.316660 -1.056829 -0.165442 -0.006230 0.452178 0.109009 0.111463 -0.089179 0.103144 -0.142047 -0.279662 -0.651978 0.232999 -0.490413 -0.231580 -0.526373 0.171235 0.364902 -0.305580 -0.532394 -0.059337 0.814841 -0.310619 0.332330 -0.518936 -0.275850 -0.377119 0.112613 -0.118483 -0.195554 0.243272 0.541694 -0.042775 -0.160883 -0.381160 0.200484 -0.092384 -0.767429 -0.276467 0.002407 0.288944 -0.267386 -0.193328 -0.151830 0.158771 -0.253522 -0.110976 -0.084486 -0.403609 -0.038710 -0.223257 0.920147 0.579432 -0.276038 -0.113908 0.055453 0.047400 -0.111900 -0.302584 0.273729 0.165491 -0.534662 -0.324907 -0.335367 -0.712661 -0.554182 -0.559854 0.274139 -0.053465 -0.239016 -0.265597 -0.490321 -0.464694
195 -0.008448 -0.310115 -0.161603 -0.126344 -0.486574 -0.370044 0.078539 -0.098012 -0.200549 0.044499 0.432479 0.164178 0.446345 -0.513958 0.213516 -0.157893 0.135395 0.260744 -0.305453 0.419531 0.235258 -0.416707 -0.407202 0.271986 -0.563427 0.375162 -0.010606 -0.494787 -0.184039 -0.188090 0.040022 -0.060695 -0.037701 0.712478 -0.074606 -0.114146 0.069364 0.105166 0.591475 -0.041496 0.018129 0.192986 0.150588 -0.259524 -0.156164 -0.290687 0.058650 -0.301312 0.170856 0.318601 -0.036808 0.289076 0.657635 0.221506 0.142961 0.099246 -0.480847 -0.335282 -0.118669 -0.255257 0.192598 -0.134467 -0.064442 -0.467364 0.070678 0.115545 -0.457861 -0.373036 -0.012670 0.052353 -0.270120 0.088425 0.455256 0.288595 0.247713 -0.229854 0.353574 -0.365795 0.285934 -0.011624 0.033953 -0.090782 -0.048756 -0.446512 0.177757 0.572612 -0.033943 -0.037176 -0.227670 0.285355 -0.105495 0.548573 -0.562439 -0.157127 -0.689062 0.685752 -0.175058 -0.266980 -0.339864 0.202384 -0.044881 0.195670 -0.019229 0.042713 -0.055549 -0.259374 0.064899 0.167266 -0.350055 0.198994 0.037185 0.194438 0.270208 -0.006229 0.545594 0.113042 0.191359 0.166789 -0.378411 0.050618 0.147746 -0.318095 -0.248480 0.196546 -0.007301 0.276334 -0.017328 -0.259903
32 -0.149044 -0.122554 -0.279568 -0.031406 0.230633 0.085526 0.518035 0.097789 -0.222549 0.071286 0.334439 -0.179143 -0.050673 -0.041678 -0.058121 0.009649 0.151253 0.340310 -0.266317 0.284158 -0.312436 0.331832 -0.441743 0.286014 -0.519009 -0.289874 -0.266150 0.048868 0.169941 -0.245062 -0.331208 -0.194931 -0.036780 0.163074 -0.330065 -0.244586 0.571164 -0.022179 0.488627 0.144714 -0.244644 -0.443417 0.379289 -0.085568 -0.316169 -0.124592 0.166583 -0.140959 -0.224175 -0.014155 -0.173733 0.550605 0.398105 -0.124040 0.052800 -0.298347 -0.942934 -0.302282 0.173973 0.215771 0.376995 -0.174611 -0.149604 0.426214 0.428767 -0.083297 -0.721464 0.177637 -0.126151 -0.276694 -0.015805 0.172281 0.339887 -0.098825 -0.528667 0.047510 0.286019 -0.011582 0.480752 0.156043 -0.269550 -0.515907 -0.208197 0.230731 -0.031897 0.505626 0.227748 0.010360 0.164170 -0.106528 -0.008483 -0.057622 -0.405763 0.095843 0.098011 0.345714 -0.757397 -0.425891 0.060226 -0.205848 -0.629736 -0.569058 -0.051512 -0.186543 -0.014154 -0.058840 0.484805 0.104798 -0.041729 0.080396 0.196355 0.403424 -0.196095 -0.176051 0.384219 -0.388934 -0.029065 -0.154116 -0.201292 -0.614757 -0.360123 -0.004702 0.321975 0.269331 0.386128 -0.592106 0.167579 0.005386
137 -0.183338 0.307250 -0.078550 0.181114 0.212952 0.042158 0.451917 0.067459 -0.351967 0.206089 0.380299 -0.428723 -0.120521 -0.433559 -0.105738 -0.138350 0.191640 0.175505 -0.384555 0.184142 -0.035842 0.164688 -0.237564 0.658213 -0.398414 -0.251582 -0.205789 -0.124896 0.095723 -0.427062 -0.257434 -0.030725 -0.297051 -0.025504 -0.303644 -0.221350 0.567820 -0.212185 0.306560 0.181299 -0.156396 -0.386367 0.199827 -0.245199 -0.237283 -0.210933 0.049251 0.113602 -0.062835 -0.040819 -0.128099 0.369322 0.470781 -0.266282 0.076764 -0.133763 -0.757367 -0.278229 -0.274340 0.457050 0.154208 -0.076075 -0.192597 0.350112 0.186720 -0.080841 -0.642566 0.277427 -0.478413 -0.056259 -0.015032 0.117028 0.323827 -0.095194 -0.527846 0.008360 0.270414 0.095805 0.608925 0.298943 -0.254071 -0.474459 -0.083669 0.109842 -0.159932 0.240029 0.073568 0.074738 0.036514 -0.484569 0.155392 -0.195351 -0.404787 -0.087305 -0.113450 0.158775 -0.601941 -0.554792 0.076959 0.032952 -0.431937 -0.452091 0.271617 -0.087875 -0.036391 -0.124724 0.548679 0.135187 0.098773 -0.165397 0.259167 0.324242 -0.357968 -0.201068 0.058608 -0.355612 -0.133731 -0.285685 -0.199640 -0.782478 -0.309685 0.054853 0.314374 0.011380 0.318624 -0.415136 0.260606 0.077496
52 -0.040860 -0.083183 0.021929 -0.366829 -0.524473 -0.360927 0.044342 -0.120918 -0.342319 0.087969 0.309530 0.326523 0.599957 -0.604976 0.082729 -0.120165 0.126017 0.295907 -0.271769 0.381297 0.295179 -0.502635 -0.468138 0.425171 -0.612078 0.445574 0.053004 -0.278670 -0.091453 -0.198474 0.207159 0.022854 -0.137274 0.599551 -0.139037 0.032404 -0.081711 -0.168446 0.767988 -0.230149 0.034136 0.411551 0.080334 -0.198933 -0.021731 -0.302508 0.115013 -0.223711 0.277644 0.189903 0.142597 0.217566 0.636058 0.287843 0.111648 0.147094 -0.442085 -0.296701 -0.119317 -0.243303 0.135405 -0.151586 -0.146532 -0.354082 0.205849 0.125331 -0.235988 -0.102836 -0.005840 0.203654 -0.290422 0.176496 0.283444 0.302263 0.141320 -0.203925 0.383619 -0.483410 0.090569 -0.052477 0.153211 -0.133164 -0.097161 -0.327262 0.144181 0.538876 0.040682 0.167982 -0.164367 0.320726 0.076889 0.516694 -0.533696 -0.292965 -0.611917 0.609308 -0.288357 -0.133801 -0.273243 0.273949 0.020818 0.099119 0.092456 0.053814 -0.174875 -0.276748 0.271522 0.244878 -0.635350 0.291070 0.136903 0.008777 0.256114 -0.149074 0.446040 0.141210 0.038037 0.147886 -0.389086 0.151457 0.137815 -0.225832 -0.339778 0.138944 0.240523 0.112000 -0.078246 -0.204578
219 0.196713 -0.045504 0.452216 -0.080404 0.145063 -0.526261 0.154548 0.407048 0.040900 0.326905 -0.139818 -0.001863 -0.000109 -0.484981 0.458383 -0.799529 -0.121792 -0.189446 -0.490799 0.222679 0.162062 -0.160805 -0.029601 0.124579 -0.033786 0.198967 0.453696 -0.110564 0.106139 -0.133915 0.103150 0.017810 -0.439116 -0.113479 -0.279150 -0.223136 0.086117 -0.215216 0.247070 -0.119424 0.037312 -0.283101 0.013102 -0.080528 -0.160345 0.120002 -0.085652 -0.111791 0.611649 0.509485 0.363282 0.401348 0.377879 0.575011 -0.212403 -0.037368 -0.343087 0.026637 0.131824 0.252692 0.528377 -0.564871 -0.188588 -0.307088 0.185800 0.008892 0.127679 0.267960 -0.442584 -0.006331 -0.121258 -0.210567 0.404373 -0.092427 0.486995 0.014733 0.224771 0.180169 -0.182670 -0.658129 -0.177557 -0.152356 0.029715 -0.360019 -0.217612 0.409602 0.343061 0.101343 0.010434 -0.041945 0.361810 0.194957 0.085519 0.072922 -0.411042 0.138281 -0.098778 -0.878504 0.194033 0.308508 -0.271892 -0.514232 -0.042798 -0.103490 -0.358320 0.088705 0.449137 0.131396 -0.240231 -0.825001 0.547530 0.115584 -0.050611 0.307337 0.006347 0.410590 -0.221392 0.063718 -0.340907 0.021711 -0.050294 -0.359876 0.144438 -0.084746 0.171540 0.055471 -0.160171 -0.252519
56 0.012890 -0.001094 -0.042699 -0.378957 0.106790 -0.079732 0.754190 -0.290315 -0.075581 0.114293 -0.095028 0.045276 -0.012272 0.215086 0.200469 -0.290558 -0.091509 0.251190 -0.250593 0.050040 0.226816 0.508018 -0.650438 0.587439 -0.275660 -0.513544 -0.102525 0.009689 0.189679 -0.384338 0.076658 0.074782 -0.341465 -0.222250 -0.109262 -0.208183 0.205277 0.075937 0.523900 0.039780 -0.309362 -0.257721 0.347606 -0.537736 0.201348 0.068578 0.306291 -0.241584 -0.139491 -0.375475 -0.038403 0.184166 0.342163 0.202603 0.276346 -0.600407 -0.661100 -0.223978 -0.138194 0.450982 0.597457 -0.186381 -0.294217 0.201989 0.162808 -0.285789 -0.510609 -0.535869 -0.031069 -0.145672 0.301942 0.048117 -0.155136 0.245934 0.142967 -0.091290 0.036549 -0.060415 0.468751 -0.276191 -0.067955 -0.562314 -0.168441 0.029226 0.197433 0.468227 0.577772 0.166174 0.163280 0.139188 0.149590 0.252621 -0.405597 0.522109 -0.264125 0.524779 -0.260636 -0.273066 0.014186 0.133961 -0.526381 -0.751223 -0.208577 0.091371 -0.258835 -0.450367 0.377461 -0.144201 0.122387 0.160203 0.078779 0.534635 -0.336639 0.189186 0.058987 -0.238448 0.351222 -0.229823 -0.168990 -0.396976 0.000639 0.206873 0.294472 0.152738 0.331711 -0.447987 0.416192 0.479817
200 0.014960 -0.263063 -0.123260 -0.258258 -0.520967 -0.443702 0.071934 -0.177458 -0.311372 0.082702 0.305533 0.237691 0.519408 -0.538359 0.102436 -0.110669 0.041827 0.407689 -0.312195 0.269293 0.378577 -0.445710 -0.358992 0.333099 -0.559378 0.231009 0.066472 -0.394072 -0.010265 -0.159494 0.010544 0.083595 -0.200865 0.620296 -0.147336 -0.188251 0.004773 0.092999 0.609076 -0.012391 0.100258 0.381833 0.135854 -0.171195 -0.127074 -0.253301 -0.102382 -0.328280 0.262279 0.215460 0.074506 0.132085 0.687732 0.242184 0.160012 0.207086 -0.466179 -0.222161 -0.180335 -0.219873 0.222622 -0.048070 -0.126871 -0.455432 0.191482 0.171891 -0.367581 -0.284945 -0.045967 0.089403 -0.243181 0.150123 0.511421 0.282633 0.302239 -0.220550 0.298320 -0.403407 0.239428 -0.170381 0.059868 -0.108845 -0.077691 -0.314547 0.117999 0.488108 0.010803 0.136023 -0.121042 0.328500 0.006433 0.432115 -0.515163 -0.200070 -0.667831 0.596426 -0.290425 -0.082244 -0.463886 0.239412 -0.097811 0.258979 0.028848 0.060312 -0.188131 -0.265705 0.007268 0.131375 -0.453483 0.169025 -0.065021 0.138164 0.125381 0.003351 0.532485 -0.050753 0.137481 0.190799 -0.297388 0.072696 0.202374 -0.246181 -0.280776 0.238513 0.127139 0.115517 -0.088691 -0.149666
199 -0.094102 -0.345712 -0.124756 -0.187240 -0.483756 -0.398330 0.027649 -0.018676 -0.305698 0.154027 0.276154 0.291892 0.475844 -0.480491 -0.024474 -0.031137 -0.009313 0.294541 -0.305411 0.407743 0.329484 -0.478908 -0.360825 0.245878 -0.565148 0.256175 0.015893 -0.387280 -0.069174 -0.044772 0.157538 -0.020606 -0.159846 0.557510 -0.175240 -0.143986 0.011104 0.093117 0.543387 -0.127916 0.073639 0.461642 0.203230 -0.235182 -0.140495 -0.257511 -0.014733 -0.390945 0.175301 0.337283 -0.008538 0.284260 0.733886 0.200278 0.085329 0.210520 -0.518099 -0.132701 -0.139256 -0.179474 0.200357 -0.098305 -0.223957 -0.375923 0.192890 0.193512 -0.316409 -0.230460 -0.000616 0.094967 -0.345655 0.163515 0.587611 0.254160 0.320772 -0.172408 0.398921 -0.472188 0.235887 -0.107642 0.079386 -0.158259 -0.060964 -0.487436 0.135497 0.594896 -0.016305 0.224245 -0.117742 0.352544 -0.083453 0.428203 -0.505970 -0.130470 -0.461144 0.689290 -0.300779 -0.158861 -0.419197 0.147501 -0.275717 0.184662 0.068284 0.023811 -0.165251 -0.309375 0.124793 0.097219 -0.389306 0.181761 -0.019486 0.119563 0.159637 -0.033506 0.500277 0.004502 0.047381 0.094070 -0.325242 0.098800 0.075040 -0.219117 -0.217514 0.193775 0.032489 0.223236 -0.084845 -0.202652
251 0.129118 -0.077478 -0.180132 -0.155798 0.359479 -0.655109 0.492635 -0.217499 0.309893 0.454040 0.114381 -0.043354 0.204795 -0.250090 0.573495 -0.839849 0.167617 0.470866 -0.476554 0.095564 0.006775 -0.143188 -0.127742 0.233618 0.324025 -0.074621 0.528298 -0.113828 0.119412 -0.347133 0.132560 -0.216434 -0.200031 0.036819 -0.242359 -0.294879 0.363454 -0.100096 0.454459 0.054471 0.159130 -0.180803 0.232401 0.023383 -0.043447 -0.185260 -0.013369 -0.279294 0.833765 0.163999 0.412209 0.298555 0.273781 0.779233 0.022782 -0.070037 -0.447937 -0.279502 0.321488 0.357962 0.777077 -0.622596 -0.274087 -0.257917 0.072528 -0.303968 -0.039556 0.491858 -0.702441 -0.074252 -0.009912 -0.253563 0.315733 -0.134165 0.039087 -0.424306 0.610034 -0.094556 -0.056182 -0.453082 -0.153942 0.172510 -0.102280 0.112143 -0.007924 0.104363 0.477017 0.409489 0.057363 -0.068854 0.247422 0.257686 0.249552 -0.064520 -0.130955 0.099398 -0.295809 -0.159073 -0.009758 0.105698 -0.332636 -0.658533 -0.510812 -0.253443 -0.219896 -0.029331 0.519817 0.524996 -0.243386 -0.610024 0.420634 0.471180 -0.242481 0.035770 0.142162 0.432174 0.221099 -0.071318 -0.041283 -0.415358 0.375161 -0.108244 0.119922 0.073655 0.150567 0.092115 0.249542 -0.621810
192 0.084302 -0.319968 -0.089280 -0.209869 -0.506152 -0.293223 0.138345 0.041841 -0.158499 0.056398 0.278854 0.116577 0.365785 -0.495055 0.105937 -0.082070 0.150375 0.322137 -0.326257 0.405921 0.312055 -0.500603 -0.398502 0.259981 -0.602018 0.303619 -0.035015 -0.433796 -0.043170 -0.037368 0.127836 0.000066 -0.150502 0.690802 -0.082701 -0.054357 -0.001653 0.018749 0.567968 -0.107011 -0.011615 0.351842 0.163096 -0.246778 -0.217603 -0.217449 0.063130 -0.451167 0.195008 0.362340 0.071176 0.322253 0.716086 0.220768 0.210731 0.097485 -0.421440 -0.189740 -0.063796 -0.265397 0.198439 -0.086112 -0.314725 -0.427840 0.197522 0.132375 -0.368020 -0.266122 -0.019613 0.104173 -0.281065 0.097011 0.587645 0.261191 0.385329 -0.209818 0.442858 -0.326805 0.224953 -0.055589 0.071211 -0.078039 -0.101876 -0.383130 0.024333 0.553945 0.095139 0.129330 -0.172823 0.493629 -0.184276 0.564069 -0.608251 -0.172859 -0.626515 0.657068 -0.337773 -0.098674 -0.396199 0.289420 -0.101009 0.170723 0.241325 0.069072 -0.137888 -0.368849 0.048610 0.158841 -0.341183 0.149277 0.021061 0.141496 0.172393 0.073141 0.556983 -0.037876 0.119933 0.190216 -0.304220 0.076499 0.117266 -0.157238 -0.205106 0.264989 0.072247 0.074862 0.039943 -0.070773
140 -0.034618 0.180875 -0.278611 -0.031650 0.257193 0.113813 0.486033 0.102653 -0.195930 0.151652 0.307553 -0.298971 0.010313 -0.078871 -0.154160 -0.080501 0.059246 0.230593 -0.289673 0.255414 -0.204278 0.295096 -0.448632 0.305416 -0.331634 -0.266801 -0.217838 0.195162 0.166649 -0.311290 -0.179033 -0.120643 -0.178015 0.052329 -0.414495 -0.122289 0.472741 -0.121419 0.484977 0.092155 -0.212010 -0.528324 0.318522 -0.226958 -0.387080 -0.083974 0.186439 -0.051304 -0.311075 -0.135377 -0.192816 0.294568 0.444312 -0.123071 0.082334 -0.197507 -0.702765 -0.276204 -0.084573 0.281256 0.302352 -0.142035 -0.118806 0.342239 0.165236 0.073458 -0.897554 0.191123 0.012688 -0.254208 0.067402 0.052917 0.252520 -0.120038 -0.634554 0.026809 0.323193 0.027823 0.629427 0.213115 -0.198998 -0.567672 -0.169901 0.098144 0.012955 0.279334 0.423692 -0.004152 0.154681 -0.130246 0.094159 -0.167869 -0.420539 0.135354 -0.109122 0.307884 -0.663184 -0.442008 0.021181 -0.043374 -0.566615 -0.669620 -0.097163 -0.141665 -0.029093 -0.169661 0.435506 0.045016 0.078300 -0.074499 0.157794 0.424878 -0.294615 -0.189784 0.241873 -0.347467 -0.167861 -0.331006 -0.219206 -0.515626 -0.404128 -0.028168 0.344328 0.158180 0.405919 -0.574058 0.185146 0.152235
87 -0.213105 0.259422 -0.228609 0.268629 0.107005 -0.237202 0.177383 0.095390 -0.444453 0.022882 0.623629 -0.275292 0.024125 -0.715232 0.060421 -0.223033 -0.020828 0.618712 -0.369129 0.673581 0.397944 0.359858 -0.577498 0.498188 -0.504556 -0.376983 0.156233 -0.485026 -0.174146 -0.269520 0.156441 0.507967 -0.521506 0.322683 0.126446 0.208985 0.171051 0.098676 0.654348 0.047625 0.155741 0.383347 -0.178799 -0.145772 -0.364051 0.100976 0.079556 -0.235773 0.327852 -0.177097 -0.017343 0.334766 0.540097 -0.002277 0.076803 0.289650 -0.378408 -0.371714 0.149321 0.298218 -0.063254 -0.716024 0.095015 0.291128 0.349816 -0.323667 0.257874 -0.161015 -0.229964 -0.422536 -0.267256 0.002907 0.134743 0.335487 -0.117327 -0.037698 0.644120 0.034252 -0.001185 -0.411620 -0.206643 -0.434170 -0.612741 -0.259550 -0.247637 0.465147 -0.214635 -0.205703 0.722539 -0.136389 0.103429 0.305590 -0.318285 0.356718 0.185383 0.226813 -0.460203 -0.026068 0.256771 0.127153 0.278063 -0.416759 0.243353 -0.128848 -0.044155 -0.270964 0.395290 0.115758 0.222189 -0.516227 -0.022717 0.467574 -0.082978 -0.162821 -0.064622 0.240875 -0.549101 -0.314086 -0.234602 -0.533204 -0.349355 -0.249550 0.042001 0.049092 0.505423 -0.411135 0.110814 -0.394239
40 -0.064310 -0.310061 -0.317557 -0.267613 -0.451712 -0.390170 -0.025634 -0.039140 -0.288443 0.147120 0.389292 0.221465 0.441868 -0.385752 -0.028031 -0.035591 0.129820 0.278145 -0.301500 0.351127 0.275612 -0.434064 -0.427315 0.290677 -0.712841 0.257231 0.018926 -0.393682 0.015030 -0.110426 0.153004 0.055816 -0.092663 0.498667 -0.252376 -0.273824 0.015995 0.144222 0.580073 -0.017366 0.020757 0.371564 0.078239 -0.249575 -0.150725 -0.172096 -0.046065 -0.382303 0.212691 0.268454 0.132334 0.248953 0.594688 0.078264 0.062745 0.221814 -0.441593 -0.261433 -0.200848 -0.033425 0.180979 -0.014709 -0.127998 -0.471985 0.302686 0.191640 -0.233802 -0.145236 0.012819 0.079947 -0.390776 0.196316 0.683560 0.289675 0.409142 -0.277269 0.230441 -0.339286 0.214663 -0.134096 0.180889 -0.107154 -0.122850 -0.455539 0.046346 0.604772 -0.043859 -0.038882 -0.080322 0.353626 -0.049103 0.306669 -0.604202 -0.104033 -0.556906 0.645040 -0.257020 -0.124204 -0.192129 0.245302 -0.189915 0.205805 0.042290 0.120773 -0.274492 -0.284597 -0.039844 0.135551 -0.317486 0.208035 0.142844 0.127137 0.158571 -0.085815 0.412645 -0.001042 0.121117 0.115015 -0.243536 0.026609 0.137609 -0.139905 -0.176577 0.235401 0.057048 0.228311 -0.119440 -0.148507
106 0.052659 0.218265 -0.150204 0.310857 0.232775 0.087519 0.370192 -0.051716 -0.401289 0.043048 0.186224 -0.253273 0.278851 -0.798433 0.088501 -0.405690 0.233473 0.492990 -0.324394 0.549988 0.275932 0.120281 -0.181697 0.630409 0.046265 -0.091725 0.090880 -0.385279 -0.152987 -0.284616 -0.134428 0.809306 -0.498061 0.061849 0.107139 0.070563 0.310308 -0.389024 0.498809 0.088259 0.006074 0.129668 -0.019026 -0.277602 -0.097059 0.433755 0.252041 0.014562 0.282440 -0.022580 -0.117059 0.274854 0.385114 -0.140977 0.177937 -0.037406 -0.464943 -0.299593 -0.094428 0.300651 0.063846 -0.634358 0.250674 -0.148019 -0.098627 -0.350356 -0.053393 -0.004871 -0.261415 -0.041618 -0.471386 -0.294418 0.133371 -0.002254 -0.557880 -0.070906 0.576075 -0.143200 0.228590 -0.270416 -0.211774 -0.323183 -0.253149 -0.183486 -0.519060 0.190115 -0.100736 -0.099107 0.182808 -0.501159 0.017992 0.071445 -0.196343 0.219170 -0.115871 0.355099 -0.225594 -0.114515 0.126709 0.165920 0.051410 -0.317174 0.258058 -0.074076 -0.185654 -0.148822 0.598872 0.341419 0.419004 -0.050046 -0.146525 0.270145 -0.217529 -0.371738 -0.011504 0.156596 -0.776814 -0.245145 0.100171 -0.529989 -0.302723 -0.390056 0.059553 -0.068704 0.293132 -0.460126 0.269528 -0.437152
146 -0.101958 0.027993 0.379876 -0.072795 0.192864 -0.633870 0.340772 0.032915 0.029363 0.441325 -0.243184 -0.024955 0.093061 -0.417309 0.608877 -0.566128 -0.119044 -0.025799 -0.487851 0.183102 0.131207 -0.200436 0.071730 0.040768 0.224448 0.064231 0.464528 -0.026976 0.072700 -0.131879 0.232309 -0.053928 -0.584446 -0.199733 -0.067550 -0.313365 0.118922 -0.177866 0.195626 -0.061263 0.155633 -0.351343 0.076357 -0.134154 -0.189365 -0.061937 -0.003752 -0.182678 0.681863 0.483067 0.395553 0.324797 0.255752 0.655730 -0.057227 -0.048955 -0.224575 -0.085993 0.030601 0.296543 0.573631 -0.463621 -0.140017 -0.243594 0.106499 -0.085924 0.206451 0.381899 -0.431480 -0.241470 -0.310989 -0.157598 0.300702 0.013047 0.059071 0.095440 0.476522 0.104356 0.025855 -0.422493 -0.368274 -0.091645 -0.059952 -0.179568 -0.096942 0.181014 0.255033 0.279461 0.004330 -0.149115 0.186496 0.197332 0.185565 0.018694 -0.295399 0.197401 -0.268566 -0.746948 0.136364 0.359162 -0.479639 -0.360907 -0.272371 -0.383665 -0.174064 0.273359 0.625234 0.284846 -0.358855 -0.743493 0.359545 0.436867 -0.187000 0.269256 0.067280 0.327459 -0.117326 0.038344 -0.052670 -0.059598 0.134366 -0.305927 0.099995 -0.115553 0.212865 -0.049478 0.196327 -0.554498
98 0.019775 -0.154910 -0.150490 -0.367349 0.326602 -0.361201 0.550125 -0.031953 0.009779 0.171174 0.008690 -0.107384 -0.008402 0.211066 0.209247 -0.267156 0.266337 0.399765 -0.213775 0.206146 0.078867 0.447956 -0.561940 0.562834 -0.526759 -0.425683 -0.165166 0.073444 0.113279 -0.493269 0.151119 0.021070 -0.347080 -0.041163 -0.077106 -0.237233 0.465017 0.113201 0.768179 0.065032 -0.445832 -0.407750 0.242263 -0.255858 0.015096 -0.133355 0.153509 -0.181375 -0.238183 -0.199587 -0.060837 0.217636 0.381716 0.034558 0.221705 -0.314844 -0.578797 -0.323743 -0.248314 0.544327 0.385334 -0.280626 -0.256245 0.226117 0.062280 -0.174968 -0.642118 -0.138202 0.053246 -0.047952 0.350167 -0.040370 -0.124621 0.035318 0.016852 -0.108289 -0.082941 0.058709 0.451137 -0.001934 -0.139700 -0.590872 -0.097733 0.082596 -0.001483 0.458761 0.471409 0.088568 0.402912 -0.007266 0.405269 -0.143666 -0.384181 0.412915 -0.019967 0.447617 -0.510116 -0.150971 0.180813 -0.009813 -0.533630 -0.792534 -0.226464 -0.008620 -0.083302 -0.230670 0.165305 -0.024784 0.220269 0.082928 0.175205 0.314435 -0.336986 0.149554 0.201350 -0.231621 -0.003268 -0.316557 -0.120277 -0.303631 -0.037522 0.210446 0.196630 0.249579 0.404676 -0.692737 0.366580 0.283620
43 -0.078141 -0.297284 -0.117204 -0.293156 -0.531915 -0.352842 0.126470 -0.052827 -0.206072 0.211120 0.109982 0.250526 0.554156 -0.311310 0.182409 -0.121467 -0.021942 0.374651 -0.104354 0.418257 0.365906 -0.364701 -0.332511 0.316068 -0.521391 0.215797 -0.047495 -0.139627 -0.163830 -0.115094 0.232230 -0.028434 0.027187 0.545280 -0.164122 0.010309 -0.104210 0.129918 0.544985 -0.090110 0.057811 0.395109 0.134364 -0.293714 -0.062998 -0.226318 -0.089948 -0.310725 0.207810 0.335193 -0.067439 0.170017 0.586039 0.109388 0.050512 0.116294 -0.247431 -0.264292 -0.035390 0.012043 0.155564 -0.038501 -0.265044 -0.407574 0.320353 0.155268 -0.171527 -0.212483 0.118722 0.232414 -0.173680 0.123391 0.717539 0.144354 0.234204 -0.244915 0.327468 -0.472795 0.181297 -0.084865 0.092899 -0.070945 -0.133909 -0.413818 0.045733 0.613583 0.166438 0.052808 0.046495 0.341888 -0.166457 0.365553 -0.585428 -0.094024 -0.705883 0.622057 -0.396819 -0.256283 -0.271258 0.217095 -0.170031 0.181778 0.005418 0.063526 -0.342662 -0.477212 0.153305 0.139695 -0.310370 0.216607 -0.061405 0.105385 0.120575 -0.040349 0.385179 -0.045975 0.143884 0.167679 -0.482917 0.090999 0.140020 -0.296333 -0.209036 0.190073 0.160701 0.238747 0.055388 -0.237374
193 -0.158521 -0.096013 -0.131215 -0.304379 -0.536700 -0.307727 0.160252 -0.048705 -0.226826 0.061918 0.311114 0.305824 0.434869 -0.573565 0.068832 -0.093413 0.074270 0.294023 -0.275128 0.398421 0.344284 -0.411112 -0.446213 0.309366 -0.612640 0.280789 -0.007896 -0.312777 -0.135998 -0.086681 0.229335 0.092136 -0.087229 0.534951 -0.036829 -0.063357 -0.056828 -0.021937 0.630754 -0.069927 0.045304 0.417433 0.183013 -0.259177 -0.201475 -0.131158 -0.016402 -0.378583 0.212699 0.388273 0.023160 0.253080 0.718620 0.339382 0.048521 0.156717 -0.513478 -0.273252 -0.064380 -0.285485 0.185318 -0.106624 -0.203155 -0.420096 0.145914 0.136992 -0.380514 -0.308316 0.017052 0.151795 -0.345148 0.054953 0.557468 0.377663 0.336656 -0.147753 0.237365 -0.448931 0.360546 -0.020701 0.060144 -0.107225 -0.178205 -0.413473 0.102970 0.641663 -0.054923 0.248566 -0.012410 0.405915 0.009964 0.419295 -0.523369 -0.267200 -0.628092 0.521092 -0.254002 -0.136756 -0.248357 0.160302 -0.186960 0.217479 0.096590 0.131437 -0.254027 -0.404015 0.122552 0.092629 -0.276517 0.130682 0.077371 0.079635 0.185926 0.007477 0.518628 -0.172157 0.134912 0.240504 -0.289565 0.072295 0.094681 -0.226511 -0.360081 0.216154 0.195619 0.131704 -0.129467 -0.146865
12 0.158520 -0.380334 0.260663 -0.605056 -0.276011 -0.381959 -0.083633 0.034045 -0.457371 0.808571 -0.062982 0.106594 0.541675 -0.110363 0.426851 -0.483688 -0.121020 0.265693 -0.038309 0.352100 0.367957 -0.145904 -0.107535 0.321551 -0.330020 -0.098585 0.150483 -0.090343 0.216282 -0.045548 0.291826 0.018577 -0.317150 0.248883 -0.241978 0.234850 -0.028297 0.202141 0.245656 0.084515 0.097874 0.062519 0.031411 -0.297188 -0.051166 0.346543 0.021169 -0.112213 0.474767 0.541851 0.048688 0.204995 0.475832 0.064472 0.007494 0.095405 -0.229745 -0.193327 -0.242713 0.354958 0.330882 -0.146764 -0.203962 -0.301927 0.201555 -0.001655 0.017025 -0.323417 0.101305 0.156743 -0.049381 0.096536 0.440209 -0.139754 0.566867 -0.020221 0.101756 -0.006469 0.235476 -0.316979 0.036295 -0.096438 -0.173550 -0.339439 -0.155778 0.472580 0.326755 -0.100567 0.018718 0.130807 -0.107174 0.296467 -0.443893 -0.035237 -0.762783 0.405576 -0.150066 -0.698077 0.036543 0.208991 -0.355438 -0.161749 -0.221223 0.124328 -0.301213 -0.152454 0.194391 0.231338 0.100842 -0.062425 -0.016953 0.248870 0.200852 0.194044 -0.025687 0.356806 -0.122065 0.467708 -0.606920 0.134232 -0.101451 -0.179428 0.255262 0.183591 0.116892 0.018726 -0.040299 0.087536
38 0.017724 -0.177282 0.387051 0.026643 0.136683 -0.655585 0.230655 0.227926 0.218242 0.196430 -0.065708 -0.148849 0.106255 -0.480120 0.540414 -0.659408 -0.143705 -0.122167 -0.466685 0.248255 0.071113 -0.240138 0.105845 0.003659 0.010190 0.246578 0.392422 -0.235488 0.088228 -0.211889 0.172520 -0.164451 -0.413454 -0.201903 -0.233746 -0.179899 0.035911 -0.167333 0.056814 -0.141516 0.101756 -0.344641 0.017295 -0.274267 -0.178699 -0.070076 -0.173317 -0.318834 0.783410 0.374207 0.243069 0.310052 0.350227 0.624028 -0.219823 -0.182344 -0.160162 -0.085998 0.018729 0.369466 0.540554 -0.534368 -0.342296 -0.216844 0.207491 -0.005613 0.136308 0.404322 -0.650863 -0.223852 -0.373251 0.030826 0.311020 0.053045 0.176425 0.087717 0.354770 0.238942 0.016857 -0.468215 -0.338815 -0.177772 0.038631 -0.221134 -0.167978 0.360763 0.446797 0.139528 -0.006812 -0.154007 0.322045 0.106953 -0.000630 0.123929 -0.374091 0.081545 -0.334967 -0.725725 0.079391 0.415838 -0.265221 -0.386657 0.044808 -0.307524 -0.292119 0.087531 0.558004 0.203648 -0.444505 -0.830992 0.376503 0.389428 -0.129665 0.287331 0.038324 0.326859 -0.205041 0.104260 -0.325913 -0.085839 0.154994 -0.197263 0.094070 -0.168584 0.210143 -0.122281 -0.075641 -0.425227
53 -0.058561 -0.032807 0.060834 -0.278099 0.161256 -0.180568 0.760921 -0.014059 -0.355103 0.194541 -0.123448 0.235430 0.068076 0.245756 0.085853 -0.214234 -0.140425 0.322476 -0.213015 0.250397 -0.004488 0.472423 -0.675932 0.748928 -0.397682 -0.495091 0.064575 0.129876 0.371218 -0.398801 0.451082 -0.002165 -0.691898 -0.373578 -0.079618 -0.039837 0.320930 -0.094303 0.647339 0.038031 -0.290782 -0.122164 0.394001 -0.628965 0.116849 -0.106870 0.416859 -0.158667 -0.007771 -0.171490 0.198282 0.172886 0.297854 0.204106 0.535097 -0.615368 -0.746862 -0.406334 -0.033916 0.524757 0.614154 -0.298982 -0.034269 -0.024303 0.006813 0.017267 -0.545944 -0.353680 -0.102559 -0.226958 0.220519 0.030571 -0.139465 0.354083 0.152306 -0.096183 -0.066156 -0.109699 0.480280 -0.093893 0.059346 -0.445016 -0.096140 0.185773 0.167400 0.419884 0.642083 -0.015714 -0.068972 -0.016722 0.127705 -0.000486 -0.605170 0.288437 -0.267135 0.631727 -0.275892 -0.069728 0.114439 0.105475 -0.637683 -0.739107 -0.324372 0.262639 -0.191567 -0.597523 0.563765 -0.230000 -0.102035 0.302400 0.008776 0.468459 -0.253675 0.258513 0.268369 -0.044227 0.086247 -0.410657 -0.001497 -0.114013 -0.023152 0.526041 -0.004341 -0.080377 0.601592 -0.600073 0.205522 0.238305
54 -0.018868 0.017000 0.230321 -0.189197 0.164988 -0.350883 0.816243 -0.287965 -0.145881 0.093655 -0.245690 -0.040782 0.128349 0.242289 0.130737 0.012493 -0.210757 0.276147 -0.224741 0.068410 0.192855 0.535517 -0.657285 0.814717 -0.286587 -0.680629 -0.108758 0.133927 0.344696 -0.384965 0.214222 -0.070931 -0.542138 -0.243786 0.189972 -0.124867 0.372170 -0.012104 0.650259 -0.042039 -0.297799 -0.178987 0.408454 -0.282398 0.212659 -0.210536 0.211274 -0.031271 -0.029404 -0.224003 0.108321 0.158621 0.508661 0.306324 0.262557 -0.479793 -0.707849 -0.239973 0.011626 0.444354 0.658622 -0.350454 -0.210615 0.084443 -0.035251 -0.238994 -0.516167 -0.526750 0.007496 0.010135 0.299916 -0.033438 -0.234658 0.320141 0.070896 0.032684 -0.062530 0.038453 0.324359 -0.195540 -0.065261 -0.523740 -0.031962 0.097342 0.161895 0.327724 0.613305 0.039532 0.077271 0.005955 0.210367 0.060078 -0.538175 0.304287 -0.159256 0.631323 -0.558903 0.012702 0.019083 0.134161 -0.507287 -0.839589 -0.112041 0.138313 -0.136453 -0.547775 0.539113 -0.149671 -0.015547 0.322089 0.055898 0.283240 -0.236544 0.345044 0.208562 -0.128083 0.169470 -0.178265 -0.100737 -0.163264 -0.012081 0.436590 0.137406 0.026442 0.557330 -0.602165 0.414356 0.388893
174 -0.338823 -0.046530 0.096875 -0.464336 -0.113490 -0.154513 0.291603 -0.307756 0.007930 -0.188309 -0.115173 -0.116730 -0.372887 0.567671 0.489803 -0.236386 -0.115165 0.051333 -0.349445 -0.353052 0.126436 0.073093 -0.554017 0.467701 -0.528755 0.518574 -0.102556 0.101700 -0.494560 0.024968 -0.004104 0.182137 -0.443496 0.305679 0.161106 -0.384181 0.019677 -0.234203 0.598524 -0.267222 -0.305322 -0.148066 -0.010842 0.174256 0.054786 -0.128811 0.385326 0.140967 0.117432 0.196557 0.207952 0.114934 0.539878 0.224774 0.191397 -0.433960 -0.946592 -0.331828 -0.047304 0.009599 0.606149 -0.959866 0.055427 -0.429975 -0.098118 0.342220 -0.377834 -0.201940 0.037997 -0.140520 0.127087 -0.201105 0.406208 0.052193 0.292511 0.321105 0.213645 -0.171203 0.348063 0.003031 -0.036711 -0.822895 -0.395114 0.031702 0.141192 -0.096475 0.203585 0.056315 0.398604 0.850954 0.161710 0.348350 -0.330872 -0.484920 -0.299627 0.757984 0.097590 -0.417111 -0.450405 0.389969 0.093051 -0.336323 0.324120 -0.042434 0.153514 -0.388481 0.517012 -0.233479 -0.385937 0.076213 -0.008692 0.165386 -0.334272 -0.090524 0.561630 -0.475994 -0.143469 -0.080785 -0.279577 -0.505480 0.409193 0.030218 -0.132142 0.238209 0.368189 -0.566874 0.289447 0.320635
154 0.026748 -0.006070 0.372516 0.121381 0.117254 -0.635994 0.322502 0.258602 0.132766 0.326104 -0.163251 -0.187203 0.057641 -0.461442 0.552790 -0.629952 -0.043699 -0.236762 -0.502746 0.270288 0.137879 -0.214803 0.022264 0.057971 0.001902 0.292172 0.447997 -0.068088 0.141920 -0.245774 0.123602 -0.123421 -0.380651 -0.064579 -0.221284 -0.161070 0.073340 -0.291106 0.067303 -0.106387 0.182891 -0.283264 0.000039 -0.314637 -0.208848 -0.037418 -0.152023 -0.210933 0.733421 0.411005 0.190795 0.373202 0.349901 0.540626 -0.049136 -0.209744 -0.276784 -0.070861 0.026469 0.421810 0.507719 -0.543028 -0.301004 -0.231647 0.174632 -0.098518 0.123255 0.405297 -0.438132 -0.184697 -0.429833 -0.070395 0.407783 0.015755 0.203854 0.066025 0.359578 0.123611 -0.002987 -0.475570 -0.169746 -0.048956 -0.060361 -0.253792 -0.027041 0.156310 0.324074 0.097691 0.057808 -0.081386 0.375569 0.141361 0.099077 0.025295 -0.356734 0.087572 -0.224648 -0.844029 0.105727 0.391252 -0.292731 -0.375258 0.001402 -0.313650 -0.226855 0.139663 0.507158 0.243924 -0.397055 -0.928701 0.438951 0.283183 -0.094425 0.327061 0.123053 0.345027 -0.166310 0.129285 -0.368754 -0.028803 0.073310 -0.222309 0.031463 -0.108457 0.129816 -0.036050 0.045279 -0.391907
139 -0.128845 0.157149 -0.139619 0.090657 0.124517 0.019914 0.343299 0.112099 -0.208249 0.269135 0.266418 -0.443760 -0.064879 -0.374123 -0.118686 -0.178941 0.097939 0.081396 -0.234467 0.214223 -0.155806 0.160534 -0.283694 0.585368 -0.228110 -0.142402 -0.262475 -0.042222 0.174201 -0.209871 -0.334226 0.008407 -0.179391 0.069211 -0.447545 -0.281709 0.541435 -0.341324 0.434390 0.079896 -0.187978 -0.511005 0.196966 -0.115489 -0.241541 -0.269431 0.260792 0.258777 -0.100974 0.008310 -0.036725 0.244787 0.460457 -0.234868 0.070505 -0.147710 -0.631526 -0.280789 -0.136390 0.518830 0.297315 -0.022249 -0.123386 0.208209 0.140509 -0.228011 -0.443668 0.377198 -0.418704 -0.058542 0.015615 0.032621 0.367257 -0.078746 -0.675520 0.009907 0.177351 0.061047 0.522770 0.244230 -0.300016 -0.454581 -0.365823 0.095914 -0.011877 0.260449 -0.021147 0.193301 0.204971 -0.391220 0.140508 -0.132513 -0.301087 -0.004656 -0.278811 0.230597 -0.510533 -0.386830 -0.014496 0.043274 -0.547134 -0.463372 0.219758 -0.076882 -0.078451 -0.128408 0.613078 0.070381 0.208277 0.034069 0.082325 0.364145 -0.362736 -0.266674 -0.030372 -0.329290 -0.257290 -0.326779 -0.177458 -0.815818 -0.311849 -0.000207 0.256210 -0.090033 0.386931 -0.445609 0.341954 0.045472
156 0.022444 -0.087137 0.435275 0.135454 0.151142 -0.535557 0.325983 0.240718 0.075952 0.239397 -0.072853 -0.077349 -0.122847 -0.381720 0.594884 -0.588956 -0.132759 -0.285605 -0.649187 0.216924 0.196510 -0.180639 0.232687 0.059756 -0.169966 0.148739 0.498107 -0.171758 0.193539 -0.184814 0.194389 0.040800 -0.389301 -0.074651 -0.110297 -0.173504 0.036358 -0.238456 0.029845 -0.150472 0.137827 -0.181901 -0.103190 -0.400742 -0.223136 -0.057477 -0.010299 -0.313772 0.527343 0.388814 0.171373 0.305510 0.373240 0.521498 -0.286222 -0.172047 -0.231509 -0.100251 -0.011582 0.281532 0.576974 -0.568058 -0.246959 -0.195517 0.141817 -0.046055 0.199426 0.399410 -0.420068 -0.214997 -0.415820 -0.094979 0.527782 -0.010841 0.221273 0.067695 0.389462 0.106081 0.013962 -0.280314 -0.262837 -0.029283 -0.048433 -0.380772 -0.112017 0.332462 0.313901 0.025323 0.137049 -0.101908 0.154661 0.134032 -0.059825 0.097619 -0.207903 0.128009 -0.162379 -0.811031 -0.021736 0.454651 -0.130708 -0.521456 0.153573 -0.453491 -0.227612 0.055456 0.496082 0.242366 -0.332293 -1.017359 0.349312 0.335129 -0.142873 0.348100 0.080290 0.453637 -0.092559 0.150837 -0.228775 -0.167031 0.158517 -0.124023 0.108041 -0.141116 0.033985 -0.097490 0.091764 -0.358960
173 -0.347756 0.145281 0.064663 -0.489667 -0.176171 -0.076841 0.222111 -0.213672 0.073451 -0.035035 -0.086731 -0.101329 -0.537972 0.623439 0.370273 -0.189030 -0.102058 0.044266 -0.387934 -0.416323 0.176172 0.190253 -0.721152 0.440173 -0.418727 0.333731 -0.223657 0.065874 -0.500090 0.050245 0.135013 0.172968 -0.584427 0.222881 0.019243 -0.381683 0.039759 -0.106397 0.476563 -0.273565 -0.312383 0.018590 -0.103513 0.454247 0.142547 -0.045787 0.260673 0.121506 0.029864 0.127490 0.152366 0.074997 0.689104 0.191763 0.250912 -0.105030 -0.921547 -0.076139 -0.152862 -0.007716 0.396028 -0.926160 -0.043868 -0.381310 0.000198 0.396903 -0.402247 -0.294665 0.093236 -0.128927 0.241470 -0.276665 0.587075 0.064452 0.299733 0.434172 0.227707 -0.055569 0.282042 -0.089153 0.073035 -0.879162 -0.419696 -0.087880 0.194035 -0.043567 0.109268 0.098620 0.328303 0.636977 0.347573 0.318961 -0.359128 -0.387998 -0.358517 0.903159 0.190093 -0.517424 -0.280557 0.375328 -0.058660 -0.448854 0.175508 -0.128084 0.230861 -0.378551 0.596236 -0.178215 -0.218917 -0.158673 0.075553 0.234637 -0.318314 -0.082980 0.703665 -0.496575 -0.110988 -0.084491 -0.161906 -0.362224 0.261402 0.026224 0.048591 0.305999 0.238929 -0.420947 0.254701 0.362057
110 -0.190001 0.197518 -0.216587 0.271678 0.207193 -0.058521 0.274245 0.011411 -0.470769 0.130553 0.592902 -0.174852 0.208308 -0.734136 0.011145 -0.321265 0.166770 0.709405 -0.232994 0.577257 0.254734 0.170598 -0.407515 0.465765 -0.470196 -0.342868 0.171705 -0.281673 -0.081824 -0.424721 -0.117529 0.890352 -0.520226 0.260295 -0.098216 0.082645 0.203430 0.071110 0.814856 -0.077833 -0.048756 0.250854 -0.084471 0.009844 -0.383115 0.322706 0.231161 -0.142123 0.285951 -0.087263 -0.082501 0.246564 0.402516 -0.022477 -0.019135 0.342766 -0.279541 -0.365178 -0.036537 0.226598 0.167633 -0.716460 0.116035 0.135579 0.471018 -0.356371 -0.076554 -0.106122 -0.270517 -0.471170 -0.344918 -0.083454 0.125953 0.272463 -0.234383 -0.148775 0.549206 -0.006537 -0.083173 -0.274801 0.002119 -0.354770 -0.564831 0.043595 -0.329435 0.439059 -0.116510 -0.222615 0.435505 -0.304945 0.209648 0.202435 -0.114185 0.285067 -0.072345 0.187708 -0.227376 -0.090914 0.190438 0.211914 0.297130 -0.220734 0.195808 -0.096459 -0.272548 -0.356724 0.498506 0.242586 0.260958 -0.441929 -0.004519 0.473086 -0.244775 -0.358108 -0.123228 0.172957 -0.499599 -0.274751 -0.271017 -0.526165 -0.361904 -0.340198 0.180716 0.104290 0.414849 -0.539808 0.185953 -0.306821
141 -0.178260 0.007422 0.032553 -0.178434 0.205895 -0.240157 0.559418 0.080592 -0.101143 0.219329 0.206168 -0.210632 -0.048609 0.039636 0.072582 -0.105250 -0.022991 0.244526 -0.288137 0.225699 -0.031258 0.451158 -0.639388 0.466201 -0.552751 -0.334973 -0.012562 -0.046656 0.169777 -0.403867 0.112653 -0.011155 -0.347548 0.079748 -0.183249 -0.231965 0.374184 -0.125397 0.658173 -0.056520 -0.205759 -0.576975 0.317030 -0.253625 -0.053757 0.012643 0.147058 0.012173 -0.286188 -0.444321 -0.082521 0.215656 0.372172 0.031216 0.089102 -0.294617 -0.588495 -0.177804 -0.377331 0.477919 0.420980 -0.307718 -0.306054 0.415817 -0.116557 -0.082324 -0.779904 -0.196235 0.001090 -0.125702 0.270878 -0.081802 0.024795 0.151051 -0.136151 0.020603 -0.055042 -0.014287 0.431821 -0.012907 -0.112192 -0.538763 -0.130293 -0.141627 -0.050393 0.160427 0.203656 0.094282 0.382629 -0.047639 0.298438 -0.126515 -0.282952 0.417340 -0.045959 0.428277 -0.284986 -0.222532 0.133522 0.070204 -0.635615 -0.745398 -0.090014 0.159478 -0.046108 -0.314932 0.250115 -0.310437 0.133488 -0.029884 0.072556 0.249605 -0.241821 0.034191 0.219895 -0.325400 0.118445 -0.306887 -0.161899 -0.453202 -0.090865 0.038514 0.171524 0.354039 0.335112 -0.670145 0.306927 0.353363
283 -0.278072 0.076568 -0.349831 0.258295 0.165211 -0.222676 0.197508 0.010170 -0.431438 0.052795 0.713574 -0.225697 0.101580 -0.467029 -0.109133 -0.200292 0.175443 0.588816 -0.328020 0.677091 0.331847 0.343588 -0.424024 0.493214 -0.495155 -0.337478 0.254118 -0.400225 -0.173393 -0.170312 0.062236 0.540944 -0.515119 0.332553 0.086993 0.103535 0.226018 0.090334 0.650625 0.013897 0.021971 0.302964 -0.132092 -0.104887 -0.437134 0.109719 0.084199 -0.217836 0.387020 -0.245204 0.030979 0.396250 0.577865 0.016693 0.062600 0.247577 -0.419883 -0.405637 0.253278 0.230733 0.027956 -0.756968 0.181740 0.199921 0.489836 -0.422901 0.177196 -0.092065 -0.268108 -0.467944 -0.365473 -0.084148 0.099539 0.405774 -0.040439 -0.201003 0.483572 -0.007656 0.018299 -0.267445 -0.110899 -0.490139 -0.568757 -0.249321 -0.106592 0.478882 -0.256234 -0.218851 0.735352 -0.092635 0.186873 0.144953 -0.385649 0.314697 0.166759 0.234349 -0.432748 0.047310 0.207988 0.020250 0.367546 -0.310820 0.273338 -0.092030 -0.191228 -0.343596 0.353355 0.141545 0.088885 -0.325735 -0.018589 0.407422 -0.044028 -0.139906 -0.028078 0.243863 -0.474045 -0.402215 -0.250551 -0.661411 -0.256552 -0.205280 0.221055 0.041464 0.452730 -0.453277 0.027139 -0.416505
191 -0.035889 -0.236406 -0.225056 -0.187312 -0.470888 -0.121238 -0.059059 -0.213641 -0.317920 0.075338 0.355798 0.298518 0.405675 -0.466150 0.139509 -0.145820 0.107204 0.388602 -0.194687 0.003634 0.134412 -0.409314 -0.509165 0.242996 -0.578935 0.456532 0.002571 -0.403475 -0.209142 -0.081841 0.030933 -0.082251 -0.001272 0.769220 -0.174889 -0.132579 0.073565 0.041127 0.923771 -0.086616 0.058438 0.255724 0.183262 -0.034090 -0.142565 -0.273534 -0.058833 -0.346332 0.099664 0.326677 0.086683 0.320753 0.673236 0.257380 0.068086 0.038416 -0.657687 -0.343009 -0.134633 -0.230261 0.142449 -0.438650 -0.133980 -0.329231 0.418650 0.240024 -0.408942 0.067952 -0.188086 -0.073494 -0.338658 0.180347 0.354091 0.295567 0.224320 -0.101008 0.356175 -0.539066 0.101352 0.084522 -0.101504 -0.149916 -0.359697 -0.196122 0.119914 0.635361 -0.148317 0.150537 -0.137858 0.383977 -0.107132 0.421260 -0.559141 -0.433681 -0.526091 0.498762 -0.164276 -0.250064 -0.355847 0.102222 -0.202747 0.045317 -0.256667 0.123516 0.025933 -0.370446 0.153613 -0.069737 -0.539058 0.231633 -0.048553 0.122018 0.142336 -0.213789 0.717584 -0.015909 0.090950 0.057473 -0.344417 0.195719 0.162094 -0.173962 -0.195536 0.159457 0.238931 0.065197 0.115424 -0.142025
92 -0.144167 -0.277328 -0.039215 -0.368428 -0.247804 -0.485395 -0.438177 -0.153932 0.231987 0.351347 -0.299623 -0.447571 -0.287237 -0.468262 0.292256 -0.225030 -0.028304 -0.094892 -0.600439 0.135871 0.625970 0.151475 0.033193 0.150072 -0.499635 0.315667 0.032656 0.255000 -0.069578 0.662928 0.445508 -0.163757 -0.460127 0.355974 0.334542 0.007727 0.230617 -0.333361 0.727579 -0.484985 -0.366223 0.138467 -0.375970 -0.077731 -0.146838 -0.167570 -0.026196 -0.545411 0.320984 0.587350 -0.004328 0.572876 0.656734 0.192835 -0.035021 0.168832 -0.650130 0.246362 -0.141452 0.770032 0.682863 -0.425054 -0.459349 -0.339144 -0.250744 -0.470613 -0.453911 -0.254625 -0.771470 -0.488053 -0.393772 -0.026757 0.080480 0.000450 0.039818 0.521690 0.051977 -0.357511 0.669673 -0.820583 -0.293776 -0.753517 -0.107583 0.118442 -0.474030 0.580223 -0.176983 -0.103784 0.794354 -0.366926 -0.330854 0.099954 -0.388442 -0.247341 -0.102771 0.771774 -0.391472 -0.137006 -0.242763 0.304062 -0.651344 0.327021 0.280265 -0.618101 -0.141759 -0.010799 0.472758 0.408729 0.167079 -0.541165 0.147954 0.366062 -0.296606 -0.127678 0.154374 -0.402518 0.190910 0.704919 0.393565 -0.155368 -0.123909 -0.143818 -0.101432 -0.282638 -0.197702 0.117202 -0.073245 0.115985
57 0.049206 -0.353618 0.184923 -0.453301 -0.298618 -0.324211 0.151200 0.007665 -0.304673 0.655080 -0.094188 0.005520 0.576827 -0.297647 0.418999 -0.524550 -0.189150 0.242800 -0.150038 0.452927 0.436628 -0.066815 -0.195980 0.361144 -0.296428 -0.017786 0.021310 -0.100734 0.113177 0.052435 0.295881 -0.108115 -0.286498 0.165690 -0.103351 0.261168 0.079702 0.113395 0.233712 0.092336 0.055046 0.082686 0.122495 -0.212828 -0.040461 0.203880 0.012235 -0.033438 0.371838 0.563639 0.086487 0.115832 0.407892 -0.083329 -0.092407 -0.018621 -0.238455 -0.254363 -0.066805 0.471435 0.437545 -0.101402 -0.166307 -0.352561 0.217892 -0.038746 -0.154530 -0.509955 0.202481 0.257926 0.025607 0.084396 0.530616 -0.147097 0.529800 -0.087883 0.114205 -0.066428 0.214546 -0.219600 0.080486 -0.156399 -0.238473 -0.278698 -0.166054 0.574387 0.391348 -0.151814 0.047908 0.276332 -0.080610 0.307735 -0.535457 0.076002 -0.846364 0.479459 -0.259584 -0.539814 0.055152 0.204964 -0.178971 -0.024258 -0.224452 0.282775 -0.364598 -0.268393 0.102713 0.122052 0.009268 0.080222 0.119041 0.241075 0.156298 0.118838 0.001085 0.264635 0.063493 0.535112 -0.762979 0.216829 -0.003271 -0.299527 0.070638 0.275475 0.215275 0.090810 0.013066 0.083870
119 -0.053410 0.294146 -0.294963 0.119358 0.261557 0.062511 0.157387 0.065982 -0.215556 0.210938 0.220180 -0.498573 0.089407 -0.353981 -0.192842 -0.017410 0.297038 0.319090 -0.037530 0.448451 -0.048544 0.210165 -0.164641 0.465642 -0.452886 -0.083307 -0.327244 -0.091098 0.110389 -0.143646 -0.337461 -0.023003 -0.308043 -0.170582 -0.285833 -0.104508 0.624644 -0.589008 0.280685 0.314880 -0.016031 -0.261064 0.086290 -0.286490 -0.053302 -0.128996 0.254936 0.064943 0.072289 0.222350 0.211001 0.353045 0.180314 -0.305552 0.303024 -0.446949 -0.483227 -0.158334 -0.190539 0.509697 0.144722 0.088508 -0.051622 0.160651 0.382077 -0.271828 -0.606849 0.360321 -0.412230 0.020248 -0.245577 0.162382 0.581896 -0.047133 -0.736137 -0.064751 0.146208 -0.040364 0.555662 0.178272 -0.219020 -0.441954 -0.126500 0.300520 -0.296264 0.266794 -0.073409 0.064881 0.217473 -0.492216 0.106717 -0.067536 -0.341457 -0.128258 -0.516272 0.359516 -0.406891 -0.363666 0.027419 0.313045 -0.524247 -0.347084 0.290003 0.033295 -0.307151 -0.271889 0.319635 0.120579 0.055570 0.025256 0.147966 0.411895 -0.348871 -0.222468 -0.069501 -0.221629 -0.197688 -0.332303 -0.092983 -0.596904 0.008557 -0.001405 0.086724 -0.042215 0.493151 -0.305691 0.400327 0.082070
88 -0.232345 0.147636 -0.246002 0.185728 0.057018 -0.279466 0.274650 -0.057972 -0.408196 0.109202 0.606819 -0.330744 0.033753 -0.682608 -0.060078 -0.224317 0.110228 0.515433 -0.296437 0.612085 0.486363 0.415877 -0.492444 0.383474 -0.425598 -0.400696 0.258353 -0.361201 -0.081264 -0.313392 0.076391 0.569033 -0.508851 0.223371 -0.029694 0.191684 0.206891 0.089444 0.758867 -0.016144 0.049918 0.224410 -0.121322 -0.049896 -0.378186 0.250904 0.021854 -0.090302 0.271109 -0.274546 0.102972 0.371573 0.561283 0.075274 0.009243 0.262706 -0.392903 -0.354668 0.069336 0.403273 0.027544 -0.712722 0.206279 0.284259 0.384409 -0.491470 0.158203 -0.167106 -0.106820 -0.407144 -0.263368 -0.135720 0.073480 0.349012 -0.084443 -0.138851 0.538691 0.043807 0.031041 -0.425334 0.000456 -0.456431 -0.521822 -0.357965 -0.085827 0.493514 -0.261557 -0.244594 0.759114 -0.175176 0.213774 0.225289 -0.336451 0.492034 0.184743 0.306913 -0.494558 0.006816 0.292653 0.112290 0.261190 -0.354575 0.252074 -0.067902 -0.211919 -0.184302 0.356094 0.173811 0.233153 -0.423883 0.043234 0.294532 -0.097071 -0.207220 -0.095273 0.125424 -0.488435 -0.262216 -0.233654 -0.528279 -0.385829 -0.323843 0.143675 0.107515 0.465449 -0.389623 -0.042044 -0.317401
163 0.131942 -0.311496 0.337794 0.099788 0.133761 -0.790672 0.267170 0.271777 0.125291 0.197895 -0.163686 -0.083363 0.035006 -0.372655 0.558169 -0.633237 -0.008726 -0.222801 -0.465720 0.331140 0.042264 -0.220250 0.008720 0.142430 -0.086681 0.286523 0.324840 -0.113502 0.191824 -0.218583 -0.071793 -0.058351 -0.267210 -0.105216 -0.333123 -0.236754 0.025844 -0.219441 -0.039775 -0.210994 0.160618 -0.409777 0.043352 -0.252036 -0.199568 -0.039997 -0.128789 -0.239207 0.711515 0.360079 0.209922 0.477563 0.433730 0.454068 -0.203073 -0.175319 -0.264140 -0.068621 0.111928 0.393209 0.711097 -0.369452 -0.491674 -0.198460 0.281744 -0.057430 0.146849 0.400350 -0.671708 -0.032759 -0.267031 -0.025382 0.292009 -0.015863 0.401319 0.249606 0.204157 0.237347 0.092669 -0.368947 -0.170598 -0.099193 -0.057671 -0.189745 -0.036400 0.237686 0.321665 0.201011 -0.032443 -0.059646 0.318308 0.090435 0.182299 -0.031124 -0.272224 0.004282 -0.394504 -0.878923 0.025025 0.281857 -0.402988 -0.521237 0.171039 -0.277575 -0.355221 0.121745 0.567562 0.276368 -0.384417 -0.772429 0.482603 0.169139 -0.255029 0.415274 0.021019 0.392598 -0.171405 0.135259 -0.341188 -0.093676 0.140859 -0.242436 0.096657 -0.114692 0.212211 -0.124461 -0.102530 -0.374132
1 0.106469 -0.196809 0.448634 -0.083248 0.181690 -0.444595 0.089948 0.225976 -0.012841 0.499751 -0.314520 0.077718 0.348772 -0.433147 0.562529 -0.562837 -0.037249 -0.110526 -0.221438 0.195690 0.400343 -0.154841 -0.206913 0.303900 -0.109696 0.198715 0.385421 -0.141425 0.166732 -0.097988 0.185730 0.180870 -0.152746 -0.122507 -0.355805 -0.117781 -0.107792 0.026410 0.298077 -0.221322 -0.144071 -0.376957 0.088828 -0.012700 -0.086100 0.251393 -0.158126 0.034918 0.648392 0.655033 0.168829 0.243847 0.411501 0.398191 -0.300915 0.020830 -0.217389 -0.032503 -0.070600 0.412612 0.570089 -0.797745 -0.266591 -0.181091 0.305670 -0.016308 0.166462 -0.096780 -0.195404 -0.245027 -0.062694 -0.184327 0.238780 -0.179750 0.491662 0.062056 0.126046 0.153213 -0.152833 -0.542744 -0.324669 -0.329644 -0.064223 -0.276468 -0.423872 0.556122 0.490890 0.021030 0.078409 0.000969 0.226040 0.171113 -0.031635 0.122160 -0.611083 -0.001292 -0.107392 -1.003141 0.221437 0.114933 -0.260646 -0.152088 -0.274419 -0.071017 -0.201270 -0.024073 0.494750 0.235144 -0.118489 -0.403084 0.170708 0.174661 0.089909 0.384257 -0.017538 0.597048 -0.115539 0.295643 -0.615175 0.090441 -0.070087 -0.129047 0.349621 -0.012974 -0.080118 -0.125396 0.060626 -0.116637
246 -0.543581 0.127150 0.054579 0.026985 -0.606621 -0.691346 -0.174331 -0.140127 -0.772075 0.941881 0.066241 0.042628 -0.283729 -0.550716 0.167343 -0.418993 0.300816 0.320727 -0.299692 -0.000955 0.085749 -0.421587 -0.410226 0.491784 0.250325 0.373597 0.253787 -0.090358 0.066697 -0.216327 -0.042949 -0.524481 -0.286747 0.706681 -0.443867 -0.061685 0.516609 -0.385058 0.707349 -0.174350 -0.492427 0.456489 0.887854 -0.062094 0.294029 -0.461593 -0.124493 0.074288 0.028207 0.035114 -0.341256 0.241695 0.881052 0.079475 0.282092 0.489811 -0.665348 -0.162737 -0.101228 0.120829 0.214873 -0.279506 -0.250998 -0.001731 -0.132274 -0.102683 -0.212927 -0.277562 -0.334369 -0.137042 -0.781714 0.178078 0.161669 -0.327976 0.106968 0.313941 0.962628 0.228236 0.501768 -0.363087 -0.496984 -0.472370 0.072233 0.053158 -0.197537 0.262951 0.764483 0.038220 -0.157543 0.391830 0.456810 -0.103359 -0.050411 -0.167079 0.172273 0.160763 -0.527308 0.487491 0.526236 -0.542367 0.083740 -0.651937 -0.000148 -0.433904 -0.099994 -0.408303 1.000623 0.695957 0.348289 -0.143184 0.781714 0.482327 0.103599 -0.580608 0.234406 -0.099406 -1.215394 0.262818 -0.811254 -0.775237 -0.524936 -0.176275 -0.137875 -0.283551 -0.237590 -0.015863 -0.156975 0.175731
31 0.221375 -0.688214 -0.400425 0.226436 -0.066357 -0.833571 -0.101890 -0.412313 -0.131130 -0.120242 -0.046526 0.119364 0.035209 -0.561765 0.576960 -0.523329 0.409176 0.046298 -0.571930 0.397971 0.170022 -0.156144 -0.456299 0.411067 -0.283285 0.407871 0.363964 -0.655588 0.271929 0.048701 -0.262410 0.370160 -0.441946 0.028075 -0.137676 0.013817 -0.085059 0.137599 0.416305 -0.505335 -0.353381 -0.281504 -0.579298 -0.252046 -0.066453 -0.598249 0.016287 -0.478271 0.075544 0.583994 -0.122636 0.620274 0.175699 -0.023327 0.264817 -0.250116 -0.328081 -0.035981 -0.227751 0.196077 0.516379 -0.669688 -0.303960 -0.370988 0.342997 -0.273552 -0.679190 -0.166624 -0.405530 0.252029 -0.318667 0.083245 -0.310313 0.146076 0.266655 0.485176 0.058636 0.001347 0.482474 0.027561 -0.286544 -0.440477 0.092608 -0.351287 0.047454 0.299547 -0.249644 0.198131 -0.049802 -0.209909 -0.313092 -0.208106 -0.174595 -0.336479 -0.552562 0.856745 -0.070366 -0.336852 0.011700 0.210536 -0.524487 -0.569803 0.443240 -0.255208 -0.433378 0.044965 -0.068573 0.248045 0.010902 -0.118804 0.219571 0.332707 -0.529672 -0.423686 0.753786 -0.064068 -0.171414 0.424430 0.105350 -0.272147 -0.081190 -0.471878 -0.206347 -0.347287 -0.107318 -0.000711 0.440958 -0.261740
153 -0.174443 -0.112272 0.412320 -0.010187 0.252302 -0.546190 0.346027 0.254519 -0.071292 0.244570 -0.082188 -0.125050 -0.019974 -0.520410 0.425534 -0.496075 0.090284 -0.156779 -0.440266 0.294894 0.277365 -0.351836 0.114893 0.005799 0.006962 0.205085 0.421581 -0.088327 0.101670 -0.191931 0.237045 -0.094640 -0.496027 -0.229436 -0.101449 -0.094055 0.274315 -0.285818 0.192626 0.033402 0.114483 -0.344930 0.053170 -0.200605 -0.207528 -0.042706 -0.099512 -0.139503 0.795360 0.446230 0.373087 0.359316 0.498095 0.733246 -0.056627 -0.258954 -0.419473 -0.049239 -0.011927 0.245788 0.422840 -0.381333 -0.299173 -0.130220 0.197766 -0.112405 0.239172 0.346887 -0.499515 -0.118869 -0.282681 -0.032665 0.310980 0.109540 0.298052 0.285246 0.288193 0.311739 0.051156 -0.419903 0.005193 -0.137014 -0.078911 -0.284714 -0.104167 0.236086 0.336207 0.283574 0.018369 -0.088493 0.435130 0.140234 -0.059816 0.101868 -0.444692 0.005638 -0.160600 -0.730106 0.030990 0.450927 -0.322893 -0.404242 -0.049256 -0.369214 -0.110225 0.167632 0.594473 0.294673 -0.443364 -0.721062 0.385043 0.447792 0.023641 0.372581 -0.157006 0.420990 -0.292102 0.105708 -0.235311 -0.157687 -0.081515 -0.176969 0.148972 -0.130676 0.076702 -0.046662 -0.213369 -0.440488
8 -0.543917 -0.239336 0.403087 0.135773 -0.516782 -0.441888 0.282233 -0.068607 -0.183771 0.299057 0.107543 -0.291369 -0.701523 0.149568 0.707286 -0.919866 -0.237288 -0.162369 -0.154710 0.197418 -0.051020 -0.288676 0.044046 -0.147951 -0.331722 0.096008 -0.066816 -0.002265 -0.162049 -0.311064 -0.066738 -0.026256 -0.291412 -0.203708 0.177886 0.011543 0.505248 -0.469287 0.242812 0.286405 -0.077290 -0.250342 0.033428 0.087231 0.214418 -0.016534 0.010641 -0.024656 0.112123 0.681134 -0.081997 0.475433 0.838147 0.187284 0.384933 -0.603487 -0.862731 -0.176105 -0.438690 0.238677 0.822389 -0.724774 -0.120340 -0.204056 0.520683 -0.176563 -0.421517 -0.433157 0.182931 -0.191443 -0.225566 -0.151818 0.591283 -0.063648 0.431472 0.474148 -0.059919 0.350909 0.200272 -0.073254 0.562788 -0.506062 -0.712815 0.023083 -0.045518 0.228185 0.620592 -0.009773 -0.055204 0.041778 0.219998 0.137662 -0.128533 0.001912 -0.458706 0.077564 -0.285373 -0.369941 -0.371490 0.478063 -0.344161 -0.067815 -0.367803 -0.560449 0.095969 -0.532323 0.796312 -0.108776 -0.261903 -0.444816 -0.052164 0.826452 -0.214988 -0.171275 -0.220004 0.337821 -0.535791 0.406745 -0.622278 0.088543 -0.050056 -0.038296 0.235575 -0.049868 0.142941 -0.199776 0.393526 0.258596
291 -0.120855 0.185329 -0.273969 0.254566 0.012013 -0.214109 0.224390 -0.067059 -0.326928 0.061431 0.661644 -0.207334 0.034392 -0.581717 -0.148431 -0.192202 0.044435 0.518364 -0.295386 0.681482 0.451613 0.319452 -0.468865 0.430122 -0.419440 -0.350437 0.166500 -0.435260 -0.201183 -0.163811 0.147221 0.569869 -0.617643 0.319967 0.125566 0.210850 0.231424 0.094439 0.820418 0.002828 0.056779 0.278247 -0.213020 -0.027538 -0.434823 0.089534 0.002842 -0.178277 0.228876 -0.209995 -0.016925 0.404361 0.597814 0.066315 -0.001014 0.346018 -0.407303 -0.440859 0.007804 0.189927 -0.049007 -0.822603 0.043721 0.304894 0.359159 -0.341657 0.125822 -0.198585 -0.248666 -0.416718 -0.355359 -0.119141 0.054724 0.259860 -0.107804 -0.027899 0.644942 -0.034320 0.044622 -0.306527 -0.085437 -0.475305 -0.516291 -0.262834 -0.151431 0.422780 -0.134869 -0.268990 0.630901 -0.298288 0.037319 0.196087 -0.411399 0.354077 0.199956 0.246592 -0.480673 -0.022870 0.203073 0.332518 0.249147 -0.234093 0.283769 -0.059726 -0.147579 -0.342104 0.406840 0.140150 0.224847 -0.422716 -0.022724 0.332522 -0.049622 -0.261849 -0.005305 0.191264 -0.500153 -0.270052 -0.157871 -0.440166 -0.303227 -0.399913 0.211823 0.072094 0.427103 -0.363858 0.157431 -0.501445
74 -0.477007 0.041902 0.059301 -0.355554 -0.094791 -0.038591 0.264023 -0.242950 -0.066998 -0.088823 -0.174377 -0.243956 -0.634552 0.616528 0.544987 -0.403725 0.003051 -0.060089 -0.432881 -0.345181 0.006802 -0.022320 -0.413200 0.523487 -0.623124 0.531507 -0.135978 0.147924 -0.521534 0.088575 0.072897 0.166181 -0.488577 0.117763 0.225273 -0.237406 0.046617 -0.351785 0.384783 -0.215198 -0.201458 -0.178852 -0.093454 0.169644 0.186218 0.064476 0.332336 0.041733 0.230867 0.345560 0.253079 0.178611 0.499011 0.135521 0.171415 -0.402291 -0.953582 -0.342007 -0.212006 0.024833 0.557359 -1.087958 -0.033763 -0.467250 0.061082 0.224479 -0.375914 -0.167501 -0.095407 -0.160066 0.135329 -0.234400 0.361713 0.047792 0.308723 0.416726 0.104141 -0.130803 0.484017 0.084161 0.152683 -0.935951 -0.495154 -0.039394 -0.068729 -0.003069 0.032688 0.017684 0.341770 0.671141 0.127247 0.300278 -0.529508 -0.433587 -0.301603 0.718735 0.176957 -0.497448 -0.241957 0.377633 0.044447 -0.387958 0.163025 -0.179574 0.173000 -0.440420 0.557300 -0.215661 -0.395802 -0.030646 -0.020433 0.180154 -0.314242 0.039975 0.480188 -0.408165 -0.007325 0.005901 -0.141530 -0.279058 0.260235 0.136076 -0.052086 0.112553 0.255880 -0.523148 0.112425 0.383511
185 -0.782285 0.054492 -0.519219 0.333423 -0.577083 -0.509077 0.132839 -0.001086 -0.605705 0.397434 0.722472 -0.895159 -0.133059 -0.618828 0.511296 0.558696 0.133273 0.444805 0.008949 0.350437 0.225747 0.034802 -0.540092 0.659480 0.133833 -0.030962 0.058975 0.232885 -0.425903 -0.288390 0.244209 -0.408323 -0.451832 0.402799 0.192910 -0.281303 0.740535 -0.442027 0.862895 0.065826 0.065911 -0.082114 0.718644 0.544642 -0.290131 -0.483509 0.079426 -0.094816 0.621570 0.325817 0.497770 0.610550 0.727850 -0.123492 0.482835 0.191294 -0.484426 -0.607685 0.358881 0.681115 1.105622 -0.224261 -0.169206 -0.469112 0.055802 0.038447 -0.351124 -0.217248 0.014495 -0.135751 -0.447595 0.093899 0.662070 0.482356 -0.247921 0.542540 0.425341 0.032588 0.487762 -0.797981 -0.087692 -0.406004 -0.100198 0.140098 -0.796324 -0.033207 0.083768 0.116858 0.405931 0.938135 -0.314378 0.121847 -0.345384 -0.636410 -0.205807 0.022493 -1.250295 0.537520 -0.277023 0.525535 -0.122249 -0.765735 1.034107 -0.098894 -1.078527 -0.391300 0.298501 0.259819 -0.002306 -0.028197 0.688374 0.152548 -0.246176 0.386312 0.280382 0.001082 -0.032188 0.125842 -0.522999 -0.752652 -0.357913 -0.596933 -0.060050 -0.003434 0.108344 -0.149601 -0.253943 -0.128982
164 0.452865 -0.638262 -0.146975 0.051432 -0.300440 -0.790086 -0.332039 -0.302466 0.065872 -0.052297 -0.223128 0.029006 -0.029152 -0.328348 0.647260 -0.424626 0.298654 0.276466 -0.681942 0.317793 0.250607 0.020622 -0.365163 0.394945 -0.283750 0.381660 0.409144 -0.720500 0.271768 0.150304 -0.186238 0.232115 -0.437097 0.091786 -0.037728 -0.022881 -0.048387 0.029892 0.654882 -0.461819 -0.541075 -0.554196 -0.609799 -0.064590 0.096113 -0.358043 0.211417 -0.374738 -0.042325 0.447072 0.234527 0.494788 0.266151 -0.180965 0.274889 -0.166139 -0.524570 -0.140183 -0.165758 0.243375 0.772718 -0.713799 -0.228630 -0.458366 0.377770 -0.271174 -0.476403 -0.196242 -0.494375 0.080262 -0.437693 0.181615 -0.370278 0.005351 0.094557 0.315867 0.004721 -0.049704 0.349347 -0.103406 -0.338535 -0.414133 0.229146 -0.275697 -0.280870 0.271213 -0.092098 0.087242 -0.299675 -0.286800 -0.361283 -0.242577 -0.199349 -0.258933 -0.575455 0.865048 0.009865 -0.164481 0.033460 0.523582 -0.462443 -0.486289 0.353032 -0.344911 -0.271401 -0.122250 0.107505 0.328141 0.114138 -0.052095 0.094203 0.197381 -0.506644 -0.624946 0.612268 0.105642 -0.352618 0.629064 0.112156 -0.477586 -0.047818 -0.643673 -0.288281 -0.220862 -0.123188 -0.131792 0.425232 -0.210236
90 -0.170085 -0.327620 -0.059973 -0.553843 -0.152672 -0.440226 -0.358133 -0.245771 0.212025 0.252071 -0.350041 -0.338427 -0.295662 -0.368898 0.340294 -0.302880 -0.032720 -0.085888 -0.595179 0.187542 0.683387 0.138328 0.067728 0.097736 -0.523491 0.422731 -0.009611 0.355812 -0.170193 0.685198 0.321232 -0.120626 -0.523008 0.287844 0.267102 0.066172 0.224408 -0.312847 0.465704 -0.486396 -0.314514 0.120739 -0.409561 0.004711 -0.027695 -0.078376 -0.065245 -0.465785 0.322407 0.568660 -0.070583 0.564662 0.708350 0.254079 -0.112531 0.046486 -0.623703 0.186773 -0.195416 0.642410 0.690675 -0.481158 -0.436084 -0.334206 -0.142064 -0.344163 -0.382427 -0.216584 -0.745387 -0.406672 -0.363538 -0.117390 0.075858 -0.008653 0.075195 0.575488 0.037714 -0.332263 0.575401 -0.643663 -0.215837 -0.795832 -0.178372 0.163189 -0.510069 0.527852 -0.119123 -0.024913 0.781293 -0.344642 -0.265468 0.150789 -0.407251 -0.323182 -0.103533 0.733197 -0.448497 -0.161569 -0.282169 0.398176 -0.527385 0.278273 0.210735 -0.522135 -0.058853 0.087654 0.522329 0.392484 -0.090847 -0.600007 0.116266 0.311634 -0.331113 -0.101191 0.166798 -0.445009 0.137504 0.747727 0.261454 -0.195754 0.009060 -0.201230 -0.065869 -0.179180 -0.088893 -0.045940 -0.078866 0.000129
233 -0.468033 0.007788 0.428877 0.015307 -0.041445 -0.438546 -0.404651 0.028988 -0.579250 0.197367 0.030613 0.378093 -0.179625 -0.668590 0.459265 -0.305072 -0.009884 0.095749 -0.156449 -0.071809 0.026854 -0.027111 -0.652890 0.185473 -0.303859 0.437095 0.053909 -0.269833 -0.006652 -0.089825 -0.129359 0.214085 -0.030461 0.349049 -0.444843 -0.099793 -0.044647 0.023454 0.921547 -0.098349 -0.061417 0.179019 -0.020328 0.332182 -0.167157 -0.251820 -0.186505 -0.171365 0.181382 0.934889 0.174293 0.207845 1.152944 0.693419 0.252761 0.408985 -0.551294 0.359985 -0.062172 0.089330 -0.200897 -0.497568 -0.074703 -0.136927 0.753987 0.075117 0.239752 0.062634 -0.210742 -0.469861 -0.346623 0.225929 0.484238 -0.228719 -0.105064 0.179427 0.271273 0.194023 0.164666 -0.797142 -0.574901 -0.631264 -0.284551 -0.079930 0.160439 1.048234 0.082917 -0.554717 -0.331710 0.200034 -0.103494 0.258392 -0.421116 -0.392541 -0.459380 0.328001 -0.134570 -0.826759 -0.004614 -0.227139 -0.202495 -0.489482 -0.336287 -0.327291 -0.126323 -0.119547 0.779859 -0.088423 -0.598509 -0.097572 0.290500 1.004096 0.479057 0.154266 0.206512 0.177061 -0.122262 0.169703 -0.212827 0.164655 -0.455031 0.337257 0.082093 -0.360133 0.142342 0.056169 0.074321 0.478892
26 -0.093424 0.407536 -0.125779 0.213368 0.218133 0.110354 0.513158 0.034612 -0.254775 0.316400 0.041629 -0.483311 -0.036701 -0.477940 -0.288724 -0.021696 0.220583 0.321920 -0.338643 0.430985 0.054443 0.226893 -0.189507 0.747570 -0.347850 -0.081500 -0.204003 -0.212767 -0.186816 -0.276775 -0.268744 0.295658 -0.270878 -0.239545 -0.454400 -0.269184 0.335426 -0.361946 0.393882 0.097447 -0.002454 -0.368569 0.083303 -0.237065 -0.177377 -0.076511 0.246142 0.054491 0.150503 0.223792 0.048520 0.254825 0.402465 -0.343419 0.250452 -0.313060 -0.412523 -0.397145 -0.012072 0.476043 0.245671 -0.277537 0.100308 0.031936 0.033182 -0.148702 -0.112738 0.296968 -0.313721 -0.065149 -0.039486 -0.243985 0.467700 -0.119746 -0.796836 -0.015129 0.060229 0.108442 0.416320 0.060420 0.000113 -0.431999 -0.228843 0.118623 -0.116448 0.133560 -0.027877 -0.084441 0.148628 -0.262279 0.060993 -0.068353 -0.079885 -0.082341 -0.196822 0.182366 -0.355803 -0.347538 0.032141 0.275377 -0.287519 -0.183512 0.125968 -0.061922 -0.108503 -0.235253 0.942065 0.093483 0.399210 0.023521 0.127546 0.383253 -0.297707 -0.349597 0.082238 -0.288132 -0.255063 -0.371123 0.058429 -0.750719 -0.091657 0.077400 0.012407 -0.051160 0.592792 -0.325904 0.385507 -0.152969
278 -0.481590 -0.143664 -0.394460 -0.095979 -0.388335 -0.613665 0.563950 -0.011642 -0.566671 0.161277 0.157527 -0.842563 -0.494263 0.030653 -0.128954 -0.667351 0.286562 0.222771 -0.406594 0.316752 0.022544 0.439466 -0.166668 0.512420 0.153516 0.097816 0.124339 -0.204410 -0.688914 -0.106184 0.081663 -0.457650 -0.172834 0.022684 -0.049942 -0.439104 0.481765 -0.209883 0.436627 -0.368679 0.073795 0.032830 -0.458445 0.288145 0.009821 -0.964240 0.233687 -0.019435 -0.087487 0.307995 -0.696385 0.297854 0.662636 0.271457 0.600831 -0.364728 -0.014277 -0.988831 0.308498 0.566903 0.764887 -0.526430 0.099282 -1.014161 0.457672 -0.071947 -0.568584 -0.476871 -0.046804 -0.193451 -0.452508 0.161259 0.887125 -0.068658 -0.397643 0.668355 0.350273 0.571519 -0.053736 -0.831694 -0.076717 -0.554774 0.028628 0.286092 0.213765 -0.218369 0.488499 -0.742506 0.053169 0.227331 -0.036812 -0.043429 -0.219532 -0.504497 -0.241302 0.439279 -0.564807 -0.090035 -0.054722 0.457092 0.006885 -0.091629 0.914364 -0.086820 -0.471400 -0.404563 0.607396 0.435447 0.379744 -0.566396 0.079374 0.426483 -0.675413 -0.208637 -0.144809 -0.314491 -0.618761 0.058677 -0.228753 -1.004324 -0.425935 -0.476306 0.683115 -0.440769 0.273032 0.370496 0.214996 -0.558443
148 -0.110639 -0.184310 0.056143 -0.759771 -0.027355 -0.498119 -0.611198 -0.302877 -0.154129 0.063596 -0.278842 -0.409650 -0.375469 -0.378849 -0.100549 0.208036 0.081803 0.780057 -0.427281 -0.180279 0.337056 0.293052 0.249506 0.400454 0.048229 0.334749 0.222508 0.143481 -0.299151 -0.043171 0.268058 -0.027990 0.141151 0.280003 0.311108 -0.263988 0.475018 -0.133998 0.962432 -0.349746 -0.633429 0.157250 0.168845 0.381429 0.024544 -0.156099 0.394925 -0.012169 0.350108 0.451563 -0.257472 0.189297 0.667498 0.356164 -0.120276 0.010202 -0.534025 -0.299424 0.409125 0.580151 0.514931 -0.580016 0.095193 -0.625302 -0.357589 0.126639 -0.291842 -0.291024 -0.896338 -0.255342 0.006893 -0.412123 0.160745 -0.045654 0.034562 0.606090 0.053139 -0.828199 0.535960 -1.077023 0.009605 -0.576460 -0.290698 0.079466 -0.635720 0.319631 0.021967 -0.195830 0.875459 0.152601 0.095260 -0.008212 -0.155476 -0.386277 0.076160 0.330682 -0.763465 -0.008952 -0.150117 0.251609 -0.181826 -0.672393 0.390837 -0.244788 -0.164263 -0.505968 0.720686 0.354156 0.198744 -0.302508 0.573611 0.258045 0.122558 -0.141770 0.613672 -0.154751 0.108746 0.649103 0.183440 -1.011254 -0.325295 -0.269666 -0.011349 -0.432639 0.434238 -0.263480 -0.592485 -0.217580
147 -0.013598 -0.232506 0.442406 0.062245 0.050733 -0.675393 0.313303 0.222383 0.174331 0.361741 -0.178121 -0.104443 0.049919 -0.464882 0.570836 -0.628632 0.028518 -0.164899 -0.483849 0.313671 0.102407 -0.227279 0.098929 0.109863 0.078432 0.270684 0.353545 -0.143417 0.108284 -0.129433 0.142468 -0.157301 -0.281782 -0.099694 -0.253376 -0.212023 0.174341 -0.228895 0.089204 -0.055624 0.057184 -0.358418 0.122516 -0.136975 -0.236814 0.050237 -0.125124 -0.187415 0.650900 0.445478 0.312189 0.373511 0.357422 0.622323 -0.065753 -0.155926 -0.180989 -0.017376 0.071705 0.393942 0.460024 -0.492876 -0.360761 -0.285365 0.294640 -0.088587 0.106691 0.394383 -0.509940 -0.214574 -0.320821 -0.070638 0.372455 0.108418 0.362905 0.175488 0.326582 0.193249 -0.024757 -0.278927 -0.219266 -0.094332 -0.136948 -0.231324 -0.085891 0.302456 0.441357 -0.022242 0.000560 -0.029247 0.413224 0.110679 0.174960 0.056782 -0.326209 0.030317 -0.272236 -0.751516 -0.020198 0.293648 -0.326523 -0.429069 -0.050512 -0.258988 -0.174749 0.063497 0.550921 0.276067 -0.356880 -0.740634 0.470189 0.347604 -0.090065 0.334240 0.077550 0.405716 -0.282259 0.066630 -0.362082 -0.093855 0.054817 -0.213141 0.100709 -0.148089 0.133548 -0.095887 -0.083155 -0.419321
5 -0.084287 0.094788 -0.127013 0.181468 0.095579 -0.253764 0.311772 -0.063606 -0.412293 -0.044368 0.476155 -0.261951 0.025090 -0.560760 -0.051810 -0.261681 0.179375 0.535303 -0.366100 0.614505 0.537987 0.332068 -0.546441 0.529205 -0.594782 -0.330067 0.230808 -0.445766 -0.177591 -0.282103 0.050400 0.565663 -0.475862 0.340880 0.149342 0.169721 0.145926 0.149402 0.694770 0.030832 0.007763 0.148140 -0.239493 -0.040039 -0.410913 0.163879 0.074694 -0.073071 0.232577 -0.302403 0.008131 0.342683 0.499684 -0.028434 -0.049164 0.192061 -0.338702 -0.428448 0.119331 0.244440 -0.118407 -0.737153 0.208589 0.254696 0.219483 -0.273552 0.210603 -0.099762 -0.197255 -0.378758 -0.170894 -0.153035 0.049362 0.185501 -0.041087 -0.094270 0.478472 0.101493 0.051849 -0.384838 -0.220424 -0.602921 -0.533493 -0.346297 -0.098283 0.390844 -0.177203 -0.253296 0.763134 -0.069258 0.301480 0.180872 -0.405050 0.353646 0.035516 0.364425 -0.420207 -0.115488 0.180234 0.162521 0.289915 -0.416512 0.251588 -0.126237 -0.107745 -0.160403 0.271260 0.102462 0.212273 -0.324397 0.065601 0.244194 -0.134450 -0.242542 0.030473 0.161898 -0.576436 -0.327353 -0.212669 -0.500202 -0.209692 -0.376580 0.164876 0.054635 0.560208 -0.496677 0.057763 -0.346311
252 0.027089 -0.061366 -0.149860 -0.062701 0.271086 -0.787999 0.438705 -0.125383 0.310733 0.434109 0.111901 -0.045216 0.037313 -0.333843 0.631049 -0.644195 0.096700 0.509361 -0.473303 0.060513 0.053477 0.026384 -0.046758 0.238488 0.241396 -0.047679 0.485101 -0.090340 0.118275 -0.414762 0.198352 -0.214469 -0.185141 -0.007532 -0.193082 -0.389492 0.320845 -0.034941 0.419510 0.036790 0.157811 -0.173114 0.264865 0.055097 -0.021063 -0.085669 -0.095445 -0.302087 0.779796 0.180761 0.401481 0.440483 0.312536 0.707489 0.058811 -0.094874 -0.417327 -0.198477 0.216556 0.371994 0.771482 -0.638294 -0.262682 -0.225747 0.160900 -0.306910 -0.063756 0.451065 -0.575004 -0.026727 -0.037141 -0.178365 0.322678 -0.151413 0.179035 -0.387914 0.553549 -0.074177 -0.215633 -0.475380 -0.112568 0.248779 -0.127587 0.149449 0.095004 0.220845 0.468258 0.302451 0.043249 -0.043638 0.294705 0.328450 0.390914 0.036969 -0.003204 0.031466 -0.309405 -0.194561 0.045230 0.091010 -0.372792 -0.533674 -0.353787 -0.195917 -0.188118 -0.054434 0.463501 0.521028 -0.251479 -0.573439 0.404199 0.249080 -0.386890 -0.024900 0.139172 0.409095 0.206182 -0.071662 -0.056249 -0.384081 0.334659 -0.038923 0.226351 0.112561 0.037655 0.178937 0.235983 -0.553545
11 -0.633068 -0.247804 0.301708 -0.020679 -0.465031 -0.457041 0.303538 -0.188666 -0.257998 0.224428 -0.075532 -0.187016 -0.652757 0.266228 0.684236 -1.075608 -0.140200 -0.148973 -0.220782 0.059482 0.012760 -0.304483 0.043064 -0.259352 -0.260371 0.140790 -0.133772 0.052712 -0.268502 -0.409704 -0.034772 -0.147725 -0.286260 -0.196236 0.224451 0.132281 0.579169 -0.403995 0.320328 0.225514 -0.035684 -0.140768 0.051291 0.007185 0.143646 -0.074576 0.027852 -0.003495 0.126216 0.442205 -0.064718 0.454491 0.868660 0.061591 0.335605 -0.560957 -0.928905 -0.121160 -0.457657 0.377187 0.746893 -0.738027 0.005485 -0.223465 0.568165 -0.247654 -0.315388 -0.405568 0.197307 -0.158655 -0.169820 0.082410 0.514496 -0.119010 0.509371 0.500488 0.106640 0.375554 0.268176 -0.009870 0.575077 -0.561447 -0.837989 -0.045231 -0.065639 0.328198 0.703629 -0.034078 -0.019974 0.309957 0.197776 0.174603 -0.316984 0.161137 -0.345805 0.242550 -0.230542 -0.480888 -0.240958 0.457991 -0.239137 -0.054092 -0.399214 -0.503322 0.006108 -0.360734 0.916349 0.065181 -0.260296 -0.349416 -0.046135 0.817814 -0.357586 -0.160594 -0.338138 0.247119 -0.494295 0.547840 -0.722278 0.112626 -0.054103 -0.026307 0.265037 0.010497 0.111152 -0.191216 0.350642 0.299628
249 -0.529308 0.142625 -0.026754 -0.004805 -0.681600 -0.700674 -0.282136 -0.145937 -0.604685 0.980933 0.069802 -0.055078 -0.395488 -0.526674 0.130933 -0.317158 0.275323 0.292361 -0.340869 0.082391 0.062157 -0.331840 -0.384465 0.494822 0.269229 0.347698 0.184744 -0.165927 0.053975 -0.182826 0.053070 -0.595142 -0.232295 0.665414 -0.449174 -0.008924 0.514833 -0.344058 0.733273 -0.293636 -0.539710 0.461204 0.833696 0.003683 0.236567 -0.519654 -0.096354 -0.018346 0.051602 0.138601 -0.297405 0.323496 0.878477 0.057163 0.306033 0.493840 -0.653148 -0.150334 -0.071562 0.109072 0.268519 -0.288986 -0.265850 0.006052 -0.142735 -0.179303 -0.317587 -0.211711 -0.362302 -0.088802 -0.690153 0.152757 0.177524 -0.322917 0.049514 0.362138 0.898725 0.289726 0.466054 -0.433348 -0.529597 -0.519276 0.096718 0.046064 -0.261698 0.250795 0.663962 0.068477 -0.115112 0.381156 0.432344 -0.034343 0.110487 -0.216618 0.164408 0.138447 -0.579644 0.501229 0.583067 -0.495350 -0.016833 -0.573432 -0.069043 -0.524003 -0.122419 -0.370412 0.978753 0.699904 0.387896 -0.218995 0.833915 0.391211 0.041903 -0.569411 0.248829 -0.136687 -1.110547 0.384997 -0.714547 -0.667853 -0.495325 -0.244022 -0.105840 -0.269191 -0.289124 0.045548 -0.213339 0.232895
17 0.533912 -0.573828 -0.167090 0.004956 -0.133515 -0.557038 -0.049062 -0.301638 0.062998 -0.032064 -0.242284 0.078317 -0.022778 -0.389130 0.474106 -0.448823 0.565291 0.161805 -0.508526 0.424983 0.388375 -0.168889 -0.241486 0.186760 -0.267118 0.368068 0.339653 -0.657918 0.266037 0.135480 -0.013778 0.487193 -0.340748 0.101561 0.145459 -0.074910 -0.066576 -0.047821 0.584731 -0.308989 -0.409077 -0.387425 -0.576535 -0.169660 -0.095666 -0.280473 0.325402 -0.346351 -0.007469 0.407374 0.011235 0.333086 0.120966 -0.060323 0.376925 -0.265200 -0.387588 0.066058 -0.145326 0.116540 0.504439 -0.657357 -0.220500 -0.398467 0.177096 -0.214208 -0.429699 -0.159377 -0.217862 0.124144 -0.383286 0.196038 -0.215411 -0.074351 0.201280 0.283630 -0.057131 -0.135543 0.276344 -0.206524 -0.411879 -0.553182 0.130133 -0.183846 -0.233483 0.341743 0.137952 0.217869 -0.163567 -0.220102 -0.384373 -0.198437 -0.126752 -0.274737 -0.683008 0.695072 0.013462 -0.128551 -0.126815 0.529621 -0.385330 -0.364797 0.497571 -0.207686 -0.377060 -0.014621 -0.019571 0.278740 0.056641 -0.044343 0.128065 0.080544 -0.455096 -0.415273 0.746659 -0.061004 -0.376193 0.510315 0.143089 -0.396730 0.016797 -0.441143 -0.118294 -0.081583 -0.001187 -0.150757 0.371264 -0.124555
114 -0.275220 -0.234219 -0.319698 -0.522894 0.381581 -0.311938 0.447409 0.002293 0.117950 -0.013584 0.151285 -0.034378 0.194200 0.146555 0.443976 -0.138779 0.225268 0.680396 -0.178523 0.122223 0.181457 0.579392 -0.742226 0.684854 -0.623812 -0.481879 -0.091834 0.012589 -0.035555 -0.463641 0.173359 -0.153516 -0.269992 -0.122880 -0.018627 -0.197975 0.379211 0.180729 0.678676 0.219220 -0.343035 -0.331332 0.335849 -0.074805 -0.062763 -0.035071 -0.228973 -0.243886 -0.340083 -0.182261 -0.053959 0.430870 0.411344 0.058593 0.155009 -0.205578 -0.387255 -0.244013 -0.310148 0.606573 0.423543 -0.316454 -0.437365 0.214822 0.140352 0.036522 -0.832481 -0.090961 -0.070978 0.146787 0.314197 -0.168032 0.127277 0.195065 0.052427 -0.237925 0.059605 0.040597 0.490715 -0.233421 -0.073234 -0.370310 -0.065564 0.071601 -0.090462 0.311348 0.328956 0.093563 0.202984 -0.067426 0.536997 -0.055716 -0.339371 0.186251 -0.188757 0.470621 -0.444897 -0.014427 0.103661 0.226674 -0.818489 -0.925692 -0.037611 0.128717 -0.438448 -0.421417 -0.041693 0.020098 0.026419 0.164858 0.192724 0.528276 -0.489205 -0.087410 0.141300 -0.289618 0.146193 -0.197809 -0.103757 -0.434499 0.227472 0.187278 0.083556 0.222137 0.191475 -0.451074 0.445248 0.188698
13 0.213254 -0.281052 0.211704 -0.317602 0.107454 -0.216300 0.156129 0.031160 -0.104799 0.615213 -0.345047 0.170901 0.679676 -0.253682 0.662190 -0.620354 -0.071453 0.086716 -0.165911 0.303566 0.470842 -0.095936 -0.248342 0.296482 -0.114001 0.078215 0.401965 -0.142854 0.215482 -0.002863 0.060163 0.075965 -0.412088 -0.047866 -0.151394 0.150272 -0.092054 -0.057830 0.166706 -0.153006 -0.076685 -0.181368 -0.042162 -0.024029 -0.001274 0.429101 -0.030962 -0.110861 0.473935 0.562433 0.251493 0.120754 0.442636 0.143386 -0.224823 -0.093028 -0.261040 -0.056840 -0.070861 0.212106 0.610618 -0.352946 -0.303974 -0.370753 0.390377 -0.105401 0.080882 -0.133416 -0.064241 -0.041289 -0.117694 0.056815 0.358587 -0.130471 0.685204 -0.000642 0.136258 0.080213 -0.057399 -0.551712 -0.182801 -0.284304 -0.007432 -0.412265 -0.508655 0.512937 0.426436 0.090182 -0.039538 0.121970 0.061376 0.228116 -0.481764 -0.014796 -0.777870 0.301940 -0.214028 -0.644493 0.349260 0.209319 -0.143993 -0.252954 -0.033328 0.083521 -0.507582 0.081145 0.232435 0.237209 -0.151047 -0.147765 0.088230 -0.051538 0.045747 0.343793 -0.164045 0.272123 -0.140226 0.539973 -0.443640 -0.037848 -0.029968 -0.273572 0.336483 0.043243 -0.014401 -0.079985 -0.045829 0.056362
285 -0.089675 -0.152739 -0.504323 0.083640 -0.429300 -0.500191 -0.252187 -0.185209 -0.145400 0.073245 -0.125866 0.033452 -0.108780 -0.379806 0.502726 -0.331269 0.333406 0.125800 -0.051179 -0.159904 0.703091 0.509801 -0.625665 0.854206 -0.375442 0.323180 0.565371 0.002094 0.391834 -0.224857 -0.167017 0.141251 -0.410775 0.319362 -0.285637 -0.599204 0.155202 0.045102 0.914373 0.316979 -0.224155 -0.325157 0.367228 -0.077823 0.154105 -0.639737 0.036996 0.023946 -0.425852 0.114232 0.092198 0.078149 0.344184 -0.005082 0.741554 -0.300735 -0.598969 -0.182176 -0.360323 0.714129 0.094768 0.197058 -0.449059 0.148173 0.044983 -0.267641 -0.479891 0.025951 0.154912 -0.080882 -0.550925 0.386160 0.097169 0.338199 -0.347232 -0.093733 0.129243 0.071621 0.425104 -0.113159 -0.208836 -0.265977 -0.089360 -0.109412 0.030916 0.539665 0.246887 0.095567 -0.568238 -0.510568 0.259241 -0.171031 -0.638975 -0.659500 -0.773264 0.150018 -0.122658 0.271585 -0.282519 0.899653 -0.357664 -0.520222 -0.166104 -0.217547 -0.078150 -0.249300 -0.034577 -0.177229 0.063055 -0.407940 0.366569 0.650142 -0.403206 -0.066712 0.600847 -0.193162 0.022341 -0.141311 -0.518380 -0.902140 0.142298 -0.259656 -0.372100 -0.136596 -0.182657 -0.068584 0.326762 -0.347148
102 0.146193 0.007593 0.006448 -0.367639 0.198853 -0.173726 0.632690 0.032271 -0.009976 0.005465 -0.012074 -0.057923 -0.041453 0.008652 0.186346 -0.314294 -0.007183 0.437047 -0.222452 0.136554 0.118446 0.385754 -0.678755 0.475585 -0.417916 -0.623873 0.010972 0.049896 0.444974 -0.470006 0.253835 0.094130 -0.287629 -0.119773 0.086801 -0.028160 0.183689 0.078741 0.681978 -0.067096 -0.449185 -0.418392 0.198387 -0.235052 0.173917 -0.159276 0.365861 -0.171075 -0.169227 -0.234595 0.014680 0.185859 0.219658 0.247887 0.354809 -0.506439 -0.566752 -0.273421 -0.158445 0.578037 0.580019 -0.307092 -0.226096 0.104187 0.086359 -0.220410 -0.568105 -0.295752 -0.138776 -0.146654 0.431655 -0.126350 -0.209333 0.254266 0.191806 -0.051914 0.051360 0.137524 0.374113 -0.263486 -0.049012 -0.451494 -0.311017 -0.053434 0.079689 0.341920 0.559103 0.216409 0.177694 -0.154762 0.254656 0.147664 -0.559681 0.494288 -0.388277 0.636748 -0.443826 -0.049845 0.053160 0.282500 -0.630993 -0.736871 -0.108214 -0.086022 -0.033607 -0.370100 0.078418 -0.065203 0.158725 0.110459 0.087116 0.403740 -0.239409 0.170912 0.180987 -0.079195 0.138092 -0.196309 -0.137860 -0.351043 -0.141278 0.274358 0.340828 0.116718 0.226673 -0.691793 0.482254 0.314176
61 0.101483 -0.439861 0.299594 -0.555280 -0.458545 -0.324738 0.178448 -0.008743 -0.234130 0.766394 -0.061384 -0.026301 0.477422 -0.263250 0.364988 -0.336612 -0.237761 0.188516 -0.080177 0.297420 0.414863 -0.236358 -0.313897 0.275903 -0.045986 -0.240728 -0.114453 0.008782 0.087336 -0.394643 0.305039 -0.184116 -0.275960 0.209954 0.127591 -0.012384 0.260710 0.122095 0.529253 0.043869 -0.011874 -0.014073 0.171051 -0.244759 0.143911 0.131854 0.009573 -0.126579 0.467836 0.551720 0.076109 0.229169 0.616756 0.026314 0.192293 0.095495 -0.442839 -0.246922 -0.121883 0.334923 0.566085 -0.095891 -0.276728 -0.548608 0.012742 -0.173841 -0.127761 -0.769588 0.357776 0.340577 -0.045099 0.036103 0.470442 -0.047930 0.591663 0.017291 -0.109935 -0.229495 0.323023 -0.426583 0.158316 -0.134787 -0.276299 -0.265348 -0.207214 0.477116 0.674655 0.052051 0.043693 0.276506 -0.132765 0.380026 -0.624708 0.038614 -0.881842 0.305568 -0.332560 -0.618733 -0.154559 0.323061 -0.391619 0.033713 -0.169936 0.182151 -0.651276 -0.322423 0.177757 -0.042550 0.124217 0.246608 0.106418 0.246669 0.345937 0.369956 0.031225 0.340144 0.155258 0.421827 -0.511787 0.279465 -0.177738 -0.333282 0.335742 0.035775 0.036975 -0.018313 0.096875 0.257963
178 -0.579841 0.122385 -0.533118 0.241930 0.132838 -0.602274 0.152165 -0.119132 -0.036668 0.582008 0.419369 0.334156 0.325798 -0.309283 0.758628 -0.118118 0.018924 0.780978 0.038579 0.381972 -0.212534 0.120189 -0.562470 0.118878 0.066685 0.039710 0.347902 0.154179 -0.364492 -0.688493 0.695657 0.348524 -0.453363 -0.032971 -0.239821 -0.524987 0.431568 0.202975 0.848973 0.125542 -0.279009 -0.054463 0.225931 0.236705 0.026465 -0.209798 0.017337 -0.331814 0.633349 0.455437 0.679394 0.419414 0.313533 0.133029 0.718100 0.286602 -0.193962 -0.274605 -0.110676 0.311957 0.706713 -0.637035 -0.269595 -0.545603 0.252401 -0.395952 -0.565459 -0.156748 -0.303124 0.265342 0.121673 0.104939 -0.048849 0.021801 -0.027246 -0.493451 0.068605 0.070228 0.311726 -0.367287 -0.516114 -0.429230 -0.066946 -0.014685 -0.006202 0.816856 0.568095 0.138861 -0.010070 0.105680 0.245628 0.113745 -0.313966 -0.101830 -0.444418 0.113715 -0.254059 0.058447 -0.294215 -0.261023 -0.067386 -0.631691 -0.282817 0.050615 -0.710420 -0.406971 -0.074764 -0.090018 0.093961 -0.105981 0.430694 0.314183 -0.379104 0.197776 0.158009 0.255421 0.218903 -0.943734 -0.135191 -0.664437 0.241549 -0.013330 0.433802 -0.013744 -0.142267 -0.252667 0.230209 -0.203258
276 -1.043794 -0.008252 -0.145984 -0.501332 -0.050550 -0.826667 -0.063967 0.130863 -0.274613 0.588651 -0.163496 -0.758709 -0.055457 0.200362 -0.025643 -0.840454 0.062035 0.744798 0.021177 0.536003 -0.163711 0.294912 -0.301576 0.581253 -0.120713 -0.059374 0.135692 0.206958 -0.534881 0.126249 0.108148 -0.168263 -0.362598 0.743921 -0.166944 -0.628856 0.559002 -0.767971 1.498688 -0.488042 -0.597597 0.736657 0.452242 -0.070298 -0.294501 -0.553806 0.521632 -0.041266 -0.164669 0.288924 -0.420101 0.042087 1.093588 -0.235428 0.174822 0.004745 -0.538708 -0.272774 0.138997 0.588424 0.596014 -0.201419 -0.040355 -0.383524 0.038135 -0.212797 -0.491486 -0.300819 0.085261 -0.237734 0.030246 0.535618 0.971983 -0.211822 -0.288834 -0.086935 0.495370 -0.145640 -0.090682 -1.246827 -0.712612 -0.686593 0.001522 0.501430 0.211916 0.177139 0.872383 -0.080768 0.438654 1.283094 -0.037788 0.080269 0.313919 -0.231213 -0.103489 0.234778 -0.621091 -0.190992 0.009343 -0.373020 -0.325099 -0.109910 0.667180 -0.046892 -0.945325 -0.838014 0.723683 0.375053 0.169381 -0.218823 0.224103 0.540317 -0.624149 -0.112373 -0.497355 -0.061037 0.048277 -0.481145 -0.473020 -0.465313 -0.169117 -0.189132 0.288855 -0.131194 0.529998 0.078104 0.482800 -0.060043
7 -0.033068 -0.208789 0.235812 -0.039953 -0.674698 -0.549872 0.262783 -0.035464 0.131455 0.008200 -0.029292 0.366527 0.485039 -0.449857 0.165908 0.071531 0.044191 -0.084352 -0.403957 0.541697 0.130253 -0.491465 -0.337648 0.731698 -0.222059 0.049354 0.055727 -0.286374 0.244098 0.108430 0.439615 -0.057677 -0.557852 0.229182 -0.140645 -0.022932 -0.231678 -0.706799 0.577156 -0.346876 -0.315458 0.315287 0.568609 -0.427959 0.256312 -0.252283 0.437596 -0.596893 0.467158 -0.000731 -0.013249 0.314425 0.520312 0.661686 0.238517 -0.205422 -0.465100 -0.299226 -0.085864 0.062353 0.492880 0.092634 -0.110102 -0.354457 -0.304702 0.186756 -0.248677 -0.059436 -0.540301 -0.382345 -0.602371 -0.001468 0.042852 0.612725 0.286592 0.128284 0.263701 -0.262711 -0.032470 -0.650725 -0.069585 -0.213047 0.096646 0.172050 0.141043 0.256423 0.391326 0.000960 -0.311229 0.085851 0.170709 0.560225 -0.428256 0.102558 -0.093831 0.619135 -0.259276 -0.030354 -0.241774 0.466072 -0.302386 0.130949 -0.118736 -0.207434 -0.253055 -0.620442 0.810309 0.516440 -0.461512 0.121237 0.400591 -0.009210 -0.262443 0.326444 0.411506 0.295831 -0.211768 -0.087233 -0.119987 0.446743 0.325435 -0.047537 -0.059904 -0.078070 0.159866 -0.090299 -0.316045 -0.177722
131 -0.942456 -0.713890 0.358264 -0.223103 0.122573 -0.603517 0.151272 0.031409 -0.550549 0.436549 0.043872 -0.375167 -0.740021 -0.610089 0.641196 -0.656027 0.385520 0.067469 -0.099069 -0.123266 0.791009 0.479631 -0.802492 0.021220 0.349382 0.401153 0.638199 0.234452 0.288190 -0.815990 0.338825 -0.307917 -0.514089 0.150540 -0.245522 -0.288840 0.254795 -0.332731 0.353787 0.658377 0.310070 -0.196007 0.227896 -0.115229 0.429196 -0.703512 -0.441784 0.114508 -0.024727 0.486963 -0.157342 0.281987 0.480952 0.367233 0.724294 -0.332956 -0.327262 0.146096 0.180214 0.283755 0.319941 -0.012807 0.472516 -0.093670 0.152725 -0.121504 -0.426523 -0.541450 0.280856 0.049866 -1.057290 0.065184 0.101924 0.043306 -0.202041 0.334643 -0.001850 0.067337 0.372497 -1.150640 0.269933 -0.253761 -0.117021 0.482569 -0.034676 0.491448 -0.039889 -0.102833 -0.100700 0.207343 0.125589 0.143277 -0.687047 -0.595491 -0.079081 0.531977 -0.634733 0.232654 0.042547 0.509991 0.023959 -1.395250 0.385101 0.150432 -0.161954 -0.136280 0.755102 0.320609 -0.011747 -0.527011 0.570587 0.766542 -0.786879 0.236549 0.403359 0.289001 0.210919 -0.160813 -0.519350 -0.789637 -0.243071 0.218274 0.084175 -0.576480 0.319446 -0.079609 -0.376024 -0.171869
127 -0.289027 0.267156 -0.204828 0.198767 -0.338972 -0.448162 -0.067283 -0.400689 -0.846352 0.211213 0.639092 -1.030105 -0.784043 -0.599419 0.450381 -0.078110 0.505785 0.308722 0.355336 -0.670544 0.397202 -0.409035 -0.015884 0.380258 0.109548 0.615226 0.111618 -0.359548 -0.779205 -0.666294 0.626874 -0.242481 -0.170055 0.112415 0.038774 0.261256 0.776434 -0.594478 1.169625 -0.027085 -0.076715 -0.084825 0.992770 0.079027 0.307751 -0.699342 -0.324528 0.051714 0.638541 -0.137840 -0.302245 0.225425 0.801045 0.201171 -0.222594 -0.212349 -0.809914 -0.242418 -0.364627 0.706261 0.703970 -1.008991 -0.655824 0.120764 0.334436 -0.530755 -0.824093 -0.299450 -0.875446 0.140656 -0.244854 0.040095 -0.156549 0.492437 0.364123 0.411935 0.202505 0.254711 0.937513 -0.744547 -0.273338 -0.607458 -0.115958 -0.148944 -0.103287 0.262265 -0.060475 0.421210 0.563694 0.338247 0.008553 0.026392 -0.369040 -0.185141 -0.242782 0.254947 -0.562569 0.141756 -0.017528 0.589352 -0.144123 -1.126278 1.155431 -0.407642 -0.597108 -0.643244 0.969767 0.734539 0.247871 0.247607 0.716981 0.008035 -0.382880 -0.188037 -0.169505 0.460328 0.013188 0.737308 -0.301898 -0.678577 -0.358751 -0.489392 0.645467 0.259377 -0.349508 0.453927 -0.059587 0.373169
58 0.158227 -0.396535 0.244550 -0.596099 -0.326505 -0.245176 0.119466 0.066398 -0.307499 0.675198 0.105460 -0.075412 0.513286 -0.300566 0.293339 -0.411478 -0.033029 0.221958 0.054339 0.370723 0.366125 -0.222343 -0.265800 0.281734 -0.115275 -0.112524 -0.022093 -0.131675 0.195722 -0.205864 0.253859 -0.065580 -0.189579 0.255069 -0.107705 0.054756 0.185347 0.113998 0.416628 0.088549 -0.065725 0.102491 0.229910 -0.340562 0.016382 0.075000 0.013605 -0.109275 0.458327 0.525277 -0.011074 0.190215 0.541831 -0.005608 0.104615 -0.013833 -0.380092 -0.261746 -0.091849 0.384035 0.486244 -0.083496 -0.136782 -0.496196 0.196064 -0.128400 -0.153543 -0.600901 0.231832 0.272526 -0.135930 -0.007349 0.517476 0.065004 0.580552 -0.196214 -0.053874 -0.130131 0.248630 -0.345417 0.050303 -0.118572 -0.210934 -0.232952 -0.152721 0.446142 0.398105 0.116563 0.023224 0.244791 -0.121578 0.337807 -0.501283 0.030388 -0.986514 0.373424 -0.317436 -0.623063 -0.031836 0.292400 -0.344904 -0.013159 -0.176910 0.228438 -0.538252 -0.266654 0.086715 0.117903 0.067279 0.193137 0.136622 0.248190 0.280282 0.172088 0.055036 0.360739 0.048278 0.483875 -0.632008 0.231834 -0.100792 -0.312073 0.290749 0.195546 0.127583 0.055708 0.155230 0.205204
77 0.175289 -0.303977 0.203161 -0.455226 -0.462244 -0.235884 0.238562 0.062039 -0.256744 0.557194 0.046865 0.003264 0.501322 -0.181639 0.333090 -0.635956 -0.065223 0.235501 -0.087353 0.437363 0.306500 -0.209808 -0.231531 0.411342 -0.305433 0.154788 -0.087473 -0.073093 0.006114 -0.021694 0.290959 -0.100244 -0.203236 0.353267 -0.129526 0.110419 -0.025534 0.191027 0.349899 0.199040 -0.051266 0.365939 0.144188 -0.318107 -0.117112 0.129108 -0.130144 -0.205567 0.338089 0.461485 0.039705 0.226737 0.566293 -0.015722 0.006373 0.047004 -0.353105 -0.284122 -0.157075 0.287432 0.334528 -0.282639 -0.179556 -0.404921 0.170042 0.137304 -0.147524 -0.307818 0.162942 0.220222 -0.043643 0.084912 0.603962 -0.152832 0.624193 -0.269228 0.216362 -0.109709 0.246028 -0.292422 0.119971 -0.074778 -0.057692 -0.270468 0.001486 0.445114 0.349722 -0.037233 -0.064659 0.236942 -0.197120 0.249092 -0.399851 -0.037023 -0.824582 0.478051 -0.325342 -0.486155 -0.067970 0.329972 -0.278731 0.054797 -0.178008 0.252632 -0.378661 -0.297545 -0.144045 0.011983 -0.123981 0.063816 0.054551 0.066785 0.286312 0.077443 0.026069 0.014900 -0.097953 0.339238 -0.511744 0.275217 0.088542 -0.263957 -0.051092 0.241417 0.074805 0.125546 0.050594 0.004871
188 -0.100387 0.457247 0.047894 0.048868 0.202734 0.010974 0.429372 -0.055474 -0.178686 0.278034 0.274674 -0.560205 -0.120152 -0.323904 -0.201593 0.001441 0.205661 0.313804 -0.203607 0.222560 0.082142 0.412053 -0.113906 0.650188 -0.295808 -0.125589 -0.222321 -0.278458 -0.049619 -0.309891 -0.243784 0.248414 -0.328866 -0.048106 -0.272848 -0.224831 0.464391 -0.280343 0.317451 0.215278 -0.074921 -0.356636 0.099688 -0.239641 -0.194617 -0.077241 0.313110 0.201291 -0.020337 0.066925 0.012228 0.072529 0.426149 -0.304617 0.209578 -0.207886 -0.435771 -0.425053 -0.144777 0.404593 0.231708 -0.068133 0.092516 0.140481 -0.004054 -0.087174 -0.418074 0.274446 -0.476119 -0.138732 -0.135983 -0.015909 0.551761 -0.083260 -0.797669 -0.071237 0.335144 0.220433 0.593720 0.205795 -0.425350 -0.533687 -0.226110 0.192739 -0.234384 0.174435 0.018689 -0.064432 0.094061 -0.437813 0.180645 -0.088148 -0.143336 -0.087697 -0.369250 0.283362 -0.471283 -0.323904 0.089151 0.334607 -0.246276 -0.185093 0.175922 -0.059286 -0.015538 -0.087049 0.717196 0.019020 0.351739 -0.157529 0.017433 0.439104 -0.405439 -0.193018 -0.105001 -0.343780 -0.424579 -0.249542 -0.087246 -0.770763 -0.081078 0.049020 0.107004 -0.113445 0.627536 -0.446397 0.295223 0.153988
172 -0.210612 0.306922 -0.395522 0.141185 0.117789 -0.084410 0.213170 -0.099388 -0.371377 0.219960 0.537974 -0.028835 0.259506 -0.639344 0.085412 -0.344196 -0.062259 0.652345 -0.119520 0.595267 0.132016 0.199753 -0.215424 0.336688 -0.532580 -0.272589 0.313809 -0.192906 -0.188399 -0.378572 0.129496 0.680713 -0.488130 0.222589 -0.105520 0.290996 0.278705 0.221861 0.744077 0.217279 -0.019302 0.085967 -0.085502 0.113225 -0.299747 0.431418 -0.176700 -0.143992 0.307114 0.103187 -0.084547 0.348560 0.409498 0.090186 -0.154806 0.074749 -0.435803 -0.341515 -0.213473 0.051424 -0.115860 -0.974018 0.197501 0.173335 0.356558 -0.453436 0.014233 0.021761 -0.104885 -0.172218 -0.307517 -0.036798 -0.070308 0.199361 -0.255939 0.083533 0.340319 -0.017931 0.015247 -0.454942 -0.234777 -0.290140 -0.576197 -0.038787 -0.137781 0.522992 -0.072323 -0.315571 0.440087 -0.294734 0.036145 0.151984 -0.230481 0.184991 -0.139603 -0.126576 -0.206996 -0.147111 0.123084 0.256303 0.271887 -0.272834 -0.136751 -0.174662 -0.207971 -0.208719 0.570114 -0.073697 0.355044 -0.281911 0.046019 0.490139 -0.143629 -0.218377 0.008841 0.025266 -0.320588 -0.118232 -0.337413 -0.635748 -0.321826 -0.119668 0.409997 0.198407 0.380908 -0.566005 0.159009 -0.287223
215 -0.479929 -0.356423 0.628763 0.118664 -0.135157 -0.269840 -0.164501 0.401378 -0.252075 0.939952 0.345713 0.089278 -0.009041 -0.234016 -0.104695 0.071305 -0.050269 -0.087939 -0.137912 0.073367 0.144637 0.120269 -0.791159 0.152011 0.087136 0.544887 0.249087 -0.363970 -0.385770 -0.696097 0.627648 -0.535062 -0.559343 0.420711 -0.562655 -0.291286 0.379844 -0.473209 0.722170 -0.283824 -0.139331 0.074279 -0.056484 -0.199220 0.565710 -0.777811 -0.234966 -0.155970 0.537282 0.051760 -0.190824 -0.141908 0.658354 0.165517 0.734007 0.315401 -0.015671 -0.167226 0.152804 0.068965 0.625708 -0.160015 -0.088896 -0.287010 0.144096 0.249003 -0.316323 -0.286746 -0.468104 -0.562325 -0.626855 0.109957 0.007287 -0.010107 -0.425720 0.158014 0.146155 -0.474064 0.405131 -1.006417 -0.094001 -0.631840 -0.271897 0.492811 0.423762 0.801687 -0.150649 -0.244483 0.440139 0.039528 0.022743 0.054177 -1.357891 0.259332 0.035529 0.767777 -0.446425 -0.003568 -0.369597 0.285116 0.151851 -0.484721 0.598452 -0.127312 -0.723081 -0.583431 0.779634 0.265600 -0.043917 0.074161 0.322909 0.660070 -0.401587 -0.067419 0.549540 0.512798 0.439557 -0.629208 -0.295168 -0.268300 -0.092917 0.175564 0.914653 -0.685420 0.133302 -0.014162 -0.544011 -0.159311
50 -0.026370 -0.037187 0.051644 0.071895 -0.592550 -0.446112 0.393966 -0.159474 -0.026661 -0.035455 0.074451 0.388485 0.386619 -0.418035 0.110932 -0.006350 -0.066883 0.026935 -0.379235 0.310534 0.176601 -0.374408 -0.348916 0.843433 -0.337217 0.129737 -0.006513 -0.540756 0.154019 -0.009661 0.307643 -0.063432 -0.533913 0.118723 -0.152393 -0.082191 -0.238294 -0.526692 0.498554 -0.285755 -0.160593 0.244706 0.533318 -0.505393 0.471309 -0.223884 0.509175 -0.510714 0.399048 0.042753 0.017772 0.112011 0.559422 0.603377 0.275406 -0.206202 -0.493155 -0.425258 -0.168591 0.108342 0.420109 0.076981 -0.224644 -0.298886 -0.300737 0.304460 -0.287117 -0.107964 -0.533080 -0.333639 -0.232840 0.000927 0.122753 0.535483 0.239932 0.014418 0.335930 -0.177006 0.052100 -0.378783 -0.087087 -0.024558 0.070633 -0.068801 0.230230 0.320203 0.302457 0.125393 -0.343922 -0.003660 0.000474 0.505239 -0.498112 0.189643 -0.188750 0.659872 -0.318865 -0.068259 -0.107077 0.394917 -0.369662 0.279479 -0.129699 -0.060231 -0.120186 -0.527206 0.901383 0.486734 -0.515626 0.208869 0.289400 0.010997 -0.046871 0.137686 0.515492 0.262119 -0.022006 -0.033296 -0.031737 0.265560 0.308652 -0.136129 -0.068364 -0.096832 0.219441 -0.075017 -0.328977 -0.334671
280 -0.387058 -0.107231 -0.509190 -0.129421 -0.426211 -0.508037 0.505413 -0.008760 -0.571373 0.089808 0.175553 -0.879608 -0.404415 0.075904 -0.143120 -0.424591 0.151986 0.195909 -0.441982 0.329258 -0.078442 0.350590 -0.144336 0.496078 0.152816 0.011605 -0.005685 -0.100749 -0.695090 -0.090734 0.022900 -0.484996 -0.137806 -0.050500 -0.037825 -0.418382 0.425938 -0.033222 0.351807 -0.458617 0.002747 0.003014 -0.443329 0.328884 -0.090775 -0.844925 0.281599 0.001342 0.011584 0.261995 -0.705264 0.336055 0.633613 0.290200 0.556996 -0.338822 0.001475 -1.016411 0.353074 0.610058 0.844821 -0.600550 0.110091 -1.016411 0.513060 -0.085641 -0.647508 -0.449117 0.053747 -0.314560 -0.342861 0.215981 0.857599 0.051340 -0.396019 0.692581 0.435494 0.461851 -0.027982 -0.845595 -0.029606 -0.606567 0.042636 0.182746 0.150951 -0.257265 0.588914 -0.736905 0.079491 0.299806 -0.040332 0.069694 -0.220222 -0.467742 -0.355462 0.498412 -0.610923 -0.165981 -0.107823 0.404756 -0.114385 -0.067159 0.939629 -0.025010 -0.471187 -0.482923 0.585263 0.459060 0.310445 -0.579605 0.082313 0.501724 -0.635863 -0.148589 -0.079644 -0.355867 -0.589353 0.079883 -0.251247 -1.078096 -0.495521 -0.531481 0.723026 -0.398590 0.282811 0.318521 0.240046 -0.533537
203 -0.988192 0.232928 -0.065537 0.244442 -0.597202 -0.724299 -0.282527 0.184145 -0.226447 0.048765 0.552667 -0.802438 -0.624327 -0.006753 0.625158 0.120735 0.004878 0.589985 0.100921 0.126315 0.263005 -0.214393 -0.630097 0.056098 -0.570070 0.199680 -0.123249 -0.639935 0.035352 -0.235571 0.200235 -0.140329 -0.176417 0.194004 0.198678 -0.045699 0.235498 -0.578993 0.437921 -0.102438 -0.265001 0.161971 0.383864 -0.057490 0.128047 -0.446739 0.203907 -0.805165 0.545961 1.090158 0.585522 0.287012 0.734632 0.062073 0.702053 -0.097958 -0.744170 -0.106872 -0.063181 0.713608 0.332385 -0.679928 -0.144811 -0.031677 0.170616 -0.238195 -0.653765 -0.414443 -0.255893 -0.303775 -0.264627 0.414489 0.992476 0.051759 0.249423 0.503054 0.642239 0.165739 0.505469 -0.244726 -0.764508 -0.780963 -0.091292 -0.695397 0.143408 0.440245 0.255561 0.323596 0.835196 1.251545 0.120905 -0.039089 -0.150978 -0.096141 -0.033467 0.805132 -0.433774 0.419003 -0.455148 -0.149712 0.155826 -0.648947 1.122780 -0.677205 -0.258581 0.109702 0.023903 -0.099953 0.273836 -0.023493 0.419413 -0.030745 0.101853 -0.376180 0.629034 -0.080028 -0.277728 0.056969 -0.415244 -0.346092 -0.307657 0.058059 -0.475392 0.120721 -0.001018 0.024235 -0.334475 0.517698
125 -0.239259 0.282945 -0.213081 0.203102 -0.365171 -0.466864 -0.071628 -0.417262 -0.840058 0.200874 0.661079 -1.055727 -0.783988 -0.614306 0.441272 -0.046902 0.496658 0.324315 0.337984 -0.660812 0.426562 -0.430169 -0.023895 0.420298 0.072992 0.611313 0.088145 -0.402536 -0.771674 -0.704657 0.646706 -0.199943 -0.189766 0.103285 0.058321 0.283179 0.770032 -0.592751 1.190642 -0.031877 -0.077258 -0.085889 1.031718 0.075423 0.320725 -0.686062 -0.322051 0.034246 0.661255 -0.151854 -0.275506 0.262013 0.805910 0.190867 -0.242361 -0.217974 -0.824927 -0.264955 -0.385903 0.727263 0.699852 -1.039721 -0.679219 0.133611 0.316957 -0.555236 -0.831320 -0.316640 -0.920365 0.160609 -0.250056 0.014797 -0.168539 0.513944 0.377930 0.405111 0.205010 0.235683 0.970655 -0.698494 -0.270871 -0.617190 -0.123639 -0.182787 -0.127223 0.270887 -0.078505 0.455912 0.628310 0.315863 0.017374 0.050339 -0.389246 -0.150268 -0.236361 0.259953 -0.562757 0.155776 -0.016242 0.602783 -0.143894 -1.137553 1.160450 -0.442762 -0.605621 -0.665166 0.966926 0.731250 0.287610 0.259091 0.753052 -0.011127 -0.363149 -0.187058 -0.147609 0.458227 0.015277 0.765204 -0.275502 -0.660844 -0.339799 -0.525978 0.641962 0.286645 -0.342665 0.428564 -0.075639 0.379097
107 -0.079830 0.300042 -0.225352 0.100523 0.175618 -0.018940 0.233613 -0.017346 -0.364804 0.093959 0.240391 -0.240823 0.328706 -0.724218 -0.033886 -0.300398 0.174814 0.684944 -0.339081 0.537851 0.281151 0.089973 -0.156080 0.574141 -0.188669 -0.196098 0.076483 -0.353665 -0.230181 -0.329107 -0.144065 0.686093 -0.578485 0.095115 -0.017231 0.005036 0.158981 -0.313877 0.576811 0.068177 -0.007767 0.137260 -0.113098 -0.147746 -0.183237 0.249075 0.152477 0.001389 0.247550 -0.146696 -0.154753 0.125205 0.502230 -0.067960 0.157447 0.022811 -0.375479 -0.318835 -0.098675 0.245709 -0.016602 -0.573666 0.238730 -0.116953 0.238935 -0.313965 0.107478 -0.072362 -0.357572 -0.105960 -0.412233 -0.192065 0.162993 0.214292 -0.451644 -0.039244 0.468885 -0.034904 0.201953 -0.227162 -0.103511 -0.422926 -0.502358 -0.042292 -0.341751 0.208464 -0.176197 -0.050817 0.342336 -0.430364 0.291764 0.164186 -0.208791 0.266742 -0.097316 0.348997 -0.296916 -0.086064 0.281941 0.121556 0.152306 -0.225494 0.314866 -0.052856 -0.147617 -0.150450 0.582666 0.294529 0.377778 -0.148409 -0.141997 0.236445 -0.156888 -0.387856 -0.137709 0.041216 -0.663054 -0.259125 -0.038141 -0.608744 -0.297030 -0.333061 0.100633 0.134409 0.382908 -0.394265 0.244034 -0.400899
162 0.155753 -0.198512 0.347830 -0.065534 0.202147 -0.309253 0.180197 0.412409 0.070871 0.486346 -0.228972 0.038326 0.252119 -0.457686 0.599421 -0.506132 -0.092495 0.064915 -0.197682 0.168946 0.106240 -0.206110 -0.062972 0.107447 0.056419 0.221703 0.289453 -0.137225 0.177515 -0.177151 0.288977 0.176963 -0.201643 -0.109586 -0.371115 -0.120987 -0.013232 0.036521 0.232286 -0.230869 -0.061094 -0.214466 0.057505 -0.016552 -0.149247 0.268327 0.012224 -0.128245 0.675877 0.509211 0.163528 0.092417 0.361060 0.398533 -0.306245 -0.171995 -0.143425 -0.108860 -0.006293 0.448069 0.427851 -0.587281 -0.451768 -0.249110 0.250091 0.062544 0.270346 0.220067 -0.320396 -0.167802 -0.156492 0.084959 0.353457 0.064914 0.580823 0.124937 0.109675 0.142996 -0.242824 -0.571396 -0.142101 -0.275600 -0.166566 -0.403322 -0.316354 0.513985 0.408716 0.044352 -0.045894 0.002532 0.385194 0.177524 -0.042332 0.146423 -0.618566 0.112900 -0.011176 -0.917612 0.109826 0.311235 -0.361355 -0.567054 -0.161385 -0.019554 -0.235622 0.006142 0.571255 0.168619 -0.220358 -0.502902 0.325025 0.190340 0.028767 0.191611 0.027151 0.375933 -0.306291 0.314564 -0.480982 -0.011729 -0.168340 -0.167539 0.217093 -0.118584 0.145556 -0.191745 -0.196422 -0.040774
129 -0.888082 -0.808823 0.498126 -0.297867 0.132355 -0.565597 0.109832 0.031025 -0.458770 0.350253 0.156869 -0.542637 -0.761218 -0.650699 0.609161 -0.599571 0.403603 0.012890 -0.121718 -0.131597 0.697760 0.427357 -0.782876 0.037705 0.378748 0.348374 0.541203 0.170497 0.239149 -0.846117 0.299343 -0.391486 -0.439231 0.098892 -0.280143 -0.272573 0.423047 -0.256914 0.246550 0.664535 0.131158 -0.049326 0.252135 -0.049605 0.399340 -0.679645 -0.483182 0.183463 0.005364 0.422078 -0.235219 0.371262 0.433475 0.298497 0.631117 -0.379105 -0.406483 0.082611 0.172903 0.247863 0.191642 -0.141422 0.469478 -0.080099 0.130652 -0.058989 -0.417077 -0.534830 0.182062 -0.044375 -1.128867 0.043968 0.034338 0.119764 -0.230479 0.349099 -0.048860 0.045183 0.410453 -0.986217 0.236554 -0.262576 -0.109703 0.448054 -0.107091 0.387317 -0.009128 -0.276853 -0.037416 0.143867 0.220905 0.026567 -0.638469 -0.681154 -0.016251 0.453152 -0.705817 0.156680 -0.101683 0.523619 0.125524 -1.420187 0.400956 0.085977 -0.065290 -0.158573 0.686401 0.219851 -0.026083 -0.558311 0.699326 0.786560 -0.704910 0.184051 0.549285 0.279919 0.046559 -0.174773 -0.508584 -0.830565 -0.162725 0.173004 0.000533 -0.652921 0.276682 -0.178995 -0.403044 -0.242972
