232 128
219 0.767401 -0.445658 0.098360 -0.638746 -0.455680 -0.333253 -0.569729 -0.063784 -0.200709 0.175755 -0.331895 0.433351 -0.164103 0.086930 -0.353033 -0.082155 0.003051 -0.117825 -0.143732 0.047961 -0.324212 -0.155330 -0.781318 0.285571 0.099935 -0.301560 -0.271410 -0.645778 0.081826 -0.298688 -0.120847 0.042648 0.041984 -0.231642 -0.298550 0.129163 0.235960 0.183611 -0.002800 -0.028843 -0.344230 0.139383 -0.049619 -0.155034 -0.026554 0.072615 -0.074373 -0.317951 0.459395 -0.292380 0.455766 0.187108 0.452060 0.306693 -0.077519 0.058105 -0.464696 -0.291520 -0.372722 0.404692 0.099237 0.006200 -0.106134 0.179370 0.092907 0.225857 0.987481 -0.001411 -0.579803 -0.141357 0.212214 -0.220658 -0.291079 -0.045956 0.344803 -0.153084 0.490735 0.152678 0.048374 -0.081668 0.032477 -0.144820 -0.371574 0.027838 0.100628 0.152085 -0.071678 0.257773 0.046730 0.060779 0.360948 0.273346 -0.123689 0.495016 0.120487 -0.222890 -0.397665 -0.399294 0.426418 0.083691 -0.054637 0.149430 -0.275386 -0.625184 -0.533284 0.254862 -0.106546 0.085583 -0.343160 -0.013854 0.154661 0.405053 -0.194851 0.305627 -0.118100 -0.023789 -0.018886 -0.018680 -0.651492 0.389815 0.112421 0.091602 -0.124790 0.259566 -0.194507 0.057031 -0.158663 0.068077
27 0.065975 -0.185315 -0.235362 -0.673363 0.426883 -0.132209 -0.229854 0.115583 -0.502106 0.163787 -0.294874 0.074460 -0.277504 0.078654 -0.404760 -0.055599 0.306193 0.011719 0.221655 -0.255944 -0.123831 0.333941 -0.542744 0.149059 -0.152217 -0.730490 -0.489936 -0.023872 -0.210027 0.020134 0.060169 0.296054 0.119751 -0.345990 -0.172474 0.115553 0.858711 0.515837 0.009937 0.204021 -0.638552 -0.211929 -0.075122 0.555828 -0.278164 -0.115860 -0.091382 0.183986 -0.507886 -0.416984 -0.316140 -0.012338 0.521729 0.456705 -0.001231 -0.389480 -0.154788 -0.160816 -0.581588 0.270065 -0.193933 0.255276 -0.356923 0.424895 0.507970 0.425551 0.227547 -0.238606 -0.247699 -0.081221 0.856044 0.189647 -0.093997 -0.256549 -0.174677 0.313787 -0.066620 0.432887 0.148157 0.553701 -0.280533 -0.385630 -0.507006 0.128669 -0.129467 -0.218506 0.389742 0.091651 0.243059 0.004862 0.623480 -0.338650 0.051039 0.116088 -0.094512 -0.158831 -0.322270 -0.646275 0.184908 -0.508190 -0.395574 -0.598361 0.008967 -0.072211 -0.100370 0.380365 0.347307 -0.043582 -0.445691 0.423957 0.132673 0.641603 -0.257469 -0.040724 0.041415 0.005089 -0.071961 -0.105478 -0.192552 -0.550561 -0.160866 -0.002605 0.292073 -0.188697 -0.281779 -0.142711 -0.003618 0.611820
174 -0.220993 0.024135 0.210610 -0.237530 -0.111506 0.054861 -0.482042 -0.048460 0.119532 -0.083934 -0.093299 0.188976 -0.608642 0.307081 0.149270 -0.282833 0.237853 -0.140418 0.238363 -0.292213 -0.139416 0.091601 -0.651005 -0.014457 0.337853 0.485215 -0.713465 -0.068512 -0.424560 0.570604 0.226116 0.282238 -0.045779 0.336601 0.432630 0.616641 0.281971 -0.038675 0.055864 0.544616 -0.764381 0.079226 0.156386 0.130859 0.109390 0.108032 -0.033273 0.121851 0.084192 -0.488071 0.377149 -0.031177 0.522480 0.547642 0.019341 0.151850 -0.805986 0.236937 -0.705569 -0.162382 -0.263529 -0.328226 0.039571 0.352348 -0.441406 -0.349670 0.603448 -0.584937 -0.412542 -0.328191 0.415915 0.062092 -0.408311 0.037916 0.853004 0.101303 0.563382 0.373893 -0.056162 0.420308 -0.589284 -0.504803 -0.759795 -0.055826 0.425951 -0.191664 0.117989 0.519856 0.258139 0.394733 0.528987 0.001633 -0.112877 0.328245 -0.012903 0.015232 0.089422 -0.408329 -0.012177 -0.420349 -0.066097 -0.701372 -0.156253 -0.261856 0.489770 0.120756 0.332164 -0.054504 -0.673104 0.472270 -0.148456 0.082492 0.129314 -0.443410 0.051993 0.055670 -0.779813 -0.186329 -0.361703 -0.358313 -0.111350 -0.068575 0.233937 0.209171 -0.425167 -0.226099 -0.038947 0.519573
137 0.260647 -0.109828 -0.202440 -0.659640 0.516236 -0.138268 -0.221237 -0.047280 -0.245329 0.069398 -0.277389 -0.129259 -0.208708 -0.247779 -0.425867 0.030211 0.252558 -0.223907 0.177772 -0.006395 -0.058731 0.361777 -0.505506 0.099587 0.072732 -0.702784 -0.598130 -0.414988 -0.374428 -0.177205 0.039634 0.546293 -0.088608 -0.488246 -0.165555 0.208626 0.698212 0.319238 0.025292 0.094494 -0.440706 -0.111852 -0.119924 0.238110 -0.295202 0.072559 -0.055159 0.126042 -0.353669 -0.268430 -0.315144 0.069885 0.341613 0.198427 -0.110609 -0.255902 -0.010118 0.045240 -0.641647 0.009756 -0.239963 0.173162 -0.253063 0.412842 0.405845 0.394436 0.130729 -0.313903 -0.135694 0.253593 0.805898 0.014428 -0.134897 -0.242603 -0.169341 0.243429 -0.002978 0.395940 0.141530 0.580508 -0.082144 -0.297958 -0.434983 -0.013757 -0.281069 -0.257403 0.208478 0.130125 0.373293 -0.012222 0.485807 -0.199404 0.133783 0.208224 -0.074382 0.080423 -0.138241 -0.847713 0.388853 -0.207610 -0.118323 -0.314385 0.414382 0.088363 -0.351246 0.309872 0.248429 0.043899 -0.152607 0.434071 0.087518 0.616157 -0.555388 -0.105047 -0.214773 0.201550 -0.082304 -0.202136 0.049430 -0.402411 -0.144020 -0.098501 0.206290 -0.212308 -0.082182 -0.191428 0.051904 0.546645
87 -0.213463 -0.445468 0.052634 -0.187082 -0.278420 -0.081589 -0.122104 -0.274525 -0.096042 -0.169318 0.375621 0.093140 -0.316422 -0.173618 0.266304 -0.101602 0.125616 -0.195013 -0.015446 0.107584 0.450726 0.386262 -0.921915 0.202810 -0.005664 -0.257194 -0.499700 -0.585844 -0.298159 -0.344457 0.065958 0.594590 -0.305443 -0.017846 0.414337 0.543464 0.042578 0.751262 0.578772 0.071198 -0.160066 0.349414 -0.518473 0.131135 -0.318101 0.059718 -0.094195 -0.387452 0.028493 -0.591166 -0.318623 0.353580 0.232944 -0.290122 -0.083102 0.228294 -0.037767 -0.484007 -0.325864 -0.134647 -0.509356 -0.478686 0.219621 0.554414 0.229317 -0.171059 0.409309 -0.389747 0.057609 -0.069053 0.164150 -0.022139 -0.502668 0.298773 0.577544 -0.216311 0.379819 0.257653 -0.465299 0.051067 -0.201342 -0.183361 -0.598183 -0.391943 -0.181792 -0.035817 -0.163356 -0.080239 0.591815 0.192910 0.319011 0.091243 -0.151819 0.397256 -0.001152 -0.006822 0.212211 -0.382113 0.305005 0.009034 0.495851 -0.396278 0.127638 -0.078822 -0.185924 -0.081562 -0.113412 -0.221512 0.015033 0.076500 -0.060255 0.437505 -0.420116 -0.062928 -0.327417 0.395333 -0.531434 0.165564 -0.281761 0.010133 -0.329827 -0.285374 0.089969 -0.399974 -0.214249 -0.192391 0.347834 0.204411
200 -0.113091 -0.140265 -0.128282 -0.215157 -0.413304 -0.078232 -0.270469 -0.239989 -0.484985 -0.394919 0.030770 -0.035970 0.068643 -0.333709 -0.587248 0.161599 0.370968 0.035711 -0.299932 -0.029997 0.354736 -0.393063 -0.935254 0.295154 -0.259049 0.177429 -0.535964 -0.673376 -0.555200 -0.307879 0.219350 0.139186 0.161594 0.389938 -0.506816 0.489260 -0.438516 0.422760 0.234477 -0.248978 -0.202197 0.567212 0.022264 -0.406993 -0.091687 -0.164240 -0.126056 -0.282797 0.105035 -0.239590 -0.059558 0.157963 0.646186 0.291531 -0.075030 0.262884 -0.304923 -0.123889 -0.307142 -0.168222 -0.383922 0.070190 0.227516 -0.081368 -0.201724 0.279326 0.173445 -0.401413 -0.180335 -0.065468 0.023641 0.302129 -0.187829 0.146100 0.326007 -0.123214 0.679566 -0.328185 0.079663 0.129704 -0.062249 0.028859 0.121473 0.120561 0.508399 -0.000658 -0.346814 0.262865 0.152954 0.873701 0.184026 0.506522 -0.162081 -0.062306 -0.055348 0.704278 0.188625 -0.394448 0.068863 -0.305617 0.146828 0.264223 0.391382 0.080105 0.145278 0.095870 0.118124 0.104662 -0.317581 0.688840 -0.177699 0.216035 -0.098084 0.018405 0.267466 0.086274 0.267133 -0.111483 -0.103830 0.199844 0.080204 0.392633 -0.386197 0.292397 -0.227353 0.060224 -0.331942 0.014476
32 0.031611 -0.171060 -0.273313 -0.663208 0.375781 -0.151860 -0.199373 0.147419 -0.476382 0.169044 -0.232333 0.059434 -0.259398 0.126514 -0.377101 -0.043654 0.292222 0.018079 0.189607 -0.243357 -0.168410 0.327905 -0.540344 0.143520 -0.175475 -0.730649 -0.461967 0.008243 -0.169497 -0.002499 0.087667 0.267123 0.142400 -0.319230 -0.209036 0.076053 0.857696 0.565497 0.018355 0.195443 -0.626090 -0.221761 -0.066833 0.567882 -0.264266 -0.130275 -0.099409 0.168742 -0.533161 -0.446957 -0.342954 0.023716 0.532161 0.445550 0.012527 -0.378013 -0.159153 -0.197368 -0.576135 0.291357 -0.179889 0.225669 -0.384387 0.407241 0.510588 0.422098 0.174907 -0.236159 -0.217588 -0.059193 0.833153 0.234136 -0.074644 -0.227612 -0.189381 0.284397 -0.073019 0.449086 0.139000 0.546266 -0.263678 -0.391546 -0.472157 0.088182 -0.120533 -0.201740 0.402382 0.081196 0.224848 -0.009916 0.634589 -0.308561 0.052653 0.114318 -0.081291 -0.146343 -0.315586 -0.598127 0.149974 -0.527534 -0.401647 -0.619055 -0.017161 -0.083424 -0.056606 0.396251 0.311258 -0.066543 -0.423980 0.389163 0.131582 0.615639 -0.265176 -0.019529 0.067584 0.027895 -0.076244 -0.089865 -0.177838 -0.566160 -0.147744 -0.028190 0.309177 -0.131545 -0.287116 -0.145650 -0.009620 0.581917
195 -0.116146 -0.133348 -0.114442 -0.239935 -0.353264 -0.174309 -0.321735 -0.248242 -0.445801 -0.478112 0.047113 -0.002162 0.035148 -0.413753 -0.591238 0.146303 0.343040 0.015773 -0.309353 -0.053092 0.383313 -0.390618 -0.954334 0.281679 -0.209719 0.208010 -0.543481 -0.739527 -0.614582 -0.278785 0.235583 0.222663 0.113552 0.407805 -0.468578 0.470763 -0.434884 0.401460 0.236974 -0.264955 -0.265075 0.582932 -0.025533 -0.296890 -0.134895 -0.190428 -0.141141 -0.290094 0.056785 -0.253459 -0.050990 0.125604 0.715077 0.390183 -0.149725 0.229314 -0.307643 -0.038897 -0.327707 -0.170625 -0.416717 0.099568 0.234234 -0.103796 -0.209078 0.293545 0.210950 -0.366630 -0.233408 -0.108916 0.102420 0.235157 -0.194579 0.110299 0.331228 -0.116386 0.726488 -0.384341 0.037633 0.124803 -0.124303 0.063442 0.089716 0.117162 0.546050 -0.000547 -0.371130 0.349428 0.179386 0.904324 0.247656 0.455753 -0.156661 -0.088263 -0.006439 0.642229 0.151149 -0.417216 0.095632 -0.337406 0.190250 0.245504 0.430008 0.047426 0.178835 0.166004 0.140389 0.118922 -0.398471 0.626449 -0.173166 0.234963 -0.136015 0.071795 0.328228 0.059783 0.289533 -0.159003 -0.100274 0.192504 0.109328 0.424538 -0.461238 0.255779 -0.221997 -0.002440 -0.329299 -0.018123
106 0.132917 -0.550778 -0.018497 -0.167896 -0.004777 -0.188174 -0.228253 -0.201967 -0.272526 -0.048650 0.221091 0.112402 -0.412069 -0.237520 -0.039611 0.050308 0.358625 -0.322495 0.014756 0.365289 -0.075885 0.188326 -0.724236 -0.038114 0.093780 0.088934 -0.524434 -0.763108 -0.339996 -0.378278 -0.091827 0.795913 -0.376572 -0.106473 0.144615 0.538199 0.388204 0.279638 0.326685 -0.046192 0.044543 0.235073 -0.345755 -0.347117 -0.263291 0.196179 0.056114 -0.146602 0.127905 -0.563386 -0.090526 0.442829 0.114741 -0.181028 0.158983 0.173260 -0.274834 -0.156301 -0.519326 -0.600245 -0.301118 -0.381482 0.074174 0.517781 0.160003 -0.232109 0.385378 -0.427416 0.147372 0.213109 -0.034416 -0.027269 -0.330747 0.080863 0.280719 -0.178743 0.670672 0.242739 -0.084900 0.545885 0.190438 -0.439834 -0.506274 -0.577851 -0.262987 -0.229982 -0.196005 -0.110291 0.421478 0.144179 0.158207 0.221267 -0.135089 0.623164 -0.047254 0.323450 0.303416 -0.545806 0.360576 0.202871 0.181078 -0.080625 0.459363 -0.421767 -0.204150 0.181105 0.198928 0.175164 -0.285446 0.523096 -0.283665 0.596525 -0.696440 -0.153381 -0.292389 0.548940 -0.766495 -0.039202 -0.024152 -0.054401 -0.440544 -0.288110 0.300883 -0.010335 -0.230217 -0.119413 0.221917 0.331454
38 0.731216 -0.393363 0.094303 -0.564365 -0.463062 -0.409395 -0.608089 -0.083939 -0.228346 0.108865 -0.335197 0.479335 -0.222797 0.031565 -0.345980 -0.025286 -0.005790 -0.127839 -0.119473 0.085013 -0.353426 -0.181714 -0.745385 0.296144 0.159186 -0.305351 -0.264309 -0.742757 0.011108 -0.309264 -0.145030 0.125471 0.036179 -0.293991 -0.251433 0.126480 0.231038 0.148432 -0.029345 -0.063899 -0.396746 0.135116 -0.094545 -0.043979 -0.044804 0.053118 -0.047143 -0.343994 0.396441 -0.354845 0.378605 0.172063 0.464721 0.276147 -0.073502 0.048789 -0.419542 -0.281190 -0.397729 0.353302 0.015613 0.014576 -0.110783 0.210301 0.110687 0.257591 1.017625 0.019192 -0.620060 -0.178313 0.280311 -0.292155 -0.398434 0.037418 0.257825 -0.038627 0.459772 0.177468 0.056308 -0.135974 -0.013149 -0.162591 -0.368934 -0.003900 0.068290 0.062413 -0.078085 0.299078 0.034696 0.000411 0.413899 0.211342 -0.024389 0.571641 0.169026 -0.320619 -0.480372 -0.376316 0.481329 0.057026 -0.025443 0.125989 -0.239253 -0.674208 -0.572357 0.262613 -0.077006 0.096958 -0.385696 -0.050030 0.174405 0.392874 -0.230171 0.322683 -0.073201 -0.067968 -0.035136 -0.062860 -0.596543 0.375566 0.107654 0.004323 -0.131368 0.147680 -0.226224 0.005662 -0.177250 0.022639
12 0.336855 -0.376291 0.060106 -0.802621 -0.412094 -0.027492 -0.318628 0.067447 -0.381176 0.183684 -0.048324 -0.094236 0.143122 0.159711 -0.405698 -0.102673 -0.039971 -0.051136 -0.310434 -0.158244 0.012176 -0.058510 -0.854405 0.237388 -0.358294 -0.128351 -0.388562 -0.230797 0.172918 -0.095074 0.217771 -0.223826 0.135041 0.242337 -0.407926 0.284076 0.012715 0.650660 0.119070 -0.010835 -0.078949 0.413155 -0.018825 -0.428549 -0.099314 0.117797 -0.331150 -0.165109 0.281255 -0.022380 0.222623 0.090991 0.632473 0.253095 -0.062195 0.057782 -0.269717 -0.352560 -0.379938 0.218790 0.090273 -0.141915 -0.094542 -0.149216 -0.003929 0.300229 0.458679 -0.494767 0.111913 0.399725 -0.006101 0.493990 0.022883 -0.232359 0.573323 -0.389275 0.569889 0.020207 0.039861 0.271517 0.114510 -0.056992 -0.252598 -0.115161 0.292339 0.341516 -0.078306 -0.210244 0.117748 0.750984 0.160657 0.443921 -0.532826 -0.031672 -0.246697 0.393908 0.165219 -0.419593 0.034970 -0.117259 0.005888 0.008649 0.138819 0.094500 -0.137029 0.181050 -0.316613 -0.206491 -0.089910 0.467349 -0.057687 0.375741 -0.014166 0.145015 0.015771 0.179915 -0.051606 0.174777 -0.641416 0.161235 -0.166789 0.444083 -0.219490 0.458458 -0.143879 0.169771 -0.271159 0.353227
199 -0.110958 -0.169679 -0.132393 -0.246799 -0.387398 -0.119708 -0.314513 -0.230935 -0.474510 -0.416806 0.000544 -0.005299 0.040282 -0.306399 -0.586291 0.156264 0.347083 0.031092 -0.287363 -0.052319 0.397105 -0.340373 -0.955412 0.307644 -0.269074 0.166553 -0.560302 -0.664243 -0.593028 -0.287463 0.236718 0.207528 0.175163 0.377387 -0.483143 0.477477 -0.442135 0.437113 0.216120 -0.260891 -0.248886 0.599661 -0.006188 -0.361516 -0.092135 -0.170109 -0.105363 -0.290755 0.065176 -0.238623 -0.045509 0.148347 0.652216 0.331440 -0.078549 0.236203 -0.321059 -0.119642 -0.343514 -0.179442 -0.393649 0.097350 0.185706 -0.063144 -0.190795 0.303295 0.216529 -0.397015 -0.183124 -0.068663 0.043233 0.284305 -0.172142 0.120783 0.355443 -0.124830 0.662010 -0.331769 0.038928 0.158927 -0.081731 0.007925 0.126586 0.135498 0.520888 0.022439 -0.322064 0.320412 0.178674 0.885726 0.194164 0.485844 -0.125949 -0.072915 -0.056842 0.691810 0.194311 -0.415586 0.049005 -0.344612 0.151116 0.261883 0.415790 0.051478 0.141496 0.120675 0.153528 0.125948 -0.348765 0.681633 -0.177401 0.209516 -0.121908 0.011116 0.269679 0.084916 0.273284 -0.124915 -0.099703 0.158028 0.114574 0.369893 -0.384319 0.278678 -0.249811 0.070179 -0.334563 0.013042
57 0.305939 -0.360195 0.068413 -0.807947 -0.413064 -0.045029 -0.316516 0.025354 -0.367073 0.184309 -0.040505 -0.096366 0.181110 0.199482 -0.364057 -0.051997 -0.021658 -0.085333 -0.313032 -0.166563 0.011302 -0.089133 -0.886981 0.241091 -0.328846 -0.166393 -0.443840 -0.245900 0.160843 -0.182359 0.224410 -0.245508 0.140275 0.244138 -0.397063 0.323010 -0.060063 0.642551 0.098855 -0.030213 -0.081398 0.381987 0.012600 -0.474695 -0.057584 0.150956 -0.288048 -0.214592 0.272304 -0.034168 0.240830 0.179764 0.604329 0.208818 -0.082471 0.077682 -0.236903 -0.318729 -0.367780 0.265374 0.076851 -0.063746 -0.091958 -0.138648 -0.046518 0.278741 0.456995 -0.470662 0.139062 0.446667 0.054942 0.490592 -0.013621 -0.182601 0.585109 -0.448085 0.553687 0.037584 -0.038604 0.294317 0.105855 -0.019295 -0.198730 -0.096168 0.334642 0.343472 -0.073391 -0.159431 0.097262 0.776460 0.166384 0.523773 -0.474128 0.042982 -0.237741 0.463344 0.203715 -0.414867 0.075594 -0.179687 0.035899 0.030134 0.159876 0.101789 -0.139378 0.241312 -0.320125 -0.160481 -0.057505 0.532377 -0.024601 0.352698 -0.036297 0.108643 0.054928 0.293360 0.005278 0.153912 -0.627324 0.175848 -0.142149 0.469557 -0.237985 0.524105 -0.148539 0.170003 -0.298027 0.335909
164 0.418914 -0.404518 -0.272494 -0.184291 -0.422981 -0.804857 -0.585338 -0.148226 -0.522342 0.084394 0.059115 0.468966 0.128859 -0.089246 -0.217360 0.218830 -0.309339 0.344215 0.145945 -0.251288 0.222619 -0.210157 -1.014445 -0.153597 0.338312 -0.013121 0.012563 -0.252244 -0.101479 -0.093164 0.310167 0.087336 -0.199404 -0.243680 -0.308124 0.375390 -0.041708 0.440110 0.602222 -0.380101 -0.443417 -0.181830 -0.173127 0.196083 -0.352286 -0.171806 0.087809 -0.310335 -0.328678 0.024490 -0.040772 0.258992 0.346711 0.075462 -0.208756 -0.075674 -0.039211 0.000796 -0.144186 -0.346161 0.025470 -0.035524 -0.259042 -0.272712 0.251971 -0.064810 0.435426 -0.745625 -0.395832 0.063743 0.606314 0.239202 -0.482159 0.116353 0.508362 0.459265 0.363072 0.114341 -0.196719 0.245496 -0.119447 -0.106748 0.081085 -0.179335 -0.225953 -0.294779 -0.061055 0.070794 0.114970 0.322656 -0.098974 0.370288 0.368229 0.144001 -0.451726 0.108360 -0.059437 -0.386803 0.193037 0.143399 0.108519 -0.630266 0.310726 -0.123695 -0.107278 0.104517 0.080200 0.029074 -0.485111 0.151569 -0.200885 0.117026 -0.105562 -0.095045 0.706948 0.667439 -0.278836 0.423836 -0.758044 -0.307732 0.089649 -0.121628 -0.548723 -0.373161 -0.772764 -0.076994 -0.660572 -0.427679
154 0.736396 -0.397708 0.103611 -0.569590 -0.460046 -0.386137 -0.610439 -0.074118 -0.224870 0.095798 -0.338793 0.449603 -0.215989 0.057420 -0.359550 -0.024605 -0.006793 -0.111208 -0.128914 0.069391 -0.353725 -0.184503 -0.754142 0.291761 0.103603 -0.294007 -0.272263 -0.731890 0.015221 -0.300771 -0.142756 0.097118 0.056097 -0.270860 -0.277605 0.144494 0.215790 0.152137 -0.032839 -0.055313 -0.382228 0.130050 -0.087778 -0.093086 -0.030307 0.041201 -0.052734 -0.336057 0.394035 -0.339895 0.396605 0.173945 0.472561 0.272026 -0.069339 0.045272 -0.459581 -0.267498 -0.383306 0.378788 0.018167 0.024788 -0.100718 0.223315 0.088084 0.241350 1.009785 0.029143 -0.618658 -0.191033 0.272874 -0.263118 -0.375181 0.031145 0.270687 -0.065595 0.454873 0.132749 0.067725 -0.125178 0.001400 -0.153547 -0.379587 0.007703 0.093239 0.078083 -0.101077 0.307667 0.047782 0.020199 0.392922 0.248235 -0.051289 0.570918 0.169204 -0.298844 -0.458148 -0.392226 0.460029 0.067211 -0.047379 0.141505 -0.260231 -0.680299 -0.533846 0.273682 -0.088452 0.083273 -0.387249 -0.040090 0.160450 0.406551 -0.208596 0.331652 -0.067362 -0.056765 -0.005246 -0.052693 -0.622177 0.407975 0.128784 0.040636 -0.156852 0.190630 -0.212513 0.023881 -0.180141 0.036561
98 -0.171067 -0.083168 -0.169732 -0.629493 0.317710 -0.415211 -0.154210 -0.096964 -0.427531 -0.294062 -0.216562 0.122545 -0.003864 0.047144 -0.216891 -0.116446 0.073383 0.238562 0.074351 -0.042994 -0.185256 0.230299 -0.701566 0.446791 -0.159124 -0.602825 -0.261732 -0.311853 -0.222703 -0.164815 0.291067 0.574651 0.030263 -0.308439 -0.074771 0.083761 0.309961 0.730245 0.278569 -0.108763 -0.309619 0.124361 -0.483862 0.509450 0.088562 -0.063560 -0.264197 0.138845 -0.339709 -0.446751 -0.161627 -0.117810 0.577124 0.354301 0.133116 -0.234742 -0.083371 -0.436341 -0.447825 0.162086 -0.016697 0.066076 -0.267778 0.161155 0.398861 0.524927 0.282071 -0.262719 -0.047048 0.198109 0.872642 0.113642 -0.209807 0.137325 -0.125032 0.207400 0.053896 -0.037296 0.030936 0.297642 -0.043720 -0.221755 -0.591665 0.019613 0.316594 -0.430846 0.154092 0.029484 0.544930 0.208921 0.581250 -0.217466 -0.043007 0.395107 -0.109979 0.071885 -0.237820 -0.265094 -0.091658 -0.338702 -0.520035 -0.507701 0.102757 -0.166942 -0.178391 0.229791 0.117677 0.161164 -0.506290 0.680422 -0.221549 0.550269 -0.566640 0.278800 0.045777 0.258187 0.170129 -0.231067 0.289589 -0.270714 0.003694 0.232039 0.251020 -0.031465 -0.186463 0.003638 0.249346 0.245017
246 -0.027098 -0.085748 -0.073706 -0.175840 -0.364446 -0.426969 -0.664767 0.065406 -1.070355 0.579845 0.188061 0.278107 -0.501271 -0.386760 -0.648290 -0.114158 0.254258 0.425970 0.152953 -0.191376 -0.206395 -0.660055 -0.505046 0.117212 0.103401 0.035216 -0.052496 -0.208764 -0.185188 -0.232307 -0.189276 0.201292 -0.278806 0.249124 -0.465493 0.561328 0.279253 0.155461 0.041067 0.282230 -0.193163 0.313991 0.195183 -0.017297 -0.110554 -0.294495 -0.362602 0.135698 0.003035 -0.569473 -0.382400 0.055861 0.483618 0.038389 0.181404 0.276717 -0.054052 -0.327834 -0.605520 -0.632927 -0.301843 0.468371 0.038694 0.438820 -0.160682 0.353407 0.676835 -0.653425 -0.420055 0.115409 -0.023342 0.119498 -0.415957 -0.342618 0.107878 0.115137 0.923182 -0.103164 0.334130 0.358646 0.064832 -0.434561 -0.490199 0.057511 0.009405 -0.294473 0.005132 -0.062992 0.132378 0.254592 0.609033 -0.037714 -0.158163 0.409567 0.491620 -0.103904 -0.262033 0.572159 0.647594 -0.628750 0.382562 -0.116844 -0.091782 -0.343375 0.108784 -0.111807 0.323271 0.204975 0.064005 0.521417 0.313321 0.755040 -0.116473 -0.335138 -0.264121 -0.236973 -0.783238 -0.194967 -0.623559 -0.094845 -0.140406 0.174767 -0.473500 -0.198775 -0.666871 0.320839 -0.505300 0.427976
192 -0.135966 -0.140900 -0.115393 -0.237285 -0.382842 -0.134182 -0.304884 -0.231966 -0.476104 -0.425682 0.037596 -0.018842 0.055501 -0.337771 -0.590034 0.157124 0.347844 0.023936 -0.303863 -0.048344 0.412351 -0.374537 -0.964186 0.308141 -0.269810 0.191594 -0.549890 -0.698097 -0.563984 -0.292636 0.236764 0.168687 0.150712 0.415122 -0.482226 0.481123 -0.441364 0.439014 0.235781 -0.275941 -0.236971 0.596563 -0.010915 -0.347969 -0.088926 -0.170914 -0.126811 -0.290529 0.058989 -0.227422 -0.040578 0.144724 0.689772 0.325038 -0.096542 0.240894 -0.284554 -0.102024 -0.348539 -0.155652 -0.402074 0.098796 0.194914 -0.093064 -0.188893 0.289471 0.199061 -0.412274 -0.159163 -0.056063 0.062003 0.304342 -0.178867 0.129823 0.354856 -0.133035 0.689837 -0.348460 0.026555 0.159008 -0.111241 0.028680 0.113957 0.098001 0.535129 0.015961 -0.345806 0.307891 0.175501 0.923225 0.208550 0.482010 -0.150242 -0.079666 -0.044519 0.690588 0.170530 -0.373107 0.064819 -0.344439 0.158847 0.241652 0.439006 0.081068 0.151092 0.146182 0.132140 0.109199 -0.364962 0.682060 -0.186297 0.200673 -0.111571 0.023497 0.304103 0.085410 0.276240 -0.140166 -0.096938 0.186827 0.083415 0.394091 -0.423601 0.266149 -0.223767 0.050509 -0.326293 0.005189
54 -0.312596 -0.081142 -0.179454 -0.409909 0.105088 -0.399840 -0.228962 -0.240831 -0.648736 -0.479549 -0.474811 0.338870 -0.010228 -0.051967 -0.328646 -0.140264 -0.297792 0.229382 0.231653 -0.150049 0.131818 0.116498 -0.762803 0.568246 -0.200977 -0.515598 -0.227454 -0.258146 -0.111459 -0.166424 0.312286 0.539377 0.052824 -0.304994 0.052014 0.174045 -0.072160 0.853455 0.348232 -0.032088 -0.340901 0.422188 -0.508794 0.414470 0.137614 -0.032043 -0.229352 0.184879 -0.199553 -0.258840 -0.028879 -0.398655 0.661228 0.423943 0.072422 -0.362320 -0.201841 -0.518089 -0.320958 0.218469 0.061858 0.074700 -0.025824 0.046246 0.337461 0.276869 0.524079 -0.443890 -0.004210 0.042181 0.862576 0.103859 -0.274269 0.274181 0.112217 0.396265 0.276278 -0.341559 -0.262872 -0.030050 0.019209 -0.167329 -0.803687 0.139293 0.561374 -0.312370 0.181453 0.020739 0.614255 0.497295 0.556666 -0.032189 -0.025719 0.378803 -0.210329 -0.008542 -0.189090 -0.239241 -0.124065 -0.273628 -0.273351 -0.345075 0.006188 0.010273 -0.363747 -0.007314 0.215690 0.032983 -0.681398 0.586627 -0.330704 0.441686 -0.455581 0.457776 0.141578 0.205877 0.562075 -0.270624 0.067335 0.029710 -0.184470 0.424761 0.016596 0.022675 -0.023677 0.019927 0.070946 0.086612
31 0.479811 -0.406604 -0.227731 -0.204413 -0.415619 -0.808871 -0.597280 -0.118603 -0.608832 0.154678 0.043921 0.388154 0.172378 -0.120509 -0.275610 0.242110 -0.331753 0.358482 0.145186 -0.329027 0.292830 -0.225444 -1.081597 -0.151776 0.311336 -0.102195 0.004196 -0.221679 -0.052433 -0.050714 0.289648 0.107635 -0.270734 -0.269595 -0.361691 0.393074 -0.035275 0.473215 0.611461 -0.379153 -0.347929 -0.229356 -0.159093 0.208241 -0.460773 -0.185141 0.044040 -0.323144 -0.365978 0.049794 -0.100032 0.254927 0.363373 0.032634 -0.241072 -0.058044 0.038266 0.026482 -0.158883 -0.365366 -0.002874 -0.042577 -0.304211 -0.240431 0.286435 0.013458 0.383864 -0.747310 -0.359922 0.064004 0.593908 0.252569 -0.464363 0.124255 0.507960 0.480577 0.341262 0.142715 -0.192003 0.280878 -0.062890 -0.159046 0.065003 -0.241511 -0.274684 -0.294141 -0.073777 0.002067 0.140284 0.286184 -0.152067 0.390863 0.394308 0.178706 -0.451205 0.174247 -0.088756 -0.375813 0.189829 0.179551 0.066943 -0.665073 0.387829 -0.090673 -0.100742 0.160809 0.047561 -0.022616 -0.419881 0.230872 -0.160113 0.109921 -0.133380 -0.129388 0.690183 0.669707 -0.332868 0.440881 -0.756725 -0.258141 0.070213 -0.122633 -0.569365 -0.366555 -0.763030 -0.019455 -0.704822 -0.360655
146 0.697803 -0.417789 0.046010 -0.577707 -0.380842 -0.364306 -0.579747 -0.141391 -0.152525 0.156002 -0.339172 0.501073 -0.175613 -0.003766 -0.343555 -0.118064 0.044042 -0.059860 -0.069333 0.051728 -0.231001 -0.153010 -0.752883 0.227884 0.136952 -0.303483 -0.247586 -0.652777 -0.022955 -0.297409 -0.112964 0.165957 -0.011804 -0.242690 -0.258006 0.143976 0.240469 0.132777 0.056892 -0.017901 -0.398725 0.091818 -0.036098 -0.074208 -0.055197 0.079480 -0.028612 -0.319157 0.426933 -0.366604 0.441630 0.178023 0.400299 0.353117 -0.110065 0.055371 -0.490476 -0.239616 -0.344747 0.359305 0.070655 0.065807 -0.046824 0.274368 0.143420 0.135245 0.971417 0.035277 -0.656775 -0.270552 0.346951 -0.328348 -0.324371 -0.035694 0.357677 -0.131927 0.511847 0.115595 -0.034599 -0.113441 0.005237 -0.137204 -0.409107 0.067133 0.082238 0.130406 -0.057245 0.384757 0.122956 0.050225 0.393832 0.214796 -0.060003 0.535713 0.177905 -0.246947 -0.435580 -0.390968 0.449781 0.091408 -0.006254 0.116643 -0.321610 -0.680697 -0.493501 0.258119 -0.023394 0.157975 -0.403022 -0.077131 0.138470 0.417418 -0.267190 0.260427 -0.118347 0.025221 0.047916 -0.077810 -0.626008 0.386138 0.188910 0.049750 -0.097669 0.228685 -0.192162 0.018034 -0.153759 -0.003551
283 -0.195171 -0.483445 0.090036 -0.167850 -0.311823 -0.117507 -0.132877 -0.256293 -0.076800 -0.172665 0.409382 0.085904 -0.370656 -0.169546 0.298254 -0.057079 0.101186 -0.263872 -0.013737 0.122490 0.426415 0.367814 -0.927747 0.178063 0.041301 -0.169657 -0.537599 -0.631901 -0.268043 -0.343312 0.056060 0.639076 -0.340309 -0.014980 0.427088 0.544184 0.024559 0.693469 0.588808 0.040619 -0.131963 0.337587 -0.472713 0.058652 -0.314364 0.072868 -0.017375 -0.388506 0.053959 -0.584291 -0.274441 0.403959 0.213734 -0.293824 -0.045786 0.263595 -0.059330 -0.410816 -0.341346 -0.189663 -0.467187 -0.503849 0.234038 0.540755 0.199672 -0.197057 0.385664 -0.416851 0.088547 -0.074967 0.141435 -0.012483 -0.486053 0.288132 0.585654 -0.230653 0.416948 0.297075 -0.497882 0.068231 -0.192124 -0.209067 -0.565072 -0.447088 -0.196876 -0.033517 -0.170337 -0.055398 0.561420 0.219138 0.290345 0.117107 -0.133031 0.403194 -0.013662 0.045370 0.261666 -0.390149 0.309533 0.011181 0.510589 -0.393189 0.193380 -0.103084 -0.168047 -0.058314 -0.101609 -0.217854 -0.022436 0.095527 -0.087284 0.429583 -0.454452 -0.089131 -0.322280 0.459215 -0.562726 0.165957 -0.264781 0.021853 -0.370134 -0.319392 0.123434 -0.363057 -0.196579 -0.200775 0.329911 0.245085
173 -0.219663 0.038782 0.211475 -0.208493 -0.131886 0.060313 -0.438857 -0.031664 0.118150 -0.118080 -0.111302 0.188044 -0.585078 0.327160 0.166395 -0.299400 0.214585 -0.099682 0.222527 -0.292230 -0.152174 0.086889 -0.606479 0.008783 0.309642 0.466929 -0.667591 -0.050945 -0.391619 0.556517 0.223518 0.277953 -0.032403 0.322192 0.430037 0.590039 0.230783 -0.037817 0.036559 0.548462 -0.741016 0.085328 0.135229 0.138020 0.115463 0.098940 -0.045348 0.135557 0.079865 -0.487556 0.359788 -0.061046 0.502024 0.523131 0.029253 0.149425 -0.807574 0.207923 -0.668797 -0.136820 -0.255222 -0.332314 0.047402 0.333618 -0.443422 -0.329512 0.591310 -0.536583 -0.416151 -0.324203 0.407946 0.043579 -0.381628 0.062304 0.832735 0.127157 0.535182 0.341908 -0.027070 0.384529 -0.565769 -0.477948 -0.756128 -0.021734 0.448830 -0.210021 0.111241 0.518120 0.263104 0.358584 0.525032 0.000283 -0.122868 0.324057 -0.035428 -0.014072 0.076214 -0.395580 -0.044003 -0.401132 -0.115799 -0.676976 -0.190804 -0.268630 0.478897 0.080767 0.324226 -0.051013 -0.671124 0.446207 -0.149268 0.051504 0.138634 -0.404046 0.061651 0.008931 -0.728997 -0.176206 -0.348636 -0.348126 -0.096618 -0.052274 0.251845 0.206121 -0.427315 -0.227118 -0.006790 0.473317
139 0.309911 -0.167273 -0.214713 -0.662979 0.524354 -0.151887 -0.213370 -0.043064 -0.294412 0.097991 -0.261650 -0.160012 -0.237081 -0.261925 -0.443303 0.040364 0.281710 -0.242188 0.172369 0.027547 -0.101091 0.349504 -0.505469 0.062124 0.089047 -0.691817 -0.612223 -0.426877 -0.400342 -0.227698 0.005547 0.601945 -0.097703 -0.500936 -0.209292 0.217557 0.731982 0.307619 0.033554 0.097099 -0.394474 -0.112568 -0.108899 0.200956 -0.325603 0.116224 -0.048619 0.114744 -0.313353 -0.308004 -0.346723 0.095650 0.348617 0.172349 -0.085951 -0.263810 -0.030483 0.040242 -0.649546 -0.078386 -0.241678 0.144722 -0.261985 0.423548 0.421699 0.394654 0.133327 -0.306601 -0.093996 0.284542 0.756994 0.020171 -0.101545 -0.265720 -0.178687 0.227559 0.034300 0.403692 0.151526 0.612117 -0.004889 -0.320294 -0.438880 -0.043761 -0.326531 -0.284066 0.204793 0.079701 0.387544 -0.005833 0.476225 -0.158973 0.142037 0.233518 -0.085148 0.109445 -0.103992 -0.895330 0.430638 -0.195026 -0.104012 -0.276951 0.455706 0.025612 -0.359433 0.339317 0.283210 0.080511 -0.130288 0.448642 0.076394 0.665139 -0.599451 -0.106536 -0.244986 0.254396 -0.153560 -0.159504 0.051292 -0.409260 -0.188686 -0.149785 0.233446 -0.179436 -0.077506 -0.175732 0.047025 0.562357
140 0.097307 -0.138556 -0.262161 -0.632427 0.460494 -0.174008 -0.196343 0.074188 -0.393995 0.114776 -0.239158 -0.029657 -0.217504 0.021443 -0.360019 -0.011634 0.302873 -0.008093 0.163861 -0.162861 -0.139050 0.330963 -0.479105 0.122946 -0.111257 -0.675543 -0.470215 -0.093747 -0.230664 -0.040171 0.055635 0.355975 0.061861 -0.357184 -0.188091 0.104515 0.785128 0.440859 0.014502 0.156091 -0.508898 -0.202984 -0.102269 0.462940 -0.245648 -0.062370 -0.094864 0.159912 -0.482006 -0.408035 -0.305897 0.039672 0.447316 0.368754 0.003777 -0.319885 -0.105395 -0.117373 -0.578090 0.168492 -0.192519 0.212656 -0.342306 0.387871 0.458297 0.426779 0.115030 -0.205653 -0.153507 0.046356 0.764557 0.173553 -0.065830 -0.221261 -0.206701 0.241358 -0.073185 0.393792 0.155528 0.564353 -0.187013 -0.352581 -0.428582 0.061585 -0.166032 -0.243383 0.322834 0.080580 0.264325 -0.042393 0.551387 -0.266572 0.074362 0.150502 -0.073049 -0.058151 -0.263299 -0.611255 0.207300 -0.426193 -0.363770 -0.497969 0.124867 -0.054924 -0.092427 0.384851 0.288689 0.020123 -0.324535 0.429526 0.084809 0.581227 -0.360173 -0.044293 -0.025462 0.085004 -0.106470 -0.128905 -0.037063 -0.541287 -0.126604 -0.054840 0.307265 -0.135332 -0.212789 -0.120995 0.046091 0.542712
52 -0.110749 -0.138993 -0.071745 -0.229803 -0.407728 -0.005137 -0.216222 -0.288886 -0.432747 -0.349853 0.094641 -0.023599 0.076659 -0.324998 -0.586400 0.144943 0.365676 0.060222 -0.220938 0.056780 0.264665 -0.392788 -0.840335 0.249187 -0.154896 0.201421 -0.524537 -0.686133 -0.507461 -0.345072 0.168720 0.105594 0.175526 0.394544 -0.537966 0.487304 -0.375379 0.366723 0.244311 -0.222904 -0.300513 0.465689 0.079059 -0.327306 0.005457 -0.101700 -0.076944 -0.263586 0.132827 -0.268232 -0.044951 0.157093 0.658644 0.267803 -0.123346 0.261302 -0.350007 -0.087725 -0.293463 -0.144237 -0.304234 0.074912 0.319460 -0.108991 -0.183241 0.221737 0.170489 -0.432412 -0.175472 -0.157484 0.029138 0.218714 -0.226950 0.175348 0.273891 -0.058468 0.651135 -0.327054 0.093095 0.098063 -0.135071 0.082785 0.107463 0.099701 0.485612 -0.083842 -0.391531 0.273759 0.143955 0.871779 0.213122 0.467600 -0.144625 -0.095627 -0.002947 0.678258 0.073393 -0.323747 0.128348 -0.285436 0.167622 0.186192 0.349189 0.019510 0.144526 0.143852 0.133978 0.147122 -0.389117 0.669205 -0.214875 0.160361 -0.053310 -0.004675 0.279829 0.108521 0.267451 -0.077413 -0.122030 0.206927 0.094741 0.374101 -0.384777 0.199986 -0.206152 -0.040606 -0.301096 0.012520
291 -0.214179 -0.437018 0.057051 -0.137586 -0.311319 -0.069738 -0.102275 -0.275244 -0.089731 -0.145007 0.397214 0.108685 -0.302856 -0.174480 0.257099 -0.120667 0.139604 -0.178818 -0.003125 0.127299 0.416977 0.382243 -0.882881 0.166449 0.003724 -0.202334 -0.444405 -0.585737 -0.300934 -0.350383 0.070226 0.569187 -0.305100 0.014438 0.378124 0.553890 0.027133 0.740737 0.622737 0.054047 -0.130159 0.337260 -0.510889 0.109719 -0.311790 0.064152 -0.091213 -0.390376 0.044939 -0.568335 -0.304785 0.349184 0.203587 -0.309403 -0.055656 0.237547 -0.053917 -0.500198 -0.324482 -0.154336 -0.496320 -0.512651 0.240588 0.545692 0.218728 -0.209128 0.408517 -0.415860 0.064504 -0.080529 0.104191 -0.028396 -0.529332 0.297744 0.577735 -0.196631 0.392478 0.223039 -0.480599 0.030250 -0.180157 -0.159432 -0.583883 -0.396249 -0.164396 -0.036458 -0.164373 -0.086194 0.584859 0.211282 0.292658 0.094830 -0.151495 0.401566 0.006209 0.003353 0.242061 -0.363737 0.296801 0.052098 0.523531 -0.383501 0.117844 -0.087563 -0.191194 -0.089431 -0.096552 -0.206849 0.035289 0.068309 -0.076577 0.440893 -0.412750 -0.077213 -0.309908 0.409241 -0.538601 0.179214 -0.297836 0.048231 -0.320783 -0.306086 0.097006 -0.391827 -0.229044 -0.197425 0.348797 0.184473
43 -0.076635 -0.132144 -0.102887 -0.307717 -0.398783 -0.061423 -0.249267 -0.191097 -0.426280 -0.319839 0.058010 -0.080385 0.072504 -0.293064 -0.549421 0.118090 0.302064 -0.013156 -0.321225 -0.060257 0.275781 -0.359371 -0.913200 0.260152 -0.243477 0.164977 -0.527149 -0.588959 -0.440632 -0.262606 0.253095 0.073146 0.151548 0.403457 -0.481346 0.467419 -0.378986 0.461966 0.231861 -0.196554 -0.181024 0.553475 0.043892 -0.408916 -0.098402 -0.121523 -0.153093 -0.266623 0.123396 -0.202326 -0.023694 0.150437 0.660194 0.308490 -0.093825 0.233579 -0.282224 -0.106095 -0.317761 -0.110029 -0.310491 0.034340 0.207825 -0.113999 -0.208251 0.262154 0.187678 -0.430825 -0.117518 0.015297 0.039811 0.354160 -0.164206 0.075812 0.356971 -0.192287 0.673385 -0.286514 0.047186 0.153189 -0.052882 0.054947 0.066562 0.079431 0.499446 0.062706 -0.316391 0.205794 0.130469 0.894414 0.206291 0.498594 -0.229926 -0.078947 -0.073266 0.667768 0.229902 -0.396281 0.065011 -0.302974 0.160067 0.214832 0.356797 0.123164 0.145911 0.126538 0.035461 0.025102 -0.256552 0.648357 -0.147427 0.245295 -0.074246 0.048492 0.241516 0.119282 0.221434 -0.086883 -0.173726 0.224852 0.024298 0.444422 -0.403440 0.346567 -0.194297 0.052482 -0.305986 0.083699
249 -0.018033 -0.101991 -0.054712 -0.151921 -0.365974 -0.413267 -0.711584 0.106903 -1.090476 0.555225 0.198081 0.283571 -0.517834 -0.388479 -0.662723 -0.127325 0.241692 0.450686 0.155354 -0.168038 -0.208646 -0.693563 -0.522714 0.115529 0.085262 0.060318 -0.067818 -0.253528 -0.181055 -0.196649 -0.200914 0.221574 -0.258481 0.256183 -0.499289 0.575525 0.269659 0.141025 0.048296 0.280175 -0.210560 0.316784 0.186960 -0.018419 -0.122876 -0.307138 -0.342453 0.099495 -0.006334 -0.573540 -0.360954 0.059873 0.493781 0.062483 0.187695 0.264350 -0.068241 -0.295327 -0.648325 -0.627363 -0.293871 0.492167 0.063660 0.454382 -0.167813 0.318002 0.699876 -0.680199 -0.442303 0.079896 -0.018978 0.125208 -0.425764 -0.375918 0.119918 0.110548 0.917695 -0.128257 0.342021 0.325667 0.032867 -0.461375 -0.489319 0.031540 0.011179 -0.271114 -0.009053 -0.054256 0.141902 0.258898 0.616106 -0.024676 -0.161970 0.432458 0.503857 -0.089677 -0.260681 0.570441 0.650202 -0.629625 0.363092 -0.132161 -0.094612 -0.357004 0.078874 -0.096887 0.299392 0.197118 0.016335 0.543902 0.281780 0.776240 -0.110326 -0.348828 -0.276293 -0.264252 -0.777178 -0.208772 -0.619401 -0.068800 -0.126517 0.172209 -0.484609 -0.198985 -0.681133 0.340214 -0.499388 0.465320
147 0.751589 -0.411218 0.119795 -0.612529 -0.463828 -0.388929 -0.609829 -0.085058 -0.198943 0.134601 -0.340341 0.447666 -0.218826 0.083423 -0.349012 -0.037755 0.002357 -0.134022 -0.112695 0.055646 -0.366750 -0.162649 -0.808070 0.281096 0.137038 -0.333414 -0.297236 -0.712493 0.028541 -0.317556 -0.118634 0.095372 0.049541 -0.274864 -0.276978 0.147557 0.223873 0.177629 -0.003166 -0.042930 -0.386370 0.105929 -0.077251 -0.097427 -0.036361 0.064545 -0.057152 -0.347929 0.421611 -0.342702 0.434898 0.188404 0.460131 0.285401 -0.067307 0.055788 -0.444981 -0.276093 -0.394015 0.392832 0.034613 0.008753 -0.105817 0.227945 0.100628 0.235756 1.024688 0.015066 -0.630833 -0.164413 0.314069 -0.267129 -0.377556 0.024852 0.309221 -0.100179 0.468645 0.173578 0.029964 -0.107475 -0.000072 -0.156469 -0.395762 0.014917 0.107269 0.097017 -0.087662 0.290980 0.078173 0.025566 0.387558 0.245366 -0.059095 0.598033 0.164729 -0.271290 -0.436673 -0.409064 0.463563 0.061347 -0.035776 0.097637 -0.254118 -0.665765 -0.549981 0.297120 -0.098161 0.080370 -0.351649 -0.024917 0.175130 0.412329 -0.219196 0.304672 -0.068844 -0.002664 -0.009848 -0.031041 -0.625285 0.397223 0.117992 0.050938 -0.120488 0.227903 -0.216669 0.021696 -0.189824 0.050907
8 0.126381 -0.254278 -0.156763 -0.639401 -0.383251 -0.298205 -0.511433 -0.099280 -0.464764 0.090504 -0.075480 0.254210 -0.277658 -0.202674 -0.351673 -0.097199 0.200182 0.003664 0.076799 -0.061504 0.000883 -0.108651 -0.978556 0.116231 0.080708 -0.151792 -0.567831 -0.623357 -0.339269 -0.225834 0.234478 0.370691 0.086848 -0.016519 -0.275282 0.544142 0.285503 0.621677 0.367850 0.128417 -0.548326 0.224017 -0.003568 0.163518 -0.134284 0.135212 -0.120460 -0.244687 0.008809 -0.449730 -0.137850 0.158581 0.827459 0.464308 0.006339 0.083113 -0.438172 -0.208693 -0.699173 -0.064262 -0.306874 -0.156379 -0.017894 0.257740 0.185939 0.181529 0.614738 -0.670971 -0.259653 -0.036239 0.561515 0.209389 -0.429865 0.014116 0.546686 0.137394 0.640568 0.199570 -0.114320 0.170766 -0.147724 -0.299201 -0.559412 -0.182687 0.080911 -0.054574 0.123929 0.141330 0.293077 0.615176 0.627123 0.228618 -0.020262 0.363099 -0.054769 0.154932 -0.037359 -0.612892 0.401137 -0.323994 0.167218 -0.393843 0.044290 -0.194641 -0.089049 0.198363 0.142674 -0.038137 -0.389547 0.420977 0.010917 0.628668 -0.296519 -0.022412 0.021739 0.327777 -0.270168 0.063913 -0.519243 -0.043800 -0.190929 -0.009816 -0.089297 0.095212 -0.357663 -0.074970 -0.288740 0.309271
88 -0.221329 -0.445407 0.035372 -0.147372 -0.324378 -0.088760 -0.110761 -0.258867 -0.117442 -0.147252 0.414357 0.101590 -0.337956 -0.170140 0.263169 -0.115504 0.142324 -0.204022 -0.000119 0.110826 0.422836 0.374095 -0.911938 0.177865 0.014573 -0.185904 -0.469730 -0.596029 -0.294913 -0.342712 0.073482 0.604591 -0.320238 0.011412 0.386792 0.564202 0.045477 0.762516 0.647716 0.067654 -0.138638 0.342765 -0.491370 0.119472 -0.337493 0.078461 -0.084008 -0.388142 0.032826 -0.593425 -0.319395 0.362718 0.226472 -0.300635 -0.043178 0.239001 -0.062126 -0.501902 -0.342430 -0.182526 -0.512169 -0.535086 0.236481 0.552738 0.218353 -0.198107 0.396660 -0.443240 0.092428 -0.054302 0.134001 -0.002249 -0.523864 0.290532 0.599675 -0.202472 0.428096 0.263313 -0.495760 0.052508 -0.164282 -0.184049 -0.601030 -0.436053 -0.177600 -0.046913 -0.164019 -0.092395 0.574486 0.235211 0.309600 0.099718 -0.149953 0.407107 -0.014135 0.004091 0.260539 -0.385526 0.320888 0.032505 0.523597 -0.411561 0.138411 -0.080707 -0.180420 -0.093128 -0.088045 -0.225460 0.022222 0.085524 -0.081718 0.454480 -0.444194 -0.079148 -0.312929 0.429234 -0.573857 0.189510 -0.317077 0.016920 -0.360463 -0.331404 0.115992 -0.378578 -0.236378 -0.194762 0.338489 0.208091
56 -0.287426 -0.076899 -0.185328 -0.514811 0.223066 -0.403346 -0.180181 -0.195044 -0.578961 -0.422927 -0.349838 0.271763 0.014160 -0.033577 -0.304874 -0.144401 -0.171489 0.222945 0.173778 -0.091780 0.043252 0.163030 -0.769712 0.537837 -0.169746 -0.574594 -0.268078 -0.297176 -0.176891 -0.162747 0.327277 0.569296 0.048305 -0.314301 0.005515 0.132798 0.080555 0.835532 0.318919 -0.081710 -0.339651 0.336779 -0.527400 0.460057 0.114539 -0.047183 -0.245429 0.161311 -0.261966 -0.306184 -0.074333 -0.298306 0.635605 0.409306 0.083125 -0.328343 -0.123149 -0.498672 -0.370030 0.192274 0.062501 0.088732 -0.113841 0.091004 0.400269 0.375116 0.428963 -0.385543 -0.004925 0.095936 0.898540 0.099611 -0.239409 0.207811 0.002193 0.299513 0.200237 -0.227388 -0.172323 0.106250 -0.012606 -0.161225 -0.708980 0.100854 0.483344 -0.351759 0.186209 0.030715 0.597854 0.414844 0.559885 -0.107598 -0.026294 0.360437 -0.200322 0.025801 -0.201631 -0.274311 -0.135802 -0.296898 -0.358270 -0.400394 0.069680 -0.021599 -0.339900 0.077511 0.176938 0.107186 -0.642593 0.638432 -0.306745 0.497685 -0.510473 0.399033 0.103335 0.262636 0.458604 -0.280835 0.171810 -0.085882 -0.126324 0.393876 0.103506 -0.025197 -0.089037 0.007363 0.151495 0.154254
40 -0.085551 -0.146433 -0.149144 -0.279608 -0.411690 -0.081191 -0.275263 -0.223256 -0.466842 -0.372577 0.018047 -0.046064 0.081044 -0.374440 -0.584775 0.130864 0.303630 -0.011861 -0.298478 -0.070236 0.303191 -0.381551 -0.917421 0.290581 -0.191393 0.156802 -0.568821 -0.612148 -0.541162 -0.295992 0.268866 0.157854 0.163225 0.365527 -0.520828 0.462646 -0.457949 0.465300 0.231445 -0.238260 -0.233239 0.578431 0.080153 -0.363255 -0.113189 -0.140987 -0.101706 -0.285838 0.128073 -0.218102 -0.082976 0.168922 0.648218 0.363373 -0.118766 0.226596 -0.303609 -0.075389 -0.270960 -0.164641 -0.309130 0.097534 0.223684 -0.137863 -0.216494 0.308758 0.177028 -0.410586 -0.157199 -0.034461 0.062349 0.301902 -0.199287 0.093845 0.310175 -0.146244 0.661142 -0.297849 0.022072 0.116746 -0.060851 0.080978 0.116773 0.164903 0.514217 0.026492 -0.310225 0.268201 0.106783 0.918343 0.219583 0.507205 -0.150751 -0.110894 -0.076726 0.710475 0.245641 -0.462569 0.076689 -0.368504 0.192226 0.258016 0.396763 0.113785 0.158414 0.128871 0.112571 0.090092 -0.278324 0.665604 -0.132365 0.237697 -0.122014 0.063925 0.265683 0.160934 0.301562 -0.096721 -0.143290 0.214731 0.079628 0.433167 -0.413171 0.328997 -0.233268 0.053959 -0.340731 0.039224
193 -0.109565 -0.148857 -0.136181 -0.230137 -0.404304 -0.121239 -0.299755 -0.237191 -0.466959 -0.431429 0.011033 0.002577 0.053448 -0.378177 -0.606470 0.131285 0.343064 0.018766 -0.301419 -0.032031 0.376363 -0.397010 -0.932810 0.315608 -0.228398 0.193318 -0.533159 -0.702926 -0.594698 -0.293846 0.224918 0.207934 0.135414 0.380054 -0.501654 0.461981 -0.442892 0.411687 0.220170 -0.256575 -0.254075 0.599883 0.008242 -0.335445 -0.106219 -0.171890 -0.119619 -0.287134 0.099995 -0.253669 -0.065472 0.143412 0.667099 0.350707 -0.124872 0.246068 -0.321198 -0.092321 -0.313529 -0.179538 -0.380174 0.086929 0.225113 -0.084301 -0.196717 0.302699 0.203330 -0.371727 -0.213465 -0.090358 0.058205 0.242170 -0.191424 0.131447 0.327787 -0.116578 0.696221 -0.344884 0.058167 0.114462 -0.097099 0.036053 0.101929 0.133196 0.527167 -0.006935 -0.346373 0.330117 0.165351 0.891389 0.231915 0.469781 -0.145788 -0.084160 -0.022238 0.659563 0.160802 -0.410776 0.093342 -0.338728 0.169301 0.273227 0.400317 0.053406 0.134440 0.109621 0.151739 0.134976 -0.366523 0.635901 -0.171378 0.215713 -0.134118 0.045091 0.272426 0.057623 0.292024 -0.151107 -0.106402 0.192984 0.108887 0.392376 -0.388552 0.271687 -0.233580 0.030670 -0.317146 -0.002186
66 0.300953 -0.336235 0.056528 -0.809384 -0.392645 -0.015384 -0.293300 0.058267 -0.382256 0.214913 -0.037429 -0.135388 0.152260 0.210046 -0.387337 -0.076491 0.000208 -0.037770 -0.297511 -0.176606 -0.021854 -0.068583 -0.885091 0.214418 -0.342533 -0.158540 -0.426916 -0.172904 0.171019 -0.133392 0.241976 -0.259151 0.174786 0.249279 -0.416533 0.316610 0.017344 0.653895 0.113854 0.027227 -0.070007 0.375265 0.024697 -0.481107 -0.054537 0.134959 -0.322910 -0.162172 0.257254 -0.005080 0.244501 0.129127 0.610880 0.223360 -0.017689 0.072153 -0.258046 -0.348857 -0.399179 0.209561 0.083281 -0.111870 -0.096249 -0.142673 -0.028086 0.285091 0.417801 -0.528154 0.127334 0.457934 0.034438 0.533871 0.024322 -0.240124 0.570950 -0.433983 0.547117 0.048064 0.014430 0.326524 0.133373 -0.067349 -0.220459 -0.094744 0.311980 0.335332 -0.046777 -0.209335 0.130865 0.748432 0.137408 0.479208 -0.495332 0.017565 -0.252158 0.466743 0.204579 -0.397274 0.022196 -0.171854 0.002977 -0.019845 0.146882 0.130062 -0.106589 0.200536 -0.311342 -0.198471 -0.032220 0.551706 -0.038655 0.372015 0.008743 0.062921 0.021753 0.252233 -0.056853 0.170621 -0.606258 0.124029 -0.175360 0.459330 -0.207076 0.529238 -0.153582 0.197844 -0.294595 0.366806
156 0.733832 -0.422407 0.073300 -0.601325 -0.436006 -0.387074 -0.583441 -0.092800 -0.196478 0.118160 -0.351961 0.484473 -0.212221 0.053995 -0.330798 -0.059675 0.034334 -0.133751 -0.116923 0.060134 -0.364751 -0.171011 -0.758463 0.273522 0.185108 -0.320434 -0.292443 -0.703562 -0.000085 -0.309168 -0.133747 0.122146 0.059519 -0.270672 -0.246848 0.119206 0.240392 0.146097 -0.008417 -0.018214 -0.393381 0.118995 -0.069463 -0.058562 -0.040993 0.068956 -0.042368 -0.343619 0.422440 -0.341080 0.417525 0.174676 0.449204 0.327460 -0.069963 0.028570 -0.435239 -0.271878 -0.378457 0.388110 0.055122 0.005656 -0.085937 0.182551 0.107584 0.222709 0.980201 0.047902 -0.643209 -0.191157 0.281280 -0.297298 -0.346194 0.012366 0.287886 -0.099417 0.452248 0.160872 0.017020 -0.135439 0.008816 -0.118377 -0.365161 0.059753 0.106551 0.093730 -0.079602 0.298094 0.037926 0.001525 0.391724 0.213908 -0.041095 0.542470 0.157274 -0.293335 -0.431253 -0.394669 0.458410 0.052849 -0.039218 0.128744 -0.281926 -0.644596 -0.545147 0.274196 -0.069945 0.123729 -0.360862 -0.052091 0.163648 0.386817 -0.227565 0.307060 -0.074064 -0.031521 0.006339 -0.038770 -0.565647 0.371297 0.120458 0.032838 -0.102931 0.235131 -0.202741 0.012959 -0.154234 0.012193
285 -0.370585 -0.150630 -0.832082 -0.258658 -0.822186 0.040773 -0.547644 0.019949 -0.588804 0.158696 0.223350 0.359356 -0.210689 -0.026556 -0.226269 -0.241238 0.273099 0.496850 0.355943 -0.106011 0.191315 0.068447 -0.613876 0.120108 -0.029632 0.106568 -0.328255 -0.452701 -0.136439 0.194687 -0.076268 0.114745 0.403407 0.209713 -0.182250 0.584865 0.376485 0.693235 0.538961 0.339623 -0.604792 0.564282 0.139758 0.318273 0.207115 -0.292441 0.286604 -0.141419 -0.584653 -0.305882 -0.859484 -0.161057 0.620666 0.360619 0.652679 -0.098472 -0.543530 -0.662506 -0.860849 0.304299 -0.242711 -0.062748 0.075814 0.327535 0.491153 -0.515697 0.293525 -1.389174 0.094730 -0.339958 0.010300 0.904532 -0.216914 0.045185 0.535475 0.589094 0.420292 -0.027958 -0.185642 0.085685 -0.007616 -0.143362 -0.509896 -0.059685 0.234696 -0.075922 0.323835 -0.075795 -0.031359 0.544140 0.823134 -0.081876 -0.068380 -0.149616 -0.249191 -0.032617 0.501940 0.161438 0.155057 -0.005558 -0.059635 -0.146550 -0.507146 0.045810 0.145660 -0.314260 -0.135413 -0.142782 -0.177821 0.402350 -0.360502 0.811278 -0.111302 -0.394084 0.121222 -0.194369 -0.449590 0.117335 -0.726852 -0.205041 -0.411850 -0.137899 -0.312226 -0.154869 -0.615016 0.297034 0.110520 0.069183
92 0.522618 -0.111742 0.066166 -0.691765 -0.579213 0.140320 -0.249261 -0.042259 -0.062126 0.673957 0.011680 -0.090010 -0.260567 -0.211975 -0.314763 0.053012 -0.005641 -0.664521 -0.199855 -0.252181 0.188264 -0.454761 -0.421496 -0.454970 0.477829 0.009907 -0.611707 -0.287324 -0.352995 -0.018075 0.454507 -0.164612 0.056792 -0.055034 -0.358669 0.646921 0.180232 0.202391 -0.037977 0.271087 -0.318084 -0.057324 0.647688 0.185631 -0.598458 0.710463 -0.138876 -0.792142 0.651384 -0.209834 -0.295409 0.375895 0.722331 0.388413 -0.712599 0.531359 -0.385310 0.622439 -0.454856 -0.397768 -0.496203 -0.419102 -0.225214 0.262829 -0.167214 0.258143 0.325872 -0.345744 -0.376793 -0.014401 0.673054 -0.221880 -0.477217 -0.261652 0.813473 -0.085905 0.778982 0.766917 -0.146496 0.012576 -0.190867 -0.170057 -0.213422 -0.410148 -0.421534 0.206072 0.099535 0.180153 0.176708 0.497204 0.377579 0.540479 0.346644 0.343968 0.155327 0.227475 0.037631 -1.165779 0.606058 -0.291459 0.745465 -0.226351 0.264106 -0.151365 -0.030570 0.545662 0.088043 -0.221877 -0.165239 -0.361646 0.479243 0.002113 0.009477 -0.056090 -0.027245 0.353862 -0.216275 0.642311 -0.605362 0.189941 -0.195761 -0.322559 -0.118519 0.385546 -0.501919 -0.053912 -0.906570 0.319599
271 0.134613 0.270756 -0.522565 -0.535063 -0.389564 0.011942 -0.647491 -0.024874 -0.221229 -0.209861 0.025099 0.262588 -0.160468 -0.495165 -0.429999 0.111772 0.261003 -0.546696 0.105619 0.086735 0.287469 0.267522 -0.536326 -0.223294 0.084933 0.423245 -0.395994 -0.433003 -0.421937 0.563334 0.435491 0.430458 0.524287 0.138874 0.201884 0.519182 0.227713 0.767861 0.213045 -0.377658 -0.593953 -0.110920 0.016312 0.556611 -0.054896 -0.056120 0.449908 0.257348 -0.135759 -0.295062 0.239533 0.048181 0.727546 0.966994 0.140750 0.166438 -0.506960 0.389578 -0.318595 0.162037 -0.238807 -0.324310 -0.065111 -0.204818 0.342861 -0.091433 0.567866 -0.736729 -0.203634 -0.355175 0.912333 0.437123 -0.639121 0.191610 0.271544 0.550570 0.209186 0.054271 -0.332988 -0.403650 -0.287945 -0.720626 0.031267 -0.100906 0.188210 0.423168 0.195227 0.366145 -0.483753 0.658583 0.144860 0.007621 -0.123700 -0.351750 -0.115376 0.173905 -0.256854 -0.644707 -0.123489 -0.484780 0.513838 -0.568474 0.333015 0.082964 0.395602 0.222021 0.191434 -0.065606 -0.438567 0.114084 -0.119458 0.160895 -0.330950 0.296092 0.305623 0.259034 0.295699 -0.218787 -0.402932 -0.231817 -0.420452 -0.217677 0.187822 0.215132 0.086860 -0.348046 -1.017807 0.173631
231 0.232589 0.430856 0.025367 -0.706725 -0.385875 -0.727856 -0.446751 -0.272576 -0.125127 -0.154895 0.004433 0.019166 -0.444247 -0.033817 -0.179157 0.503565 -0.234059 -0.415358 -0.168290 -0.386296 -0.190010 -0.117949 -1.165779 0.252798 0.274050 -0.488151 -0.292033 -0.372290 0.086030 -0.584493 0.287912 0.441485 -0.388933 -0.039641 -0.225398 -0.231799 -0.457980 0.500933 0.722239 -0.071670 -0.240887 -0.035838 0.347096 0.417783 -0.411387 0.228052 -0.241856 0.025958 0.036557 -0.168453 0.187938 0.431869 0.768731 0.160855 -0.165435 0.374707 -0.152488 0.343185 -0.239645 0.116384 -0.563921 -0.217971 -0.159792 -0.249693 -0.129900 0.917284 0.274680 -0.242850 -0.128797 0.768956 0.967223 -0.259844 -0.123008 0.213371 0.248483 0.020932 0.730240 0.451058 0.036298 0.136791 -0.414662 -0.453786 -0.405675 -0.351894 0.058077 -0.351348 0.092286 0.347490 0.370086 0.605038 0.482928 0.305081 0.141507 0.315720 0.286120 0.426519 -0.084323 -0.579270 0.670007 -0.591266 0.387217 -0.693133 0.655897 0.407346 -0.122295 0.469999 0.076772 -0.383344 0.159990 0.204843 0.785493 0.227059 -0.490809 0.139280 0.637973 0.391196 0.214295 -0.196627 -0.115372 -0.366069 -0.097745 -0.142938 -0.018849 0.556230 0.174938 -0.341201 -0.352564 0.239207
233 -0.405736 -0.048389 0.292749 0.123214 -0.140768 0.243017 0.109177 0.155058 -1.118280 0.031351 0.173593 0.425292 -0.273702 -0.566850 -0.045006 -0.082051 0.524527 0.194324 0.274592 -0.062476 0.075709 -0.318514 -0.493601 0.014883 0.123669 0.170568 -0.240888 -0.608445 -0.556248 0.016789 0.371467 0.155986 0.502480 0.051525 -0.196462 0.737565 0.364813 0.455962 0.340162 -0.002763 0.150127 0.119207 0.053754 0.564478 -0.331453 -0.030376 -0.177053 -0.090020 0.062782 0.255838 -0.429973 -0.016447 0.919961 0.490100 0.440249 0.259773 0.022770 -0.121659 -0.183123 -0.449998 -0.423832 -0.396901 0.048459 0.109188 0.749530 0.312561 0.539217 -0.571109 -0.021351 -0.212822 0.599194 0.167142 -0.348816 -0.159024 0.193914 0.576931 0.356913 0.517081 0.329788 -0.004262 -0.073724 0.005520 -0.270931 -0.359355 -0.076937 -0.094963 0.074016 -0.591742 -0.209208 0.963682 0.315414 -0.092911 -0.120771 -0.150621 -0.389468 0.169165 -0.023136 -0.864221 -0.094891 -0.443779 -0.020719 -0.819901 -0.107719 0.034486 -0.080366 -0.025984 0.283658 -0.061763 -0.710335 0.762346 -0.064506 1.068380 0.404716 0.261421 0.086750 0.371342 -0.268192 0.462229 -0.112445 0.320191 -0.801472 0.161371 -0.019422 -0.644494 -0.399624 -0.020510 -0.359977 0.540320
203 -0.001960 -0.495795 0.316018 -0.394402 -0.334603 -0.160784 -1.055737 0.207464 0.001562 -0.195105 -0.078081 0.029705 -0.138399 -0.095084 -0.278682 -0.001116 -0.274649 0.337850 0.657172 0.450397 0.053718 0.154264 -1.073782 0.014085 -0.272449 -0.277355 -0.769961 -0.858672 0.217938 0.569951 0.396208 0.413253 0.296973 -0.051143 -0.313915 0.577514 0.222817 0.218299 -0.054693 -0.252070 -0.519496 0.345291 -0.208790 0.047258 0.116444 -0.087559 0.306196 -0.559684 -0.201439 0.056946 0.274409 -0.112216 0.450830 0.497851 0.004495 0.060501 -0.317462 0.283396 -1.000376 -0.098135 -0.120851 0.214665 0.345925 0.853149 0.117230 -0.259669 0.743398 -0.691673 -0.246183 -0.731146 0.181009 0.528997 -0.576859 -0.194577 0.062664 -0.000310 0.135053 0.082545 -0.499394 0.263227 -0.627877 -0.348031 -0.469562 -0.329789 0.158804 0.413033 -0.146417 0.167090 0.557017 0.592244 0.277292 -0.216581 0.033097 0.494223 0.147554 0.412028 -0.128032 0.028962 -0.370809 -0.323547 0.163102 -0.630731 0.285560 -0.744999 -0.034503 0.602224 -0.524057 -0.241366 -0.443841 0.590479 -0.346526 0.206908 -0.054121 -0.237259 -0.183314 0.310524 -0.234587 0.113088 -0.326370 0.749396 -0.062543 0.354901 -0.349455 -0.206303 -0.466792 0.031523 -0.398396 0.759309
61 0.182357 -0.187043 -0.010840 -0.687915 -0.333984 0.100468 -0.162086 0.028166 -0.394850 0.272322 0.047111 -0.212274 -0.002366 0.259741 -0.389140 -0.055300 0.151423 0.030067 -0.209236 -0.199514 -0.205079 -0.083618 -0.868555 0.014939 -0.301410 -0.204535 -0.414403 -0.022943 0.129824 -0.167938 0.257445 -0.281481 0.260127 0.179866 -0.379183 0.422245 0.143627 0.664711 0.228019 0.205595 0.003382 0.208073 0.103982 -0.549894 -0.077724 0.140246 -0.295079 -0.103421 0.188088 -0.008378 0.201149 0.112632 0.523470 0.085693 0.181751 0.092982 -0.251824 -0.372570 -0.418690 0.052315 -0.059300 -0.238237 -0.056571 -0.009380 -0.013136 0.188029 0.303802 -0.655955 0.073373 0.498692 0.145366 0.623022 -0.016729 -0.232247 0.538250 -0.380112 0.496555 0.142464 0.056102 0.387555 0.267422 -0.169906 -0.288371 -0.117667 0.228324 0.280092 0.038042 -0.341093 0.189975 0.615755 0.038094 0.481736 -0.420182 0.178139 -0.248164 0.485838 0.299316 -0.421063 -0.022200 -0.162911 -0.015918 -0.221594 0.061253 0.186998 -0.021824 0.113438 -0.255493 -0.276409 0.112259 0.618218 -0.033364 0.478593 0.080630 -0.093600 -0.043055 0.365601 -0.200119 0.227917 -0.536019 0.046788 -0.288746 0.386608 -0.151733 0.611589 -0.156199 0.247909 -0.342622 0.417038
110 -0.123845 -0.366241 -0.005385 -0.119279 -0.084261 -0.003925 -0.100656 -0.266103 -0.130973 -0.017912 0.306401 0.072272 -0.198651 -0.252585 0.130485 -0.205612 0.331099 -0.140016 0.034442 0.225518 0.311384 0.351527 -0.778233 0.020339 0.031659 -0.158668 -0.414438 -0.558519 -0.435829 -0.322856 0.071140 0.584646 -0.320958 0.018338 0.267014 0.606845 0.213369 0.580099 0.516293 0.115016 -0.045538 0.293921 -0.515130 0.026655 -0.315533 0.147609 -0.152189 -0.314346 0.113942 -0.511491 -0.257525 0.321553 0.128802 -0.278817 -0.058366 0.194680 -0.111148 -0.474368 -0.421031 -0.308577 -0.566610 -0.501684 0.158452 0.568482 0.217456 -0.295375 0.435096 -0.387844 0.046004 0.033019 -0.018643 -0.029913 -0.613514 0.230606 0.510555 -0.177517 0.378807 0.150593 -0.374841 0.175796 -0.137425 -0.144576 -0.607706 -0.396661 -0.165837 -0.024273 -0.088110 -0.127870 0.614950 0.168101 0.248777 0.062019 -0.136930 0.463111 0.029642 -0.013546 0.242585 -0.425809 0.322913 0.162528 0.485993 -0.261446 0.178207 -0.155954 -0.186459 0.000311 0.033049 -0.077027 0.078274 0.192079 -0.086210 0.477693 -0.412597 -0.151438 -0.321621 0.401683 -0.690092 0.124551 -0.244085 0.011190 -0.297026 -0.310799 0.120133 -0.295187 -0.241540 -0.207057 0.321417 0.158535
11 0.109167 -0.232907 -0.149382 -0.590439 -0.353117 -0.280952 -0.480021 -0.087761 -0.432989 0.077349 -0.065672 0.234984 -0.261446 -0.189412 -0.325649 -0.086915 0.183406 0.002159 0.069030 -0.063917 0.006084 -0.103203 -0.902890 0.110116 0.076881 -0.141282 -0.530811 -0.582432 -0.322997 -0.213179 0.224819 0.346822 0.086014 -0.021407 -0.253883 0.513547 0.263619 0.581609 0.338100 0.119695 -0.510093 0.212147 0.005730 0.153994 -0.125518 0.124911 -0.103654 -0.225531 0.005375 -0.417816 -0.130562 0.150615 0.769776 0.433835 0.008685 0.073996 -0.402571 -0.187450 -0.652630 -0.063534 -0.287078 -0.144035 -0.014137 0.238652 0.164175 0.175117 0.560241 -0.626163 -0.235730 -0.032775 0.527847 0.198992 -0.402388 0.012801 0.511492 0.132407 0.598893 0.184900 -0.109741 0.157864 -0.139755 -0.271267 -0.515054 -0.173194 0.073721 -0.056454 0.118645 0.132194 0.271004 0.577416 0.582626 0.211541 -0.012756 0.337747 -0.046878 0.144328 -0.028249 -0.567747 0.375367 -0.299354 0.159682 -0.361286 0.049060 -0.175913 -0.081400 0.186805 0.135345 -0.034406 -0.357150 0.391822 0.014790 0.584124 -0.280904 -0.025860 0.028748 0.302208 -0.254388 0.063683 -0.479129 -0.049274 -0.176121 -0.012706 -0.082882 0.081223 -0.338784 -0.070896 -0.279114 0.289950
58 0.238109 -0.264937 0.030616 -0.714987 -0.402318 0.039728 -0.242921 0.061435 -0.397807 0.225161 0.010724 -0.151436 0.084584 0.226897 -0.387145 -0.049881 0.059530 -0.016869 -0.261166 -0.161146 -0.096729 -0.098729 -0.855695 0.126121 -0.346418 -0.146828 -0.414987 -0.148389 0.143377 -0.149935 0.240496 -0.268276 0.226854 0.224501 -0.398518 0.365342 0.035133 0.645613 0.132881 0.072850 -0.029712 0.313679 0.047294 -0.523892 -0.067747 0.126232 -0.293745 -0.143371 0.221415 -0.010014 0.203459 0.126447 0.560135 0.143481 0.079931 0.089117 -0.242820 -0.354397 -0.394891 0.119920 0.005033 -0.170022 -0.088378 -0.084195 -0.031703 0.247710 0.369806 -0.570838 0.115734 0.476179 0.054218 0.559613 0.002877 -0.211992 0.538637 -0.394474 0.522006 0.083208 0.050100 0.327186 0.181965 -0.130941 -0.220448 -0.122608 0.275303 0.315962 -0.020594 -0.262887 0.127935 0.684780 0.076067 0.492918 -0.447350 0.099430 -0.249614 0.474633 0.233622 -0.409308 0.008488 -0.165209 -0.001554 -0.082299 0.131732 0.141692 -0.086075 0.153803 -0.283703 -0.225024 0.017767 0.569798 -0.046998 0.396994 0.037354 -0.007555 0.003517 0.271659 -0.121530 0.193695 -0.573163 0.094137 -0.218598 0.403197 -0.181409 0.537344 -0.165505 0.214877 -0.333139 0.378553
178 -0.394120 -0.025245 -0.478449 -0.572757 -0.348893 0.021450 -0.310450 0.216452 -0.135298 0.379900 0.607362 0.685601 -0.187976 -0.438286 0.031532 -0.511594 -0.339504 0.203473 0.031913 0.518803 -0.366617 -0.149147 -0.214319 -0.447103 0.413856 -0.052044 -0.564979 -0.234617 -0.263232 -0.113713 0.632222 0.148703 0.674766 -0.198265 0.013298 0.607756 0.818932 0.751043 -0.123422 0.472948 -0.750891 0.349778 -0.194776 0.235952 0.061663 0.187886 -0.092339 -0.248120 -0.270877 0.035835 -0.438571 0.159856 0.918748 0.521293 0.251905 -0.053181 -0.270785 -0.081183 -0.760678 -0.647771 0.095147 -0.322243 -0.080599 0.126100 0.222136 -0.258494 0.201436 -1.080428 -0.168713 0.370227 0.541405 0.320327 -0.546209 -0.428580 0.102451 -0.261634 0.392641 0.352638 -0.294729 0.045437 -0.323908 -0.320420 -0.486815 -0.331436 -0.215320 0.560530 0.584054 0.024092 -0.204751 0.182340 0.435597 0.290041 0.148406 0.210814 -0.268285 -0.361293 0.126506 -0.526929 0.054284 -0.809017 0.491226 -0.644224 -0.279115 0.012083 -0.235724 -0.261395 0.030028 -0.033944 -0.417189 -0.012937 -0.316125 0.479749 -0.325264 -0.347016 -0.486670 0.552389 -0.408783 0.007171 -0.537524 -0.573350 -0.516399 0.162228 0.249688 -0.282550 -0.772183 -0.225763 -0.292958 0.403671
181 -0.405904 -0.030188 -0.482225 -0.608059 -0.339701 0.012409 -0.306787 0.211904 -0.161343 0.392678 0.605311 0.697579 -0.189082 -0.436323 0.025390 -0.522430 -0.336570 0.199204 0.029516 0.503851 -0.362085 -0.153656 -0.226999 -0.443041 0.429365 -0.073713 -0.583845 -0.239975 -0.270573 -0.125478 0.636850 0.148910 0.673735 -0.212703 0.022238 0.597124 0.856515 0.775235 -0.124898 0.487022 -0.775178 0.346324 -0.206590 0.246252 0.059575 0.187741 -0.104855 -0.241738 -0.281389 0.033918 -0.436385 0.155280 0.949728 0.546868 0.256771 -0.061470 -0.269622 -0.094321 -0.779397 -0.636425 0.110336 -0.319288 -0.097360 0.120248 0.240854 -0.261463 0.217045 -1.093670 -0.171373 0.373268 0.568486 0.319396 -0.559859 -0.432830 0.113288 -0.260957 0.392094 0.371335 -0.314709 0.051766 -0.330717 -0.315167 -0.495259 -0.331256 -0.204793 0.555082 0.600398 0.030233 -0.204693 0.200912 0.451059 0.285745 0.156651 0.203130 -0.284074 -0.371883 0.122678 -0.548793 0.053163 -0.830969 0.498219 -0.656658 -0.284724 0.023908 -0.248007 -0.263300 0.039355 -0.026428 -0.435306 -0.006476 -0.323393 0.502640 -0.325084 -0.353555 -0.482768 0.566482 -0.401033 -0.002387 -0.542652 -0.598838 -0.526491 0.178338 0.253766 -0.290721 -0.784194 -0.232207 -0.288469 0.408646
53 -0.304009 -0.095444 -0.149325 -0.422413 0.145573 -0.402337 -0.232081 -0.267658 -0.661296 -0.498458 -0.493631 0.360661 -0.027438 -0.090790 -0.313844 -0.141914 -0.335400 0.209268 0.244647 -0.133549 0.144863 0.140241 -0.774610 0.572019 -0.182393 -0.517793 -0.251104 -0.270849 -0.106445 -0.184061 0.314208 0.574890 0.027993 -0.323281 0.089534 0.192985 -0.087634 0.860005 0.344777 -0.030485 -0.324768 0.457077 -0.551864 0.396574 0.147965 -0.007777 -0.212611 0.207058 -0.181966 -0.248810 0.012685 -0.414059 0.652533 0.425318 0.063683 -0.373826 -0.204989 -0.521447 -0.323488 0.184530 0.085136 0.086918 0.003709 0.050412 0.327616 0.271365 0.566443 -0.458221 0.016532 0.049749 0.853072 0.080499 -0.304372 0.269713 0.120929 0.397471 0.286676 -0.368848 -0.304199 -0.018875 0.030217 -0.169144 -0.839776 0.158193 0.574475 -0.290475 0.177684 0.012230 0.658944 0.509216 0.553043 -0.034075 -0.005986 0.390139 -0.225089 -0.000753 -0.168278 -0.238165 -0.131364 -0.278460 -0.231093 -0.326690 0.025502 0.007156 -0.386436 -0.000966 0.225480 0.020775 -0.675314 0.600391 -0.337226 0.459544 -0.470384 0.466346 0.119591 0.239339 0.562330 -0.283729 0.084251 0.065300 -0.210011 0.445768 -0.002585 0.004572 0.013071 -0.006103 0.070830 0.096580
5 -0.207644 -0.477126 0.076177 -0.157574 -0.336602 -0.114382 -0.128592 -0.278843 -0.107431 -0.178293 0.407296 0.120048 -0.356868 -0.155821 0.290407 -0.092462 0.124469 -0.221330 -0.030716 0.095925 0.422432 0.348407 -0.942095 0.201391 0.029944 -0.150154 -0.490145 -0.610841 -0.277967 -0.349069 0.054557 0.602254 -0.328310 0.029764 0.421125 0.554336 0.004593 0.725027 0.608518 0.058822 -0.125539 0.368098 -0.490947 0.074142 -0.304604 0.063859 -0.059510 -0.392641 0.077781 -0.602533 -0.264917 0.382166 0.240342 -0.276766 -0.042295 0.265642 -0.084270 -0.473349 -0.321104 -0.174109 -0.484288 -0.519369 0.239357 0.525103 0.183652 -0.202050 0.431395 -0.424606 0.075738 -0.074910 0.114954 -0.016315 -0.496352 0.301287 0.630638 -0.233459 0.460950 0.254407 -0.485314 0.054731 -0.169681 -0.198070 -0.590606 -0.436589 -0.158029 -0.057770 -0.179027 -0.065990 0.571473 0.241719 0.312169 0.139520 -0.165069 0.412464 -0.011912 0.040940 0.246681 -0.366519 0.303874 0.031447 0.503749 -0.381699 0.141818 -0.116672 -0.156003 -0.074093 -0.095556 -0.206555 -0.035080 0.100193 -0.084925 0.436218 -0.422330 -0.066754 -0.294567 0.435063 -0.566231 0.165843 -0.294490 0.033918 -0.352149 -0.296537 0.098277 -0.347106 -0.223778 -0.182120 0.328133 0.201519
251 0.441824 -0.533475 -0.290290 -0.640561 -0.045774 -0.261952 -0.403244 -0.362464 -0.048050 0.416271 -0.246028 0.587415 0.031770 -0.201696 -0.395456 -0.539017 0.380590 0.326025 0.239935 -0.126680 0.116217 -0.079702 -0.874195 -0.120933 0.266531 -0.423406 -0.237321 -0.217276 -0.258356 -0.297042 0.010745 0.386264 -0.171984 0.000426 -0.314421 0.234978 0.375572 0.155044 0.517129 0.344908 -0.384924 -0.101028 0.206131 -0.006033 -0.178380 0.204910 -0.026470 -0.237611 0.443469 -0.393174 0.512198 0.128356 0.148150 0.617230 -0.170746 -0.018491 -0.536048 -0.184077 -0.226793 0.183108 0.249565 0.167127 0.303927 0.415163 0.377491 -0.230366 0.710944 -0.102039 -0.892544 -0.513100 0.600099 -0.403071 -0.065783 -0.379031 0.639731 -0.457338 0.717458 -0.009944 -0.513102 -0.048575 0.091619 -0.010135 -0.525217 0.503422 0.108183 0.284554 0.103224 0.442908 0.451117 0.225415 0.317028 0.063461 -0.139417 0.361132 0.137548 0.067534 -0.257381 -0.357614 0.314193 0.005002 0.161147 -0.160861 -0.555444 -0.480253 -0.221304 0.151928 0.244494 0.464781 -0.300528 -0.002771 0.003729 0.559002 -0.421162 -0.122725 -0.255783 0.432912 0.257946 -0.041406 -0.611878 0.238938 0.369165 0.180329 0.055953 0.525458 -0.162295 0.098494 -0.161064 -0.108560
7 -0.137690 -0.116950 -0.324060 -0.164009 -0.811792 0.451387 -0.103855 -0.384053 -0.388458 0.216005 -0.114767 0.261614 0.112536 -0.247765 -0.335351 0.111878 0.384989 0.097736 0.237074 0.431209 -0.012233 -0.371883 -0.395280 0.230811 0.229159 0.069332 -0.598855 -0.500609 -0.488259 -0.523096 0.146721 0.106549 0.533157 0.012016 -0.681828 0.660480 -0.165287 0.343134 0.096266 -0.057748 -0.689547 0.146159 0.514393 -0.122957 0.463728 0.275253 0.331126 -0.318361 0.288295 -0.557990 -0.413017 0.448116 0.494361 0.191735 0.002168 0.404648 -0.542935 -0.166365 -0.308885 -0.135032 0.039825 0.032836 0.437399 0.131041 0.010414 0.035359 0.161885 -0.659222 -0.173280 -0.487133 0.127581 0.037546 -0.632989 0.512704 0.095056 0.390777 0.279134 0.182461 0.071325 -0.210136 -0.305794 -0.051432 0.088053 0.248191 0.083190 -0.307842 -0.038747 0.328861 -0.108781 0.585491 0.418458 0.546709 0.442168 0.140521 -0.029933 0.676588 -0.030950 -0.377534 0.404210 -0.555271 0.193501 0.042071 -0.114186 -0.186064 -0.115409 -0.056965 0.377907 0.360697 -0.356531 0.671203 -0.151456 0.060601 -0.138058 -0.327593 -0.130147 0.395320 0.218060 0.143292 -0.159693 0.110749 0.100935 -0.149939 0.196202 -0.014916 -0.416119 -0.102297 -0.335795 0.174976
77 0.245301 -0.363178 0.053367 -0.769953 -0.423048 -0.002097 -0.294757 -0.005117 -0.395054 0.157940 -0.028290 -0.107467 0.198488 0.159636 -0.377399 -0.038313 0.035236 -0.039231 -0.301757 -0.121166 0.081214 -0.097954 -0.884284 0.243356 -0.344183 -0.093651 -0.477657 -0.263879 0.102158 -0.176371 0.230688 -0.237935 0.182588 0.302855 -0.423996 0.363518 -0.068095 0.643998 0.101080 -0.040415 -0.119105 0.426175 0.010318 -0.484360 -0.008783 0.141852 -0.287374 -0.199868 0.251281 -0.055578 0.205566 0.165413 0.645464 0.221169 -0.064735 0.118953 -0.255453 -0.323587 -0.407493 0.198373 0.055810 -0.080117 -0.036125 -0.157882 -0.060019 0.266033 0.386147 -0.524093 0.157442 0.389369 -0.024962 0.521137 -0.007284 -0.154609 0.580989 -0.402235 0.563046 -0.015979 -0.010571 0.303652 0.065684 -0.029127 -0.150348 -0.085259 0.344518 0.305633 -0.112058 -0.144657 0.117596 0.814833 0.149384 0.524536 -0.453284 -0.026221 -0.248249 0.544301 0.201833 -0.373726 0.040945 -0.210182 0.027775 0.038940 0.199406 0.131951 -0.090130 0.214861 -0.279386 -0.131862 -0.116674 0.605948 -0.101015 0.308136 -0.013401 0.054011 0.057359 0.253512 -0.012770 0.158579 -0.544882 0.133871 -0.138384 0.462020 -0.235533 0.471235 -0.153230 0.160571 -0.295889 0.331140
90 0.529477 -0.121525 0.048678 -0.662515 -0.620457 0.119042 -0.281154 -0.015510 -0.068310 0.671399 0.020021 -0.069030 -0.281760 -0.246475 -0.336118 0.037247 0.004605 -0.617481 -0.162605 -0.197506 0.163221 -0.476589 -0.432556 -0.468337 0.455640 0.015154 -0.606768 -0.333665 -0.345001 -0.040555 0.433691 -0.132874 0.068511 -0.059177 -0.387888 0.651646 0.207669 0.204286 -0.034350 0.277674 -0.339065 -0.051463 0.643175 0.155033 -0.598588 0.686765 -0.126938 -0.788385 0.624155 -0.202891 -0.298550 0.375412 0.727846 0.378106 -0.673472 0.514001 -0.390100 0.601533 -0.479781 -0.425672 -0.507688 -0.420346 -0.190808 0.288500 -0.152939 0.225820 0.346288 -0.375300 -0.401579 -0.025590 0.648495 -0.200702 -0.473233 -0.263109 0.784793 -0.092913 0.790347 0.765557 -0.143606 0.010432 -0.197024 -0.202318 -0.228020 -0.431151 -0.444495 0.217662 0.084380 0.173198 0.158467 0.495743 0.375145 0.545313 0.336673 0.374376 0.164260 0.207819 0.019504 -1.137056 0.616083 -0.281783 0.758070 -0.237903 0.235168 -0.181194 -0.036067 0.526806 0.068310 -0.235496 -0.154270 -0.367316 0.479481 0.033849 0.000134 -0.081832 -0.053078 0.345709 -0.248860 0.638043 -0.650448 0.200266 -0.202686 -0.338595 -0.121703 0.367159 -0.511472 -0.063918 -0.907702 0.327055
119 0.321056 -0.078969 -0.314813 -0.589008 0.481843 -0.114511 -0.188504 -0.071495 -0.239322 -0.002949 -0.257253 -0.239535 -0.177200 -0.366826 -0.480144 0.074674 0.303934 -0.229872 0.167615 0.117023 -0.050198 0.275341 -0.403585 0.068891 0.112181 -0.580536 -0.631033 -0.525832 -0.473422 -0.195373 -0.023505 0.597194 -0.106145 -0.479166 -0.265399 0.230323 0.626153 0.216798 0.003973 0.080250 -0.359173 -0.057548 -0.055140 0.102799 -0.266839 0.181344 -0.031956 0.126061 -0.312405 -0.275015 -0.339815 0.115303 0.311797 0.139936 -0.099273 -0.238885 -0.054281 0.110013 -0.655077 -0.176689 -0.281336 0.122055 -0.185166 0.396200 0.355916 0.316063 0.050237 -0.306424 -0.060848 0.356462 0.662945 0.038351 -0.067264 -0.197343 -0.172681 0.207301 0.051442 0.331209 0.197790 0.558107 0.062422 -0.300556 -0.370111 -0.049701 -0.311493 -0.271762 0.125164 0.090549 0.327778 0.008034 0.432347 -0.083456 0.166787 0.231681 -0.087039 0.163450 -0.041996 -0.860186 0.494319 -0.106222 -0.094731 -0.159958 0.489606 0.099282 -0.290637 0.290746 0.239048 0.096721 -0.050979 0.458524 0.008492 0.580591 -0.621017 -0.133178 -0.285066 0.243698 -0.140029 -0.209903 0.139018 -0.374600 -0.165367 -0.149649 0.172816 -0.125769 -0.027486 -0.154596 0.013893 0.468356
105 -0.188213 -0.213431 0.335050 -0.360506 -0.457369 -0.557502 -0.235217 0.057749 -0.054519 -0.115179 0.508924 0.431647 -0.538290 -0.615178 0.252319 -0.011308 -0.114326 0.028335 0.069139 0.085536 -0.003263 -0.119153 -0.346822 0.364978 0.786022 0.247947 -0.445224 -0.612602 -0.546503 -0.396009 0.666235 0.310721 0.116300 0.102046 0.001330 0.466715 0.127542 0.195016 0.813385 0.523668 -0.563266 0.550463 0.569264 0.746366 0.167881 -0.051813 0.125662 -0.421330 -0.218454 -0.247382 -0.444166 0.192558 1.099133 1.089453 0.060641 0.344412 -0.306128 0.093432 -0.834063 -0.379091 -0.580778 -0.032116 0.126076 0.061103 -0.069782 0.363187 0.109939 -0.849103 0.115198 -0.025080 0.191917 0.123988 -0.463749 -0.184093 0.303861 0.154085 0.635419 -0.040423 -0.244083 -0.097859 -0.160345 0.310837 -0.152293 -0.418036 -0.116885 -0.003722 0.776789 0.002652 -0.043271 0.525119 0.996976 -0.184901 0.019781 -0.133715 0.395284 0.182329 0.332454 -0.059181 0.583359 -0.694023 0.648413 -0.635630 -0.218209 0.336710 0.201208 -0.467207 0.493926 0.123552 -0.059938 0.053900 0.502985 0.645394 -0.082658 0.079490 -0.223780 0.630206 -0.478135 -0.267375 0.231897 0.068844 -0.249011 -0.103066 -0.363568 -0.532142 -0.230421 -0.144132 0.003432 0.228698
74 -0.191314 0.027680 0.180720 -0.217618 -0.117608 0.048475 -0.439534 -0.025323 0.086309 -0.096956 -0.131137 0.204591 -0.569104 0.329207 0.145153 -0.284478 0.256799 -0.095379 0.231042 -0.300354 -0.151252 0.078090 -0.628529 0.022106 0.283743 0.450784 -0.646366 -0.063544 -0.382149 0.536166 0.215116 0.267089 -0.049209 0.313221 0.401245 0.573359 0.248193 -0.046154 0.057716 0.538774 -0.717959 0.061269 0.149731 0.126621 0.098785 0.093826 -0.060905 0.141637 0.068612 -0.480639 0.367817 -0.052473 0.491140 0.513887 0.043971 0.140825 -0.781321 0.199029 -0.660833 -0.114493 -0.250234 -0.326564 0.026421 0.332734 -0.408102 -0.316172 0.587208 -0.532982 -0.421221 -0.303106 0.438039 0.052730 -0.358654 0.052348 0.821997 0.124105 0.547736 0.356688 0.006194 0.391786 -0.535928 -0.493627 -0.747551 -0.030942 0.416974 -0.219773 0.115157 0.511863 0.234441 0.367046 0.515548 0.006235 -0.129398 0.328402 -0.048074 -0.004460 0.070149 -0.404694 -0.013724 -0.373173 -0.148016 -0.677775 -0.193965 -0.245382 0.452958 0.086568 0.313973 -0.039508 -0.676714 0.457442 -0.146226 0.070956 0.128458 -0.393865 0.075165 0.014462 -0.705338 -0.186439 -0.345423 -0.353556 -0.099173 -0.060199 0.251816 0.224787 -0.414649 -0.208182 -0.023801 0.466277
276 0.073802 -0.126893 0.301329 -0.829853 -0.102034 -0.330176 -0.716879 0.024189 -0.183783 0.489974 -0.237753 -0.267888 -0.364150 0.450497 -0.236209 -0.212561 -0.501977 -0.194070 0.576845 -0.449604 -0.205040 0.186244 -0.727937 0.110056 0.702221 -0.471489 -0.445884 0.127185 0.022599 0.257240 0.069252 0.368885 -0.068640 0.072895 -0.092484 -0.360633 0.166690 0.261029 0.673297 -0.145062 -0.786681 0.406134 0.235617 0.574327 0.026792 0.174206 0.468455 -0.326049 0.252856 -0.044344 -0.092748 -0.235624 0.686506 0.487261 -0.263447 0.025663 -0.500122 0.026380 -0.537495 0.236606 0.223006 0.044917 -0.085934 0.121803 0.129542 0.296997 0.892153 -0.565982 0.295242 -0.612181 0.518774 0.368908 -0.371177 -0.077037 0.580307 0.248840 0.192479 0.395007 -0.984652 -0.098576 -0.624326 -0.101294 -0.405402 0.040194 0.476720 -0.208543 0.618032 0.103985 0.458539 0.988917 0.567632 -0.300585 0.462662 -0.138364 0.151086 -0.128574 0.090250 -0.404990 0.151272 -0.537032 0.441933 -0.437020 0.342995 -0.203788 -0.268493 0.375275 0.067959 -0.227654 0.040319 -0.065570 0.408413 0.639379 -0.038158 -0.088755 0.111773 0.470549 -0.180304 0.060518 -0.717881 0.186055 -0.140221 -0.183595 -0.340749 -0.289983 -0.102827 -0.049546 0.170186 0.279621
223 0.588785 0.412920 -0.275388 -0.035642 -0.930504 -0.148890 -0.472411 0.318713 -0.784370 0.222485 -0.183815 0.107562 -0.203841 -0.345029 -0.597514 -0.227050 0.218355 0.018570 -0.018740 -0.643958 0.032853 -0.729762 -0.533327 0.199535 0.397008 0.027664 -0.154178 -0.459638 -0.017665 -0.044768 -0.130213 -0.228670 0.297681 0.363640 -0.892242 0.262560 0.121777 -0.167770 0.029079 0.469101 -0.591245 -0.259732 0.952033 0.118672 -0.040692 0.047182 -0.197034 -0.075340 0.078678 -0.052713 -0.187091 -0.274530 1.254503 0.857278 -0.091080 0.116187 -0.771177 0.176336 -0.490528 0.305041 -0.275166 0.295491 -0.043790 -0.117158 -0.009870 0.339346 0.450121 -0.681024 -0.655520 -0.312554 0.237597 0.461741 0.014599 -0.180061 0.437444 0.510796 0.752947 0.325202 0.318365 -0.049374 -0.324703 -0.069636 -0.223249 -0.040928 0.150463 0.043359 0.427526 0.389838 -0.555076 0.749807 0.660459 0.142198 0.059860 -0.205709 -0.056631 -0.088976 -0.278963 -0.707079 0.507123 -0.452116 0.311452 -0.353007 -0.050811 -0.001591 0.206522 0.339023 0.263212 -0.382246 -0.264278 0.037568 0.481093 0.287799 0.296198 0.059435 0.393416 -0.075214 0.006889 0.012213 -1.068284 -0.010264 -0.343037 -0.157285 -0.614007 0.310087 -0.388472 -0.098633 -0.897968 0.066507
131 0.084185 -0.206904 -0.126575 -0.521311 -0.300443 -0.252431 -0.418857 -0.073306 -0.391229 0.089562 -0.060177 0.218902 -0.247187 -0.170761 -0.269239 -0.077168 0.163334 0.004207 0.074673 -0.083428 0.010701 -0.077663 -0.799249 0.094527 0.106814 -0.121701 -0.450381 -0.494263 -0.287896 -0.188110 0.214390 0.292693 0.076349 -0.028455 -0.226460 0.451228 0.231578 0.507509 0.288730 0.124850 -0.452496 0.173448 0.012416 0.165217 -0.083390 0.090150 -0.094234 -0.192022 0.005033 -0.373438 -0.126544 0.128566 0.674550 0.397813 0.031941 0.058769 -0.340956 -0.159124 -0.566869 -0.059750 -0.258423 -0.110191 -0.021982 0.213242 0.140777 0.156673 0.499859 -0.551744 -0.214741 -0.020134 0.483636 0.170274 -0.369952 0.010828 0.440403 0.130475 0.521553 0.187193 -0.099832 0.118001 -0.128652 -0.240182 -0.456647 -0.124801 0.074946 -0.054798 0.115447 0.121750 0.224044 0.493636 0.529534 0.188547 -0.012723 0.289635 -0.035679 0.118715 -0.028496 -0.479395 0.340282 -0.274431 0.147848 -0.357938 0.032362 -0.147172 -0.059315 0.165398 0.128581 -0.018599 -0.314699 0.345013 0.032353 0.521373 -0.255955 -0.028038 0.039640 0.287235 -0.215299 0.042141 -0.428314 -0.065913 -0.150634 -0.007935 -0.066511 0.059402 -0.313730 -0.045550 -0.259091 0.255716
115 0.360433 -0.698316 -0.116337 -0.705824 -0.011337 -0.291453 -0.808105 -0.193679 -0.600600 -0.309373 -0.525651 0.036757 -0.309800 -0.546226 -0.281160 -0.007196 -0.242371 0.528306 0.232569 -0.155792 -0.134185 0.093847 -0.223214 -0.217938 -0.025664 0.082703 -0.737561 -0.336174 -0.471691 0.046136 0.102894 0.697091 0.857916 -0.264688 -0.366832 0.699175 0.269245 0.599285 -0.094267 0.301619 -0.935801 0.254038 -0.249068 0.371221 0.278739 0.312622 0.220082 -0.219270 -0.205335 -0.222826 -0.447174 -0.217592 1.113171 1.044137 0.246187 -0.222682 -0.793233 0.074982 -0.757218 -0.385071 -0.061048 0.191900 0.097016 -0.092971 0.113206 0.217981 0.258909 -0.549930 -0.174764 -0.479276 -0.174736 0.503119 -0.253143 -0.379829 0.167089 0.742692 0.072944 -0.587593 0.033966 0.162022 0.107137 0.089835 -0.364206 0.470953 -0.106385 0.033447 0.026389 -0.111258 0.207360 0.205614 0.454466 0.175524 0.281750 -0.183820 -0.348060 0.135503 0.155253 -0.488989 -0.052917 -0.523505 0.026639 0.100323 -0.044010 -0.638538 0.347577 0.375082 0.388475 0.035131 -0.365958 0.475613 -0.329413 0.734452 -0.047414 0.057208 -0.167618 0.354989 -0.381944 0.513967 -0.114652 -0.180522 0.028960 0.038027 -0.575260 -0.165022 -0.254998 -0.036043 -0.360428 0.231258
50 -0.145340 -0.125135 -0.316870 -0.147053 -0.827593 0.452502 -0.101238 -0.376096 -0.396059 0.217596 -0.129781 0.253042 0.133244 -0.236607 -0.336968 0.121627 0.390075 0.088431 0.207380 0.423937 0.011965 -0.377312 -0.419833 0.253332 0.199501 0.081147 -0.603612 -0.491447 -0.493200 -0.515807 0.152840 0.085244 0.525594 0.030158 -0.677028 0.659621 -0.199838 0.342538 0.093174 -0.076097 -0.648161 0.183468 0.512475 -0.176085 0.449750 0.254026 0.325423 -0.341979 0.294214 -0.549387 -0.412285 0.464715 0.479492 0.170609 0.000667 0.418603 -0.521221 -0.166122 -0.303136 -0.148000 0.039522 0.029203 0.422371 0.123797 -0.017226 0.045917 0.152737 -0.650981 -0.162533 -0.459010 0.096481 0.051225 -0.621535 0.517288 0.100414 0.360115 0.275364 0.195127 0.080043 -0.194616 -0.306216 -0.047730 0.119954 0.247154 0.095213 -0.288637 -0.040022 0.328075 -0.118447 0.599845 0.388341 0.575164 0.427811 0.138519 -0.044728 0.698901 0.012609 -0.387628 0.396364 -0.555181 0.183563 0.081086 -0.092183 -0.159096 -0.119191 -0.069459 0.371424 0.350566 -0.340939 0.689057 -0.145096 0.041007 -0.126273 -0.325936 -0.131954 0.395732 0.215220 0.147380 -0.144696 0.120697 0.113862 -0.139926 0.189937 -0.008686 -0.424191 -0.075547 -0.332231 0.180660
148 0.286203 0.084189 0.293155 -1.358611 -0.524141 -0.419750 -0.728229 0.418890 -0.420223 0.549882 -0.544392 0.369709 -0.359819 -0.438815 -0.533584 -0.022503 -0.168888 0.459287 0.155597 -0.292736 -0.381133 -0.410012 -0.324401 -0.198166 -0.199802 -0.181651 -0.226813 -0.210116 0.173124 0.106896 0.403041 0.257836 0.634980 -0.181724 -0.305935 0.165018 0.195986 0.684614 -0.010396 0.146677 -0.798032 -0.128716 0.432076 0.555082 -0.101072 0.254928 0.006203 -0.174464 -0.025768 -0.251158 0.041598 0.068731 0.628675 0.964929 -0.033286 -0.155553 0.178755 -0.159333 -0.630176 -0.072678 -0.152313 0.130681 0.004989 -0.123854 -0.096695 0.699210 0.929235 -0.580411 -0.541280 0.337710 1.138667 -0.098661 -0.583642 -0.307314 0.348313 0.230072 -0.006428 0.520199 -0.442245 -0.517547 -0.147700 -0.265597 -0.281291 -0.103928 -0.097082 0.391256 0.333807 -0.135158 0.013660 0.525057 0.820022 0.027860 0.190485 0.614593 0.146615 -0.444623 -0.431043 0.001956 0.366006 -0.641097 0.232975 -0.701358 -0.444932 -0.100685 0.095619 0.166054 -0.023848 -0.090705 0.012999 -0.113909 0.723379 0.245203 0.372665 -0.304591 0.363558 -0.021569 -0.226253 0.446921 -0.962529 -0.335151 0.066550 0.162508 -0.095079 -0.044204 -0.295250 -0.026788 -1.192608 0.443025
129 0.079052 -0.206436 -0.122363 -0.516476 -0.293407 -0.250835 -0.419517 -0.069520 -0.380810 0.088865 -0.055623 0.209310 -0.239933 -0.168736 -0.260009 -0.079942 0.160078 0.003159 0.074855 -0.090688 0.013228 -0.072283 -0.796456 0.091162 0.101383 -0.123771 -0.450783 -0.488599 -0.287787 -0.185596 0.217348 0.282008 0.081361 -0.020457 -0.221288 0.441891 0.238360 0.512437 0.280251 0.130231 -0.446843 0.178538 0.005444 0.156857 -0.085115 0.088785 -0.093755 -0.184146 0.004211 -0.363384 -0.128570 0.132752 0.670627 0.392974 0.031945 0.060156 -0.334219 -0.160339 -0.569560 -0.065827 -0.253352 -0.108937 -0.023406 0.206957 0.144936 0.150110 0.497121 -0.556099 -0.213859 -0.020418 0.478455 0.173953 -0.368384 0.016413 0.435067 0.121131 0.512577 0.194770 -0.096289 0.118886 -0.127968 -0.236316 -0.452065 -0.122682 0.071161 -0.048698 0.109358 0.112329 0.218009 0.497145 0.519596 0.188002 -0.013221 0.287911 -0.046103 0.118716 -0.031866 -0.477808 0.330055 -0.267504 0.146715 -0.359830 0.037789 -0.137817 -0.058783 0.159142 0.128970 -0.027442 -0.311073 0.344836 0.028093 0.517721 -0.252914 -0.024518 0.037751 0.283436 -0.207456 0.046766 -0.425147 -0.072868 -0.149663 -0.005654 -0.062749 0.066942 -0.306689 -0.038848 -0.251647 0.249377
177 -0.208571 0.007678 0.182648 -0.242862 -0.114627 0.068390 -0.452327 -0.036304 0.126819 -0.099228 -0.115461 0.204813 -0.578796 0.320819 0.139683 -0.306151 0.211442 -0.087088 0.233306 -0.259797 -0.177506 0.105921 -0.603603 -0.014327 0.293137 0.453054 -0.682570 -0.055267 -0.392677 0.553790 0.211519 0.290801 -0.007988 0.305056 0.413651 0.588013 0.271320 -0.023449 0.045985 0.560877 -0.752591 0.083082 0.138515 0.121495 0.126544 0.112525 -0.037013 0.137933 0.072303 -0.486147 0.355969 -0.067771 0.500329 0.531365 0.046036 0.121746 -0.818432 0.190116 -0.680355 -0.142952 -0.224803 -0.333968 0.049248 0.344805 -0.418936 -0.342330 0.579824 -0.566838 -0.414292 -0.324854 0.396789 0.054029 -0.384641 0.035415 0.813142 0.109948 0.532921 0.334516 -0.025360 0.393770 -0.542759 -0.493696 -0.775749 -0.016662 0.423169 -0.193674 0.123495 0.499177 0.262032 0.343499 0.516065 -0.004323 -0.132977 0.332488 -0.029876 -0.012973 0.080676 -0.392237 -0.049288 -0.391122 -0.113175 -0.676743 -0.215327 -0.278077 0.457356 0.075012 0.321895 -0.047913 -0.676696 0.447148 -0.175153 0.074938 0.107445 -0.416440 0.027732 0.027912 -0.730482 -0.175723 -0.356568 -0.362129 -0.086633 -0.047288 0.254948 0.207514 -0.428754 -0.214312 -0.001550 0.489638
104 -0.185166 -0.198866 0.309704 -0.367689 -0.461390 -0.568450 -0.226805 0.052393 -0.058222 -0.120432 0.512357 0.414592 -0.525238 -0.612413 0.225521 -0.016026 -0.143240 0.016390 0.036975 0.075183 -0.005433 -0.131709 -0.333104 0.357569 0.771510 0.235148 -0.433379 -0.592238 -0.532590 -0.405062 0.670886 0.301314 0.129366 0.109123 -0.015925 0.443686 0.111688 0.224101 0.810324 0.508847 -0.551940 0.556923 0.545215 0.721706 0.157563 -0.060855 0.109755 -0.409699 -0.223346 -0.237843 -0.450863 0.176004 1.109976 1.079101 0.049730 0.352546 -0.293431 0.081944 -0.796705 -0.373681 -0.569830 -0.019879 0.128223 0.034160 -0.078290 0.369165 0.100772 -0.830957 0.122941 -0.006842 0.190176 0.144793 -0.449671 -0.185564 0.293028 0.131969 0.638634 -0.084966 -0.254678 -0.113100 -0.139715 0.332841 -0.133930 -0.399885 -0.097176 0.005993 0.759305 0.003747 -0.046072 0.522768 0.974441 -0.167855 0.018020 -0.141036 0.395945 0.168612 0.334816 -0.054363 0.564402 -0.694685 0.656634 -0.602767 -0.216419 0.354005 0.199154 -0.473916 0.479121 0.116101 -0.048790 0.019318 0.492603 0.637912 -0.091927 0.098578 -0.215094 0.612533 -0.439898 -0.275725 0.221137 0.063332 -0.233456 -0.074639 -0.389104 -0.524806 -0.226827 -0.139146 -0.009374 0.195877
167 0.325655 -0.673135 -0.125844 -0.703200 -0.013636 -0.289280 -0.791179 -0.185061 -0.591062 -0.307703 -0.505623 0.039373 -0.310840 -0.538282 -0.262396 -0.016234 -0.238666 0.530766 0.226875 -0.157364 -0.128535 0.087265 -0.217087 -0.223614 -0.013909 0.099293 -0.738576 -0.332192 -0.472522 0.052964 0.135561 0.678842 0.865971 -0.247990 -0.346950 0.715766 0.265219 0.609852 -0.091729 0.306616 -0.936936 0.255607 -0.238144 0.371811 0.283199 0.308685 0.218048 -0.219757 -0.222203 -0.208395 -0.457331 -0.218027 1.111248 1.046683 0.248380 -0.221675 -0.780369 0.080489 -0.765609 -0.396648 -0.069943 0.192416 0.084960 -0.093734 0.103408 0.197770 0.245063 -0.579122 -0.155077 -0.464200 -0.163418 0.532331 -0.257683 -0.380943 0.177290 0.727095 0.081306 -0.566873 0.022331 0.163134 0.091555 0.091385 -0.363969 0.451471 -0.089487 0.048507 0.037736 -0.122778 0.198432 0.225714 0.460260 0.186117 0.287537 -0.190568 -0.364123 0.141846 0.179219 -0.484171 -0.066126 -0.539442 0.035653 0.091935 -0.047117 -0.606919 0.361195 0.364226 0.385034 0.027371 -0.355148 0.486196 -0.331267 0.724057 -0.038412 0.042252 -0.158385 0.352875 -0.392117 0.514504 -0.116548 -0.194780 0.009437 0.052718 -0.576346 -0.170319 -0.269464 -0.034983 -0.373106 0.242138
141 -0.161535 -0.070363 -0.182703 -0.650358 0.358490 -0.361269 -0.139292 -0.069426 -0.405822 -0.249523 -0.213858 0.112588 -0.041169 0.042626 -0.233800 -0.108715 0.080814 0.207917 0.113557 -0.032543 -0.205977 0.270390 -0.661642 0.405788 -0.125959 -0.633818 -0.303720 -0.278423 -0.234424 -0.133862 0.273730 0.563648 0.050398 -0.340152 -0.067116 0.073200 0.400393 0.697732 0.237020 -0.067792 -0.358738 0.071080 -0.426224 0.519366 0.067527 -0.047741 -0.224424 0.169645 -0.370180 -0.418744 -0.179069 -0.103960 0.557968 0.354756 0.128723 -0.262483 -0.089092 -0.394122 -0.469752 0.139117 -0.018490 0.057250 -0.279136 0.200053 0.416486 0.498802 0.260975 -0.285243 -0.055029 0.197742 0.888525 0.110915 -0.195771 0.090744 -0.145208 0.222337 0.014010 0.041696 0.035922 0.328392 -0.078771 -0.240615 -0.594675 0.026418 0.250214 -0.416538 0.194218 0.026219 0.512653 0.158118 0.580545 -0.241123 -0.016894 0.360507 -0.112549 0.034364 -0.247359 -0.328284 -0.057253 -0.364565 -0.513655 -0.544163 0.103033 -0.124905 -0.177335 0.233327 0.155387 0.144344 -0.493589 0.649625 -0.204450 0.547912 -0.560324 0.226189 0.020812 0.253328 0.143304 -0.231083 0.265998 -0.347747 -0.033434 0.186242 0.298205 -0.060235 -0.186827 -0.025512 0.229427 0.294648
201 0.010046 -0.520651 0.302396 -0.409198 -0.329228 -0.158526 -1.049667 0.197283 -0.028321 -0.185669 -0.081533 0.038688 -0.145167 -0.089287 -0.282727 -0.009013 -0.260243 0.334374 0.643678 0.450872 0.052234 0.154268 -1.086329 0.020353 -0.261090 -0.269151 -0.782685 -0.860583 0.193947 0.547994 0.378025 0.426273 0.301136 -0.059315 -0.311948 0.582611 0.242303 0.240453 -0.052285 -0.245984 -0.520205 0.371415 -0.234383 0.035687 0.120003 -0.077420 0.307875 -0.545830 -0.186895 0.022273 0.266259 -0.113113 0.468605 0.500775 0.012151 0.059912 -0.342885 0.244110 -1.010377 -0.108050 -0.110605 0.206655 0.331517 0.841841 0.115782 -0.252401 0.765610 -0.694931 -0.237100 -0.723803 0.172074 0.523759 -0.583617 -0.186742 0.083414 0.007174 0.151766 0.073153 -0.495637 0.266952 -0.610124 -0.354763 -0.485542 -0.323435 0.174888 0.379739 -0.145210 0.161592 0.561537 0.589107 0.280826 -0.200902 0.029927 0.491551 0.127420 0.402421 -0.112680 0.009207 -0.364866 -0.317566 0.141242 -0.601602 0.284525 -0.749070 -0.051563 0.596514 -0.499350 -0.228825 -0.468103 0.609382 -0.366289 0.235519 -0.066237 -0.238193 -0.182842 0.307700 -0.252804 0.108247 -0.331062 0.720104 -0.063191 0.339993 -0.335221 -0.206712 -0.473812 0.034083 -0.376037 0.750846
107 0.050264 -0.507383 0.006367 -0.164745 0.013375 -0.136720 -0.136461 -0.212369 -0.209772 -0.052010 0.268871 0.075827 -0.375808 -0.261286 0.064552 0.010802 0.316935 -0.324730 0.013869 0.303594 0.062324 0.292101 -0.704910 -0.014083 0.101286 0.017228 -0.533454 -0.685822 -0.354089 -0.396010 -0.063994 0.758119 -0.371821 -0.102447 0.231450 0.519431 0.341449 0.356384 0.369496 -0.018582 0.018656 0.222581 -0.390083 -0.226699 -0.290535 0.173358 0.061415 -0.190868 0.093201 -0.530340 -0.132783 0.438214 0.086137 -0.203739 0.088455 0.165288 -0.199885 -0.222727 -0.469505 -0.509983 -0.348741 -0.405296 0.084957 0.524516 0.181025 -0.244351 0.344876 -0.406987 0.166713 0.135332 -0.033695 -0.025887 -0.365989 0.100343 0.312273 -0.176552 0.536640 0.253446 -0.208658 0.461879 0.087283 -0.345044 -0.487181 -0.514348 -0.295235 -0.184859 -0.145963 -0.111168 0.477062 0.136598 0.175011 0.175540 -0.100712 0.517840 -0.048129 0.258830 0.288053 -0.528971 0.330611 0.151198 0.287462 -0.138875 0.410227 -0.313072 -0.191552 0.164621 0.169182 0.098263 -0.185558 0.392712 -0.206879 0.543124 -0.598194 -0.150023 -0.307416 0.543988 -0.724496 0.020597 -0.039084 -0.059899 -0.426913 -0.330509 0.283431 -0.118958 -0.176942 -0.168112 0.273402 0.310715
127 0.092908 -0.213024 -0.138490 -0.514731 -0.328990 -0.270818 -0.443200 -0.098675 -0.471274 0.047641 -0.035976 0.182956 -0.242537 -0.207818 -0.312445 -0.037862 0.207289 0.018631 0.074880 -0.103404 0.024726 -0.129240 -0.837662 0.103471 0.072438 -0.092798 -0.460404 -0.544810 -0.329800 -0.174522 0.222555 0.278368 0.096279 0.006682 -0.261639 0.487294 0.207765 0.522835 0.313157 0.069493 -0.464065 0.202866 0.009207 0.122046 -0.095065 0.086642 -0.126712 -0.221130 0.019515 -0.408594 -0.155238 0.105523 0.724407 0.422871 -0.012891 0.068850 -0.369831 -0.146593 -0.588865 -0.079396 -0.270943 -0.107241 -0.041449 0.214851 0.133800 0.184821 0.493708 -0.545604 -0.202303 -0.001560 0.504158 0.210138 -0.403849 0.044275 0.478486 0.117345 0.582005 0.191773 -0.069420 0.129355 -0.147537 -0.253228 -0.432737 -0.178001 0.130361 -0.059987 0.063049 0.128137 0.218676 0.564826 0.526012 0.196726 -0.021466 0.269416 -0.041006 0.175476 -0.030458 -0.478315 0.334028 -0.266422 0.134312 -0.336445 0.131280 -0.138960 -0.058791 0.201899 0.122587 0.003938 -0.352189 0.414726 0.007917 0.501526 -0.264420 -0.039666 0.084673 0.291166 -0.204820 0.055539 -0.429450 -0.074947 -0.160237 0.035690 -0.104240 0.085800 -0.348579 -0.007158 -0.287522 0.278888
268 -0.186923 0.214615 -0.407963 -0.066200 -0.421201 -0.811967 -0.639390 -0.127699 -0.456783 0.238487 -0.481713 0.437756 -0.078460 -0.109502 0.230204 0.314006 0.451620 -0.093271 -0.109798 -0.249399 0.645725 -0.433388 -0.710763 0.025147 -0.394814 -0.146394 -0.239973 -0.690323 -0.029754 -0.235359 0.270350 -0.068520 0.063431 0.147321 0.273058 0.809481 -0.068422 0.372401 0.025795 -0.014725 -0.148603 0.202426 -0.287543 -0.040062 0.015931 0.147863 -0.326682 -0.492870 -0.460106 -0.785943 -0.425980 0.256551 0.792696 0.291695 0.436474 0.378119 0.141961 0.061362 -0.807967 0.478710 -0.734436 0.143123 -0.398371 0.520847 -0.179319 -0.272165 0.309031 0.022526 -0.024142 0.195068 0.760188 0.529330 -0.360868 0.514420 0.576116 0.089124 0.712184 0.151208 -0.177833 -0.166668 -0.371298 -0.631585 -0.351950 -0.562565 0.117133 0.188082 0.287584 0.360804 -0.022106 0.149305 0.675842 0.644527 0.179197 1.052002 -0.026292 0.004295 0.317225 0.017850 0.504978 -0.339095 -0.256274 0.138410 -0.131877 -0.050251 -0.057419 0.262112 -0.209904 -0.239591 -0.228346 0.458039 0.050901 0.466257 -0.428727 -0.072214 0.278099 0.072563 -0.215914 -0.116943 0.026362 0.001275 -0.227681 -0.009583 -0.128611 0.344901 -0.161927 0.398507 -0.317670 0.174902
15 0.352559 -0.397678 0.104258 -0.877252 -0.397101 -0.058394 -0.326353 0.046167 -0.363276 0.230906 -0.036052 -0.089246 0.157647 0.224365 -0.350386 -0.092498 -0.061054 -0.083028 -0.312320 -0.216320 -0.031156 -0.044671 -0.897123 0.243257 -0.299890 -0.199272 -0.434732 -0.198303 0.204837 -0.156209 0.221489 -0.265291 0.122038 0.229905 -0.381308 0.293571 0.000519 0.660058 0.105609 0.021632 -0.097373 0.361887 0.009912 -0.443682 -0.065547 0.152684 -0.322883 -0.184335 0.287164 -0.017729 0.283132 0.160004 0.606839 0.238854 -0.093273 0.040978 -0.247054 -0.356881 -0.370357 0.291856 0.132083 -0.069096 -0.108604 -0.157975 -0.031020 0.301697 0.499052 -0.478802 0.131351 0.476010 0.051256 0.479589 0.004940 -0.256526 0.598007 -0.467005 0.549827 0.057146 -0.048752 0.315951 0.119768 -0.003714 -0.255592 -0.080469 0.314101 0.361418 -0.050507 -0.199053 0.104786 0.743997 0.183303 0.471274 -0.510306 0.011980 -0.237634 0.405732 0.191297 -0.401606 0.076894 -0.167252 0.041506 -0.013910 0.119248 0.105977 -0.134097 0.233810 -0.336966 -0.184095 -0.020854 0.486135 0.008156 0.383509 -0.008298 0.114462 0.031501 0.293915 -0.044930 0.180751 -0.688156 0.164099 -0.151323 0.482093 -0.240751 0.519817 -0.156845 0.168844 -0.284640 0.366427
117 0.335508 -0.669926 -0.132114 -0.691721 -0.006453 -0.287281 -0.808896 -0.185513 -0.606695 -0.318458 -0.530475 0.029871 -0.305205 -0.539500 -0.272162 0.005783 -0.244821 0.552079 0.239053 -0.165332 -0.132004 0.085211 -0.197945 -0.229458 -0.032838 0.095711 -0.732616 -0.317793 -0.468752 0.065255 0.106183 0.685607 0.883949 -0.258907 -0.359144 0.707455 0.251235 0.595516 -0.116714 0.305592 -0.937973 0.252681 -0.247561 0.372860 0.298481 0.309092 0.224726 -0.207898 -0.226310 -0.217082 -0.466778 -0.233432 1.110309 1.051352 0.267489 -0.229813 -0.790653 0.084822 -0.768603 -0.394172 -0.066570 0.215120 0.084166 -0.096028 0.103203 0.206385 0.237876 -0.559494 -0.157353 -0.479000 -0.180893 0.535500 -0.243833 -0.383223 0.152408 0.761888 0.062662 -0.594916 0.042870 0.164451 0.103591 0.087438 -0.355590 0.480733 -0.081130 0.041648 0.029051 -0.120482 0.201929 0.198636 0.461906 0.180036 0.297500 -0.195798 -0.364926 0.135490 0.171063 -0.467863 -0.076581 -0.541290 0.005937 0.125857 -0.051955 -0.644648 0.370085 0.374343 0.391109 0.033261 -0.359473 0.495789 -0.346500 0.727282 -0.024186 0.050713 -0.158336 0.330413 -0.389997 0.515358 -0.108514 -0.197217 0.030937 0.051633 -0.587783 -0.167982 -0.271099 -0.021294 -0.374650 0.235651
247 -0.005134 -0.106260 -0.057685 -0.155001 -0.356403 -0.398970 -0.681485 0.104727 -1.059046 0.541681 0.198436 0.264495 -0.498920 -0.368529 -0.645956 -0.124655 0.228425 0.421182 0.151993 -0.169996 -0.202564 -0.663434 -0.515628 0.109223 0.092232 0.054662 -0.076543 -0.232495 -0.181926 -0.198495 -0.191437 0.224492 -0.268659 0.244438 -0.481409 0.568229 0.259476 0.136381 0.034928 0.281946 -0.203905 0.299479 0.175168 -0.041498 -0.126081 -0.281366 -0.344483 0.097761 0.007961 -0.565525 -0.342750 0.061817 0.479146 0.060865 0.175850 0.257944 -0.079131 -0.288368 -0.640545 -0.624261 -0.277527 0.474433 0.054255 0.443514 -0.172819 0.301117 0.663694 -0.670859 -0.427659 0.090420 -0.034537 0.126707 -0.410399 -0.367230 0.117858 0.086614 0.903683 -0.125427 0.327213 0.342578 0.038911 -0.458672 -0.480995 0.019666 0.016427 -0.255581 0.000845 -0.057389 0.142504 0.247610 0.591258 -0.009794 -0.162440 0.419658 0.480363 -0.077973 -0.236812 0.535626 0.624183 -0.615395 0.372929 -0.116563 -0.069108 -0.346766 0.075645 -0.087454 0.295459 0.176744 0.018081 0.531431 0.267525 0.750409 -0.122965 -0.340549 -0.288670 -0.238678 -0.761512 -0.211923 -0.599596 -0.079857 -0.129301 0.172528 -0.462846 -0.182513 -0.663906 0.320541 -0.491496 0.460364
68 -0.292428 -0.093293 -0.141590 -0.416563 0.137383 -0.407491 -0.228839 -0.265533 -0.679406 -0.477186 -0.515568 0.358389 -0.012033 -0.092026 -0.318739 -0.124676 -0.366933 0.208797 0.253205 -0.160526 0.168332 0.122913 -0.762044 0.569405 -0.187285 -0.517447 -0.250503 -0.232440 -0.079089 -0.175963 0.322487 0.546367 0.048643 -0.319218 0.077570 0.177901 -0.107009 0.866867 0.334909 -0.026609 -0.328727 0.444915 -0.529196 0.392548 0.150142 -0.001528 -0.204737 0.196104 -0.182765 -0.209242 0.022685 -0.423801 0.655176 0.438694 0.040416 -0.369954 -0.189277 -0.510686 -0.305981 0.196195 0.101358 0.100251 0.003138 0.026838 0.335290 0.280867 0.550964 -0.451978 0.027272 0.046461 0.843002 0.087344 -0.291083 0.250778 0.120442 0.407608 0.287028 -0.365848 -0.324996 -0.031274 0.032849 -0.148807 -0.813294 0.166108 0.559574 -0.270238 0.194620 0.000026 0.637657 0.523199 0.542863 -0.015609 0.009116 0.373991 -0.235673 -0.005383 -0.176983 -0.239567 -0.134416 -0.286455 -0.214006 -0.332719 0.023076 0.030342 -0.392746 0.003330 0.232115 0.007600 -0.671501 0.589173 -0.307430 0.449920 -0.443766 0.477725 0.141998 0.247757 0.587089 -0.261963 0.057625 0.065709 -0.216729 0.457839 -0.022263 0.016941 0.026844 0.009539 0.018807 0.095336
225 0.551286 0.422318 -0.264761 -0.056406 -0.920874 -0.168394 -0.471886 0.324452 -0.765976 0.221941 -0.175487 0.120937 -0.182425 -0.349312 -0.580105 -0.244801 0.217093 0.051653 -0.015742 -0.621742 -0.001677 -0.730379 -0.546007 0.194262 0.378311 0.010309 -0.142346 -0.448934 -0.014356 -0.075763 -0.122591 -0.233755 0.325541 0.372372 -0.887560 0.226414 0.107438 -0.123612 0.055818 0.454020 -0.616053 -0.236944 0.931805 0.132215 -0.019296 0.035897 -0.206240 -0.068698 0.087686 -0.044275 -0.166149 -0.264086 1.242251 0.850441 -0.082516 0.080701 -0.746283 0.130032 -0.476186 0.326524 -0.245070 0.294424 -0.041957 -0.144372 -0.005994 0.356272 0.483642 -0.661604 -0.649669 -0.301418 0.279904 0.461079 0.009001 -0.170723 0.430560 0.492011 0.730318 0.319131 0.294463 -0.104018 -0.344487 -0.070118 -0.217698 -0.031617 0.174788 0.059151 0.434205 0.388509 -0.546028 0.773448 0.664321 0.134171 0.033418 -0.198031 -0.054394 -0.109429 -0.300450 -0.697247 0.513972 -0.465555 0.294770 -0.376250 -0.076823 0.037895 0.188214 0.300610 0.244999 -0.377548 -0.247017 0.021898 0.493938 0.314711 0.301560 0.058239 0.407844 -0.075823 0.021944 0.001224 -1.089802 -0.027899 -0.324801 -0.141370 -0.603160 0.290533 -0.357155 -0.099820 -0.869317 0.043030
17 0.463189 -0.401701 -0.243718 -0.196676 -0.421033 -0.802676 -0.587024 -0.100397 -0.553810 0.141581 0.021726 0.397177 0.180486 -0.115517 -0.257597 0.233353 -0.327817 0.335043 0.140087 -0.308950 0.300946 -0.223198 -1.058090 -0.157057 0.288564 -0.097020 -0.008871 -0.240154 -0.040538 -0.028525 0.313469 0.083295 -0.241773 -0.268145 -0.352643 0.378510 -0.044922 0.465914 0.595725 -0.376167 -0.353218 -0.224020 -0.162024 0.211931 -0.443218 -0.185015 0.062341 -0.332524 -0.372986 0.063922 -0.090087 0.246662 0.355909 0.047616 -0.238111 -0.071155 0.031701 0.052748 -0.164485 -0.332127 -0.010061 -0.037205 -0.290691 -0.229514 0.280684 -0.010498 0.373656 -0.731606 -0.351320 0.060553 0.615943 0.276984 -0.461236 0.117861 0.514181 0.471861 0.320964 0.136897 -0.221724 0.252431 -0.086233 -0.144923 0.074665 -0.242907 -0.261534 -0.262843 -0.060605 0.032422 0.134052 0.296568 -0.137569 0.383230 0.376996 0.195876 -0.459446 0.173925 -0.057980 -0.376164 0.188062 0.178059 0.060260 -0.657047 0.362680 -0.067653 -0.098284 0.162747 0.017540 -0.042142 -0.435737 0.214854 -0.165101 0.095866 -0.128814 -0.121351 0.702483 0.652476 -0.291415 0.444612 -0.735747 -0.241179 0.077468 -0.110143 -0.563687 -0.345982 -0.748775 -0.021299 -0.690129 -0.360083
281 0.343191 -0.463586 -0.355664 -0.097090 -0.442215 -0.851534 -0.514200 -0.218391 -0.457685 -0.021272 0.055727 0.611008 -0.001573 -0.031539 -0.093125 0.189617 -0.245030 0.268635 0.137594 -0.166132 0.159247 -0.152135 -0.897569 -0.071187 0.329901 0.137834 0.049168 -0.339837 -0.218180 -0.219754 0.320058 0.046111 -0.135497 -0.195631 -0.245269 0.321069 -0.049725 0.399054 0.698560 -0.411001 -0.520409 -0.085183 -0.171341 0.219229 -0.214702 -0.113226 0.137974 -0.363373 -0.256320 -0.028738 -0.025585 0.297701 0.366106 0.125235 -0.144617 -0.098894 -0.135026 -0.101496 -0.131061 -0.277960 0.027948 -0.057453 -0.209297 -0.320663 0.227288 -0.127737 0.488047 -0.735651 -0.396178 0.082365 0.664792 0.279689 -0.498752 0.119773 0.598850 0.499016 0.421821 0.088890 -0.190433 0.220883 -0.156358 0.057239 0.075924 -0.151258 -0.194441 -0.398187 -0.024180 0.105866 0.112957 0.457058 0.066564 0.317954 0.333263 0.082325 -0.490422 -0.001112 0.078967 -0.445606 0.304660 0.160114 0.182722 -0.587126 0.209253 -0.103977 -0.152533 0.027892 0.130130 0.072755 -0.545639 -0.013322 -0.210569 0.194384 -0.062809 0.040744 0.816305 0.712471 -0.193919 0.515204 -0.754404 -0.369621 0.048911 -0.220162 -0.562064 -0.439866 -0.762086 -0.142335 -0.591281 -0.539867
163 0.733610 -0.420169 0.077405 -0.565590 -0.437169 -0.441568 -0.606462 -0.111311 -0.196920 0.106462 -0.367044 0.524556 -0.217166 0.023807 -0.348004 -0.046810 0.047812 -0.118190 -0.073329 0.082434 -0.338634 -0.178591 -0.783266 0.287625 0.220281 -0.340316 -0.290219 -0.749393 -0.032146 -0.328405 -0.144190 0.166092 0.020446 -0.292789 -0.245485 0.100939 0.234084 0.113012 0.008967 -0.048909 -0.417769 0.089588 -0.077039 -0.025178 -0.044886 0.052615 -0.028195 -0.361421 0.406542 -0.370895 0.425290 0.172835 0.431114 0.315499 -0.082009 0.040870 -0.414804 -0.256158 -0.383369 0.391516 0.039606 0.043339 -0.073370 0.222657 0.131791 0.214762 1.009175 0.065544 -0.693403 -0.253434 0.324612 -0.350635 -0.379051 0.045181 0.264113 -0.054703 0.449890 0.172030 -0.008397 -0.157409 -0.022141 -0.138255 -0.361388 0.064425 0.100207 0.061979 -0.078068 0.347741 0.050015 -0.020603 0.414473 0.181176 0.009857 0.592536 0.194383 -0.308554 -0.494747 -0.373747 0.481385 0.055223 -0.020018 0.104092 -0.268824 -0.679500 -0.569510 0.287230 -0.044234 0.148966 -0.398640 -0.054870 0.176419 0.382780 -0.263405 0.300965 -0.068637 -0.039063 0.013929 -0.077008 -0.553238 0.380768 0.151499 0.004973 -0.103140 0.184447 -0.210498 -0.001130 -0.159851 -0.019364
