34 128
34 -0.104393 -0.280232 0.130338 0.048137 0.067568 -0.123265 0.118564 0.110640 0.069136 0.023318 -0.083748 0.183513 0.053987 -0.184409 0.045523 -0.247420 -0.017897 -0.171346 -0.000679 0.006001 0.199066 0.031484 0.186239 0.056408 0.028350 0.013059 -0.157269 0.075744 -0.015993 0.131066 -0.057105 0.206521 -0.099300 0.041507 -0.082282 -0.196703 0.201750 0.026777 -0.005995 -0.036667 -0.242722 0.043282 0.132509 0.199062 -0.147098 0.074964 -0.030666 -0.041535 -0.093732 0.098029 -0.095793 0.193194 0.049409 0.123395 -0.130554 -0.115004 -0.145006 0.040604 -0.086695 -0.028445 0.114769 -0.231890 -0.019043 0.121070 -0.007537 -0.086934 0.003983 0.046222 -0.022837 -0.141086 -0.053630 0.038964 -0.050417 -0.074141 0.068937 -0.010928 0.057069 -0.017746 -0.045728 -0.023702 0.027864 -0.134794 -0.006780 -0.089208 -0.151026 0.154158 0.006562 0.034861 0.022831 0.028733 0.034186 0.025957 0.076570 -0.040069 -0.092061 0.128891 -0.059018 -0.041571 0.075825 -0.036517 -0.185289 0.094128 -0.138136 -0.060259 0.011254 0.046934 0.194648 0.051591 -0.036169 -0.065603 -0.021113 -0.001102 -0.041942 -0.038691 -0.047030 -0.010974 -0.112638 0.131510 -0.140143 0.003077 -0.048214 -0.096719 0.050958 -0.156691 -0.084251 -0.004499 -0.008122 0.130884
1 -0.062417 -0.246476 0.028392 0.027753 0.027060 -0.117036 0.071902 0.161505 0.161995 -0.015418 -0.036721 0.174026 0.014069 -0.159326 0.131391 -0.195309 -0.053720 -0.158973 0.015641 -0.047028 0.157920 -0.020328 0.106417 0.018457 0.064280 -0.027393 -0.106768 0.003109 0.013815 0.065366 -0.003603 0.094637 -0.074692 0.010269 -0.079780 -0.162322 0.154933 0.037310 -0.035254 -0.045378 -0.169831 0.019012 0.161741 0.174197 -0.193062 0.103988 0.032298 -0.038493 0.023744 0.107696 -0.173875 0.168409 0.020175 0.154780 -0.163152 -0.121358 -0.076082 0.074997 -0.029682 -0.043328 0.160019 -0.208005 0.013103 0.145715 -0.108714 -0.011505 -0.031411 0.073977 -0.012161 -0.237608 -0.101451 0.019630 -0.065513 -0.065011 0.187384 0.059992 0.099670 -0.036620 -0.047426 -0.180079 -0.028662 -0.060204 -0.027933 -0.075879 -0.216648 0.003510 0.150210 -0.028636 0.113448 0.022920 0.161328 -0.010518 0.157946 -0.008327 -0.172297 0.108890 -0.012057 -0.247261 0.101973 0.082914 -0.141909 0.057983 -0.206840 -0.052475 -0.039438 -0.004904 0.170647 0.067555 -0.035014 -0.122345 -0.014445 0.126832 -0.003930 -0.037480 -0.158274 0.035436 -0.087351 0.156792 -0.210402 -0.063102 -0.037220 -0.087680 0.171618 -0.250872 -0.212598 -0.091119 0.052996 0.169209
33 -0.111910 -0.299903 0.138910 0.056975 0.071582 -0.134267 0.123580 0.119798 0.076528 0.025059 -0.081395 0.198299 0.059659 -0.197891 0.051373 -0.260445 -0.025396 -0.185626 -0.008367 0.009349 0.218460 0.035052 0.204318 0.059211 0.026165 0.017612 -0.179863 0.080081 -0.014979 0.143192 -0.064739 0.228693 -0.103240 0.045813 -0.096318 -0.217545 0.218740 0.029788 -0.013397 -0.037587 -0.264526 0.048682 0.142242 0.210699 -0.163421 0.086039 -0.039203 -0.042528 -0.108966 0.097338 -0.103399 0.211654 0.054876 0.123527 -0.137665 -0.118088 -0.157257 0.042135 -0.092134 -0.028148 0.130040 -0.258012 -0.015514 0.134805 -0.005106 -0.096631 0.007830 0.052538 -0.027174 -0.147476 -0.050616 0.044378 -0.051977 -0.081604 0.071205 -0.007964 0.059277 -0.020157 -0.050173 -0.021256 0.040218 -0.145753 -0.007460 -0.096117 -0.161680 0.169116 0.003516 0.039184 0.028488 0.029060 0.040232 0.032747 0.082384 -0.045747 -0.089303 0.141570 -0.063663 -0.047172 0.086148 -0.043275 -0.204349 0.099023 -0.153575 -0.056812 0.017675 0.049587 0.211409 0.059448 -0.033432 -0.074125 -0.024661 -0.000354 -0.045186 -0.049041 -0.048936 -0.009363 -0.126155 0.134688 -0.151687 -0.003881 -0.047964 -0.107560 0.056464 -0.171393 -0.086564 -0.008169 -0.014969 0.141590
3 -0.093543 -0.268577 0.099931 0.039652 0.055211 -0.125315 0.100839 0.133338 0.093819 0.007440 -0.065108 0.177382 0.036475 -0.184445 0.076573 -0.237940 -0.028688 -0.168095 0.005646 -0.017777 0.181746 0.018542 0.155471 0.045304 0.042049 0.002186 -0.138459 0.060394 0.003847 0.112715 -0.043095 0.162695 -0.098423 0.039920 -0.082622 -0.190182 0.190395 0.033946 -0.013962 -0.036570 -0.216672 0.028393 0.147926 0.198868 -0.169855 0.085749 -0.006911 -0.046357 -0.060046 0.103942 -0.125138 0.181583 0.035929 0.143584 -0.152304 -0.121835 -0.124493 0.058262 -0.074155 -0.030527 0.130990 -0.228502 -0.009421 0.135385 -0.045550 -0.063095 -0.006810 0.060674 -0.022114 -0.189164 -0.072424 0.034912 -0.056550 -0.071915 0.119891 0.015437 0.084138 -0.028552 -0.043196 -0.083928 0.009447 -0.113781 -0.022075 -0.091514 -0.176170 0.107733 0.064206 0.010491 0.058519 0.024192 0.082412 0.014407 0.105750 -0.034197 -0.131344 0.126247 -0.053203 -0.121377 0.090586 0.009103 -0.180352 0.079506 -0.172485 -0.058418 -0.004733 0.035077 0.193764 0.062551 -0.037816 -0.096679 -0.017812 0.047550 -0.026001 -0.038140 -0.090680 0.008831 -0.110738 0.148351 -0.169041 -0.023570 -0.049242 -0.103984 0.094578 -0.203931 -0.135482 -0.035690 0.017322 0.150920
2 -0.058821 -0.231825 0.041415 0.028951 0.031507 -0.111315 0.072478 0.146267 0.127467 -0.011061 -0.041590 0.163465 0.020334 -0.155201 0.111436 -0.194300 -0.046632 -0.143696 0.012724 -0.035781 0.151329 -0.008829 0.109845 0.020801 0.049845 -0.019093 -0.105824 0.017695 0.013708 0.072476 -0.007508 0.098225 -0.080001 0.021526 -0.075937 -0.152463 0.155373 0.032974 -0.027326 -0.038666 -0.163054 0.023752 0.150717 0.167044 -0.177639 0.091630 0.020075 -0.040086 0.003593 0.097432 -0.150108 0.154104 0.027047 0.146999 -0.153538 -0.115086 -0.077831 0.069371 -0.041239 -0.037653 0.140115 -0.196416 0.007378 0.129724 -0.087621 -0.018928 -0.028817 0.061800 -0.016505 -0.217570 -0.091943 0.021887 -0.057427 -0.064132 0.162737 0.049672 0.090418 -0.033595 -0.043678 -0.146900 -0.019855 -0.073990 -0.029894 -0.073237 -0.189037 0.032831 0.124621 -0.019359 0.098391 0.019176 0.133692 -0.002540 0.134241 -0.020808 -0.157511 0.106211 -0.026265 -0.208080 0.088378 0.063869 -0.138577 0.056336 -0.184431 -0.054307 -0.033398 0.000766 0.172041 0.067220 -0.037804 -0.111397 -0.016911 0.104185 -0.007239 -0.036352 -0.135797 0.027484 -0.089120 0.147733 -0.191920 -0.052705 -0.038699 -0.090313 0.146871 -0.233507 -0.181074 -0.070834 0.047022 0.155506
4 -0.071399 -0.237113 0.062201 0.035425 0.042178 -0.116315 0.077036 0.139822 0.116763 -0.005072 -0.045721 0.168946 0.029110 -0.161663 0.095632 -0.204992 -0.039277 -0.154922 0.011674 -0.023219 0.161047 -0.000497 0.120812 0.027487 0.048489 -0.007792 -0.119313 0.032483 0.009432 0.083808 -0.023749 0.121002 -0.081873 0.023936 -0.078067 -0.166874 0.168652 0.035015 -0.022638 -0.037772 -0.181468 0.021642 0.148384 0.178837 -0.168169 0.085161 0.006358 -0.041396 -0.023626 0.095952 -0.136897 0.160864 0.029714 0.140137 -0.146235 -0.112517 -0.092670 0.062627 -0.049692 -0.041534 0.141218 -0.210840 0.004784 0.129627 -0.067569 -0.032260 -0.024239 0.063010 -0.017784 -0.199207 -0.081907 0.028076 -0.054416 -0.068889 0.144327 0.034176 0.086444 -0.026429 -0.045380 -0.114994 -0.005176 -0.089900 -0.021415 -0.075251 -0.178317 0.057466 0.101969 -0.009378 0.084006 0.021979 0.106520 0.001671 0.117126 -0.024248 -0.140606 0.111918 -0.036085 -0.170799 0.088506 0.038360 -0.154415 0.067375 -0.171515 -0.049296 -0.025440 0.017292 0.171791 0.065313 -0.036833 -0.102617 -0.014393 0.077355 -0.015969 -0.034804 -0.113907 0.022363 -0.096757 0.143433 -0.178058 -0.040886 -0.037786 -0.091108 0.117857 -0.219612 -0.162414 -0.056943 0.034387 0.152400
32 -0.101183 -0.280132 0.114147 0.050694 0.059182 -0.120581 0.116406 0.112888 0.079522 0.021579 -0.075147 0.188694 0.050173 -0.179784 0.055141 -0.241673 -0.024311 -0.181609 -0.008580 0.007964 0.200193 0.032066 0.179099 0.055721 0.029941 0.011630 -0.168893 0.070120 -0.015599 0.125841 -0.057464 0.200714 -0.088888 0.035187 -0.091101 -0.199789 0.208046 0.034387 -0.014563 -0.043088 -0.244973 0.046303 0.131829 0.197650 -0.161077 0.083156 -0.026729 -0.031212 -0.089712 0.087643 -0.100630 0.196784 0.045252 0.123341 -0.128864 -0.115030 -0.139515 0.038488 -0.084649 -0.033346 0.121913 -0.237423 -0.007064 0.134351 -0.022045 -0.084268 -0.002560 0.060478 -0.027312 -0.158341 -0.059393 0.046168 -0.052667 -0.081036 0.078211 -0.002776 0.055056 -0.020094 -0.051606 -0.032086 0.029318 -0.127549 -0.002663 -0.082184 -0.159393 0.145345 0.019831 0.036441 0.036300 0.021366 0.046524 0.026689 0.088674 -0.039999 -0.090085 0.127444 -0.050647 -0.062585 0.075206 -0.035926 -0.182809 0.091565 -0.154563 -0.059343 0.013104 0.050984 0.199422 0.052179 -0.036861 -0.070749 -0.021171 0.008680 -0.037567 -0.040794 -0.056083 -0.000582 -0.117379 0.133446 -0.137854 -0.007649 -0.047409 -0.105874 0.061247 -0.172175 -0.088834 -0.018718 -0.010660 0.143396
14 -0.078348 -0.263740 0.070860 0.035732 0.045338 -0.121353 0.086151 0.146804 0.127155 -0.000745 -0.054942 0.182370 0.025931 -0.175651 0.107647 -0.220301 -0.040596 -0.165785 0.010825 -0.030039 0.176417 0.004081 0.133531 0.034171 0.051238 -0.009621 -0.125645 0.033974 0.001395 0.097273 -0.021003 0.134225 -0.089099 0.027652 -0.080786 -0.181069 0.178657 0.037020 -0.027831 -0.039515 -0.199930 0.029969 0.157764 0.190983 -0.185399 0.099828 0.009604 -0.038576 -0.022080 0.110424 -0.149386 0.178370 0.030126 0.152387 -0.155998 -0.125411 -0.105597 0.069646 -0.055778 -0.044633 0.147090 -0.227815 0.008145 0.138833 -0.076852 -0.036476 -0.017233 0.061138 -0.016327 -0.211973 -0.088132 0.030435 -0.065815 -0.064768 0.154556 0.038718 0.086294 -0.032423 -0.047910 -0.130208 -0.007836 -0.085608 -0.020477 -0.075895 -0.196695 0.061146 0.103693 -0.007872 0.088384 0.021776 0.116839 0.001576 0.129785 -0.023277 -0.150116 0.121578 -0.035702 -0.176723 0.097270 0.042634 -0.160912 0.069653 -0.187327 -0.052129 -0.026984 0.015777 0.186803 0.067988 -0.039525 -0.109854 -0.021161 0.082160 -0.018499 -0.037790 -0.119586 0.022478 -0.103355 0.147162 -0.186893 -0.040823 -0.040554 -0.100774 0.132405 -0.230800 -0.167176 -0.063546 0.032309 0.157725
24 -0.106604 -0.291650 0.140991 0.058066 0.068989 -0.129194 0.122794 0.112405 0.071313 0.028998 -0.080544 0.193312 0.060587 -0.194743 0.044011 -0.261379 -0.020900 -0.187878 -0.003149 0.012701 0.211362 0.038573 0.198622 0.066802 0.029976 0.022010 -0.177371 0.077696 -0.021418 0.145639 -0.068731 0.222281 -0.104862 0.038057 -0.091164 -0.213682 0.221188 0.028101 -0.010113 -0.045378 -0.257677 0.050897 0.134258 0.211540 -0.158277 0.084869 -0.042450 -0.032261 -0.106662 0.094316 -0.090942 0.207045 0.045760 0.126132 -0.123307 -0.111599 -0.148675 0.041267 -0.096478 -0.033416 0.118960 -0.252111 -0.009377 0.132454 -0.009914 -0.098249 0.003885 0.056478 -0.031407 -0.141227 -0.049465 0.048662 -0.056719 -0.079677 0.067151 -0.016093 0.048164 -0.021457 -0.050461 -0.008860 0.040018 -0.137788 -0.002570 -0.084498 -0.156150 0.163684 -0.002762 0.048135 0.026793 0.026064 0.027700 0.029348 0.078719 -0.043714 -0.080725 0.137941 -0.058147 -0.035083 0.079496 -0.052052 -0.199921 0.106440 -0.141374 -0.057906 0.015978 0.060351 0.207118 0.056571 -0.034557 -0.064414 -0.020702 -0.009599 -0.045552 -0.041857 -0.047910 -0.012343 -0.125047 0.127369 -0.133988 0.003529 -0.049148 -0.109487 0.045731 -0.168334 -0.073271 -0.001585 -0.015289 0.140513
9 -0.099988 -0.290525 0.111317 0.048585 0.059750 -0.130004 0.115693 0.131040 0.099750 0.016399 -0.074908 0.199870 0.050626 -0.195967 0.068131 -0.253621 -0.033953 -0.182589 -0.002833 -0.001761 0.203412 0.025696 0.187549 0.050154 0.037296 0.009956 -0.165968 0.058864 -0.012021 0.129487 -0.049930 0.201815 -0.102288 0.032380 -0.087456 -0.208286 0.212471 0.031575 -0.020025 -0.040598 -0.248960 0.039260 0.149184 0.211659 -0.174522 0.089107 -0.020544 -0.043136 -0.079166 0.100212 -0.123484 0.205496 0.043639 0.137694 -0.140680 -0.124382 -0.142430 0.050731 -0.081148 -0.038215 0.137887 -0.250545 -0.009911 0.142217 -0.028657 -0.078819 -0.002107 0.059093 -0.025909 -0.172703 -0.064509 0.043345 -0.054412 -0.081424 0.104434 0.003187 0.065740 -0.020601 -0.054257 -0.055314 0.023932 -0.126798 -0.015060 -0.093855 -0.177932 0.130825 0.038886 0.026089 0.045080 0.029092 0.068522 0.019810 0.105170 -0.032227 -0.113717 0.130739 -0.048447 -0.092291 0.087256 -0.012888 -0.192640 0.089478 -0.168971 -0.060087 0.002418 0.039302 0.201358 0.063484 -0.040356 -0.086420 -0.018753 0.029123 -0.033206 -0.045853 -0.076082 -0.001373 -0.121443 0.147638 -0.165752 -0.010333 -0.050062 -0.105943 0.080972 -0.193037 -0.119167 -0.021576 0.004023 0.153032
8 -0.061338 -0.226436 0.044192 0.031538 0.028982 -0.106426 0.072042 0.137090 0.124917 -0.006313 -0.040673 0.155278 0.015586 -0.147906 0.109982 -0.188498 -0.040149 -0.142871 0.014418 -0.028790 0.145003 -0.007927 0.105080 0.016910 0.050858 -0.013588 -0.103726 0.018425 0.007851 0.074031 -0.011114 0.099340 -0.071273 0.019309 -0.075197 -0.152260 0.157079 0.034106 -0.025021 -0.032423 -0.162861 0.022810 0.138331 0.164588 -0.168345 0.093681 0.014474 -0.035080 -0.004541 0.096899 -0.144086 0.149694 0.029515 0.138849 -0.146883 -0.109510 -0.081088 0.060374 -0.041910 -0.040738 0.133033 -0.196088 0.010170 0.128536 -0.079683 -0.026869 -0.021992 0.059943 -0.012501 -0.207903 -0.088800 0.020474 -0.061798 -0.060933 0.154772 0.045826 0.078967 -0.030881 -0.043268 -0.137040 -0.011790 -0.073009 -0.025872 -0.069455 -0.186273 0.037677 0.119286 -0.014943 0.092200 0.016704 0.126601 -0.006969 0.127198 -0.017560 -0.144954 0.100191 -0.025620 -0.196098 0.084588 0.051045 -0.133819 0.055610 -0.184773 -0.048695 -0.025658 0.001418 0.165483 0.056665 -0.032784 -0.109442 -0.018935 0.098853 -0.008026 -0.034508 -0.132027 0.029305 -0.090574 0.136508 -0.179248 -0.050454 -0.037424 -0.090906 0.140637 -0.219924 -0.169075 -0.072056 0.042249 0.146960
7 -0.009743 -0.191791 -0.072961 0.029005 -0.016140 -0.091641 0.039988 0.185705 0.233423 -0.050132 0.010229 0.157459 -0.024641 -0.120936 0.204107 -0.132744 -0.082152 -0.144495 0.008999 -0.079646 0.112415 -0.069135 0.044644 -0.012050 0.103178 -0.076154 -0.075896 -0.086293 0.019084 0.009451 0.058067 -0.004479 -0.053467 -0.038235 -0.072205 -0.121022 0.131051 0.045696 -0.076086 -0.043797 -0.104891 0.017950 0.175107 0.144961 -0.223007 0.133586 0.094493 -0.027129 0.114301 0.109116 -0.210464 0.145893 -0.000011 0.158961 -0.162852 -0.122423 -0.011376 0.084500 0.033631 -0.057465 0.185301 -0.171249 0.056326 0.170126 -0.178934 0.047127 -0.062144 0.096329 0.015924 -0.303693 -0.130426 0.015435 -0.101715 -0.053227 0.284854 0.117620 0.103745 -0.041682 -0.055327 -0.283197 -0.065771 0.031589 -0.037266 -0.040735 -0.254285 -0.122117 0.254193 -0.063213 0.168821 0.025376 0.247996 -0.044115 0.217006 0.031237 -0.214941 0.093840 0.045620 -0.392293 0.107560 0.168098 -0.091051 0.036710 -0.261170 -0.043643 -0.092448 -0.061232 0.128963 0.062737 -0.012054 -0.154936 0.002018 0.241889 0.015098 -0.047891 -0.239315 0.075329 -0.070637 0.158931 -0.245327 -0.101216 -0.023160 -0.073515 0.280963 -0.313387 -0.310885 -0.156455 0.108143 0.201364
6 -0.027757 -0.216730 -0.036061 0.037032 0.000460 -0.100310 0.056881 0.179577 0.211508 -0.037324 -0.002384 0.167526 -0.012970 -0.134155 0.182670 -0.157983 -0.076582 -0.160340 0.012200 -0.068316 0.131939 -0.055117 0.070428 -0.004041 0.093776 -0.063031 -0.091541 -0.064041 0.015402 0.037129 0.037172 0.028484 -0.057539 -0.024963 -0.075266 -0.139802 0.149076 0.050570 -0.069436 -0.049129 -0.132540 0.024342 0.175791 0.154315 -0.221805 0.129582 0.075627 -0.032791 0.084298 0.112906 -0.196973 0.161322 0.004271 0.155518 -0.156353 -0.128437 -0.035809 0.079555 0.014210 -0.061366 0.183712 -0.187802 0.045995 0.166832 -0.154125 0.021316 -0.056775 0.088323 0.004282 -0.283100 -0.116614 0.016440 -0.094564 -0.056460 0.255542 0.095878 0.099660 -0.036671 -0.057885 -0.243922 -0.056683 0.004930 -0.028339 -0.050217 -0.239551 -0.081965 0.223961 -0.050261 0.149504 0.023962 0.218634 -0.031084 0.199976 0.022965 -0.198022 0.102021 0.029174 -0.344819 0.111624 0.134178 -0.105441 0.046159 -0.243621 -0.046631 -0.078072 -0.038296 0.146296 0.067686 -0.016988 -0.144787 -0.000187 0.204296 0.006807 -0.043414 -0.210705 0.066633 -0.075688 0.156783 -0.230314 -0.091503 -0.024817 -0.083801 0.248891 -0.300656 -0.282292 -0.131336 0.091336 0.188393
30 -0.085567 -0.263214 0.098614 0.046279 0.049567 -0.114454 0.104626 0.113779 0.085675 0.016738 -0.070981 0.176053 0.042941 -0.171752 0.061227 -0.228078 -0.026956 -0.165026 -0.004479 0.000702 0.184917 0.019744 0.165856 0.044950 0.035134 0.006538 -0.143900 0.057363 -0.013612 0.113669 -0.047236 0.173535 -0.087460 0.029281 -0.083417 -0.181810 0.187253 0.030178 -0.013298 -0.042156 -0.218995 0.038316 0.132126 0.190263 -0.152778 0.082969 -0.019419 -0.037242 -0.069872 0.092819 -0.108314 0.183304 0.042701 0.119047 -0.125762 -0.107615 -0.127853 0.046461 -0.071523 -0.032035 0.122520 -0.226396 -0.002249 0.125493 -0.025855 -0.069251 -0.005781 0.052865 -0.021318 -0.159237 -0.059093 0.036959 -0.050896 -0.073338 0.092295 0.003099 0.061398 -0.019884 -0.046728 -0.049487 0.015717 -0.114792 -0.013800 -0.079737 -0.159329 0.120198 0.033074 0.024248 0.042594 0.024525 0.062347 0.014227 0.092073 -0.030485 -0.097865 0.120020 -0.047597 -0.081959 0.078918 -0.015265 -0.166002 0.083604 -0.151224 -0.057727 0.001168 0.035350 0.185513 0.055322 -0.037792 -0.076442 -0.023015 0.021966 -0.034863 -0.041927 -0.065259 -0.000211 -0.110093 0.128468 -0.148404 -0.010142 -0.046762 -0.093613 0.073796 -0.173396 -0.100958 -0.022913 0.005675 0.137556
28 -0.102523 -0.288940 0.121673 0.051784 0.060475 -0.122735 0.116884 0.118289 0.085095 0.019951 -0.074297 0.195666 0.050432 -0.182368 0.058251 -0.249099 -0.027186 -0.185723 -0.001233 0.006008 0.199575 0.027140 0.183230 0.054506 0.033389 0.012650 -0.169359 0.066724 -0.014015 0.129378 -0.055153 0.205155 -0.093293 0.035421 -0.088164 -0.205261 0.209171 0.031900 -0.014212 -0.042378 -0.243698 0.040021 0.140115 0.205489 -0.165402 0.084082 -0.031013 -0.035636 -0.089276 0.095807 -0.111259 0.199677 0.048246 0.122301 -0.126116 -0.116423 -0.140861 0.041634 -0.085293 -0.035950 0.125773 -0.244613 -0.002942 0.133377 -0.022521 -0.081253 -0.002742 0.060371 -0.028491 -0.162695 -0.061841 0.045319 -0.059545 -0.082479 0.087172 -0.001617 0.056380 -0.018424 -0.055087 -0.037852 0.026472 -0.129562 -0.004859 -0.080586 -0.165648 0.142269 0.025564 0.035475 0.039438 0.026825 0.051471 0.020587 0.088389 -0.038434 -0.093386 0.127460 -0.050538 -0.070577 0.082862 -0.030141 -0.188936 0.098903 -0.158346 -0.061276 0.007736 0.046947 0.203734 0.060669 -0.033581 -0.078222 -0.022276 0.016657 -0.042367 -0.043695 -0.062108 -0.005715 -0.121108 0.132512 -0.150023 -0.012697 -0.046689 -0.101959 0.068249 -0.176161 -0.103319 -0.021732 -0.003151 0.146852
5 -0.040118 -0.222047 -0.010672 0.033347 0.014703 -0.103718 0.064042 0.157289 0.183975 -0.028762 -0.014229 0.166948 -0.003494 -0.135561 0.155138 -0.171558 -0.065116 -0.155148 0.007914 -0.050190 0.140394 -0.032415 0.082804 0.011555 0.077482 -0.047048 -0.097932 -0.036326 0.009010 0.045913 0.016524 0.056416 -0.065527 -0.009439 -0.071329 -0.145043 0.148881 0.043167 -0.052326 -0.040872 -0.137721 0.023636 0.156971 0.156388 -0.200378 0.114112 0.051892 -0.030473 0.049592 0.101491 -0.173177 0.159146 0.017119 0.141553 -0.146024 -0.120041 -0.048523 0.072043 -0.003799 -0.054343 0.159613 -0.192316 0.036372 0.153444 -0.128248 0.007264 -0.038712 0.076150 0.002364 -0.250849 -0.104891 0.019119 -0.082367 -0.063200 0.214556 0.072398 0.086826 -0.039457 -0.055299 -0.204274 -0.040567 -0.020816 -0.028630 -0.056584 -0.221159 -0.041684 0.180669 -0.030287 0.128858 0.023066 0.181573 -0.023460 0.171714 0.009784 -0.176257 0.101271 0.007512 -0.282924 0.103468 0.106910 -0.118851 0.052882 -0.217884 -0.050540 -0.061678 -0.025731 0.151549 0.060712 -0.026068 -0.128751 -0.010664 0.161251 0.000483 -0.044596 -0.178988 0.052756 -0.076994 0.148362 -0.204650 -0.071778 -0.028956 -0.081300 0.204879 -0.267140 -0.237795 -0.106194 0.066828 0.177480
29 -0.088060 -0.263840 0.090645 0.041541 0.053441 -0.122019 0.100024 0.123436 0.098716 0.010312 -0.061090 0.181807 0.038091 -0.175148 0.075864 -0.228534 -0.035923 -0.170026 0.005845 -0.011107 0.184237 0.012330 0.152190 0.041716 0.035992 -0.001296 -0.142300 0.045978 -0.002496 0.111884 -0.035685 0.163168 -0.086002 0.028498 -0.085860 -0.183860 0.191352 0.033005 -0.017575 -0.044428 -0.211470 0.036954 0.136731 0.184781 -0.162151 0.092157 -0.012972 -0.038679 -0.057880 0.098628 -0.122842 0.182233 0.035230 0.131230 -0.142051 -0.112407 -0.114527 0.054160 -0.066115 -0.034122 0.133074 -0.227219 -0.006261 0.130597 -0.046381 -0.062939 -0.014324 0.055948 -0.018010 -0.169777 -0.071882 0.033859 -0.059443 -0.068795 0.112050 0.018237 0.071934 -0.023376 -0.045441 -0.075348 0.007178 -0.103913 -0.010624 -0.084399 -0.169579 0.101951 0.059938 0.008696 0.056282 0.020045 0.078700 0.010216 0.103847 -0.027761 -0.112370 0.123201 -0.044564 -0.110091 0.084324 0.000208 -0.170741 0.082528 -0.162784 -0.053216 -0.004039 0.030274 0.182193 0.055872 -0.031796 -0.083807 -0.016224 0.044227 -0.031212 -0.041145 -0.088858 0.003317 -0.107648 0.132948 -0.156949 -0.023794 -0.043555 -0.096771 0.089237 -0.194246 -0.122988 -0.031917 0.010693 0.139316
31 -0.078128 -0.246281 0.085741 0.039437 0.045996 -0.116685 0.089912 0.122674 0.096513 0.007015 -0.055531 0.172475 0.038482 -0.168490 0.078000 -0.216946 -0.036215 -0.154240 0.006793 -0.016300 0.170947 0.009430 0.138341 0.041736 0.041125 0.000368 -0.127235 0.048845 -0.001959 0.098770 -0.036558 0.152092 -0.089494 0.030567 -0.075598 -0.171752 0.175154 0.029517 -0.015251 -0.041524 -0.200711 0.033213 0.139620 0.179875 -0.161653 0.084296 -0.006955 -0.040621 -0.046649 0.098728 -0.126692 0.175834 0.035391 0.131925 -0.138109 -0.115363 -0.109838 0.052166 -0.065897 -0.038678 0.132307 -0.215996 -0.006142 0.122209 -0.050294 -0.053139 -0.015512 0.054336 -0.022635 -0.176630 -0.070546 0.028296 -0.052159 -0.068094 0.117851 0.018872 0.076788 -0.027569 -0.041601 -0.083048 0.008736 -0.101375 -0.018867 -0.079856 -0.168167 0.087642 0.063537 0.004279 0.061270 0.020188 0.079496 0.013309 0.107713 -0.028304 -0.125524 0.114545 -0.041865 -0.126630 0.081793 0.017442 -0.163841 0.073104 -0.160207 -0.056287 -0.012125 0.025363 0.179637 0.060636 -0.033615 -0.088300 -0.020382 0.048068 -0.026135 -0.040148 -0.089946 0.012437 -0.104190 0.140414 -0.166131 -0.023685 -0.043749 -0.093802 0.095292 -0.198049 -0.132643 -0.037209 0.014470 0.142383
20 -0.070345 -0.243130 0.058579 0.036141 0.035374 -0.116862 0.083692 0.139055 0.118449 -0.004938 -0.047979 0.164955 0.029801 -0.160331 0.099163 -0.203126 -0.044273 -0.151220 0.006364 -0.029935 0.165219 -0.003355 0.127186 0.029919 0.049467 -0.008900 -0.115353 0.025139 0.005906 0.081567 -0.022574 0.120805 -0.079318 0.020884 -0.075124 -0.165097 0.170230 0.031088 -0.029145 -0.041410 -0.186350 0.024933 0.142127 0.174857 -0.170028 0.094046 0.012293 -0.037197 -0.017525 0.094362 -0.143504 0.166895 0.032784 0.132668 -0.145542 -0.113124 -0.093113 0.056326 -0.051045 -0.035095 0.142832 -0.205977 0.008059 0.133448 -0.072266 -0.035879 -0.020301 0.064053 -0.017185 -0.197950 -0.085025 0.029483 -0.062667 -0.067426 0.146265 0.039967 0.082805 -0.031383 -0.044746 -0.119099 -0.005688 -0.084891 -0.022397 -0.078715 -0.184701 0.057835 0.097482 -0.006598 0.080259 0.024546 0.117190 0.001188 0.125663 -0.021909 -0.138250 0.112130 -0.027801 -0.173362 0.087586 0.045132 -0.153941 0.062882 -0.182812 -0.045984 -0.023093 0.013995 0.173559 0.061931 -0.030157 -0.100483 -0.018246 0.084804 -0.016060 -0.037898 -0.119837 0.019198 -0.093981 0.142430 -0.179250 -0.040517 -0.038554 -0.087754 0.129235 -0.219629 -0.160738 -0.058510 0.029269 0.152167
26 -0.087695 -0.265017 0.101327 0.045462 0.055703 -0.120881 0.106096 0.117702 0.088756 0.012253 -0.066985 0.176361 0.045945 -0.173557 0.066874 -0.227478 -0.026695 -0.172818 -0.001556 0.000133 0.189991 0.020380 0.167550 0.049615 0.035109 0.002286 -0.155293 0.050322 -0.013116 0.118705 -0.042192 0.177179 -0.085962 0.024625 -0.089314 -0.192838 0.194964 0.030268 -0.019539 -0.041939 -0.222435 0.035781 0.132049 0.189101 -0.162967 0.091315 -0.023447 -0.032351 -0.070057 0.098217 -0.107453 0.188026 0.039394 0.121459 -0.128983 -0.112714 -0.120827 0.046948 -0.075474 -0.034717 0.126235 -0.229674 -0.000537 0.132476 -0.033609 -0.068026 -0.005048 0.055079 -0.020739 -0.163284 -0.063338 0.037742 -0.059188 -0.075463 0.100729 0.003644 0.055234 -0.022123 -0.049891 -0.059481 0.014862 -0.109075 -0.006377 -0.076530 -0.163258 0.117566 0.039947 0.023658 0.048289 0.023316 0.064386 0.015066 0.098565 -0.028039 -0.099382 0.119692 -0.044604 -0.092031 0.086036 -0.015629 -0.171009 0.088651 -0.155936 -0.052855 0.002374 0.037801 0.191824 0.056457 -0.027162 -0.076443 -0.023899 0.029985 -0.033146 -0.037498 -0.073858 0.002132 -0.108781 0.127023 -0.145094 -0.024382 -0.042791 -0.099827 0.078101 -0.186572 -0.110739 -0.025994 0.002351 0.138554
25 -0.095806 -0.278817 0.102624 0.047922 0.051517 -0.124337 0.106513 0.120369 0.100058 0.014984 -0.069610 0.185529 0.046246 -0.175902 0.069086 -0.243874 -0.028678 -0.183192 0.001736 0.003049 0.199410 0.019954 0.175356 0.054374 0.040202 0.002109 -0.158614 0.053658 -0.017067 0.123041 -0.045764 0.185788 -0.091127 0.024461 -0.092330 -0.196295 0.198471 0.035883 -0.021293 -0.045805 -0.235713 0.044607 0.137720 0.194965 -0.165701 0.094679 -0.019948 -0.029404 -0.069074 0.097659 -0.117881 0.198791 0.044891 0.130674 -0.135292 -0.117319 -0.125164 0.042811 -0.077067 -0.034387 0.128193 -0.236589 0.002677 0.134122 -0.038892 -0.075091 -0.008328 0.064110 -0.028705 -0.172487 -0.066483 0.038158 -0.058035 -0.077270 0.102148 0.001456 0.057214 -0.021893 -0.050592 -0.059473 0.020348 -0.119766 -0.008595 -0.084620 -0.175217 0.120412 0.043139 0.022902 0.047828 0.021331 0.063621 0.015560 0.104711 -0.036114 -0.107999 0.129935 -0.045074 -0.097038 0.087370 -0.014061 -0.185568 0.095300 -0.166611 -0.057161 0.002430 0.038306 0.200108 0.060699 -0.030871 -0.084546 -0.023296 0.031961 -0.034506 -0.045072 -0.082294 0.001763 -0.113886 0.135134 -0.156575 -0.020001 -0.044194 -0.099086 0.082206 -0.196605 -0.117344 -0.024571 0.000570 0.150060
11 -0.051331 -0.231662 0.008355 0.037758 0.019349 -0.110224 0.064388 0.164630 0.173771 -0.025519 -0.024003 0.169854 0.002699 -0.142858 0.149648 -0.183672 -0.060702 -0.156972 0.009014 -0.050405 0.147759 -0.029974 0.100743 0.011454 0.072015 -0.040325 -0.107124 -0.021399 0.007357 0.054498 0.013899 0.072115 -0.068502 -0.007486 -0.075343 -0.149345 0.163718 0.043187 -0.048776 -0.037543 -0.152885 0.027694 0.165140 0.167190 -0.201161 0.114232 0.046747 -0.029736 0.033388 0.107069 -0.168675 0.163018 0.018112 0.148335 -0.152329 -0.123212 -0.060254 0.075990 -0.020331 -0.048606 0.160396 -0.202639 0.032695 0.154924 -0.120025 -0.001244 -0.042386 0.076372 -0.000126 -0.249429 -0.101726 0.021856 -0.082076 -0.064625 0.210923 0.071629 0.090031 -0.038235 -0.054296 -0.189667 -0.029313 -0.032384 -0.028283 -0.062821 -0.220413 -0.017357 0.171154 -0.028072 0.123628 0.024206 0.167700 -0.021181 0.166015 0.005174 -0.169565 0.103721 0.003970 -0.267390 0.099572 0.095353 -0.124959 0.061246 -0.217799 -0.048062 -0.053646 -0.017422 0.163298 0.060768 -0.023669 -0.129296 -0.010334 0.154548 -0.007363 -0.044193 -0.170406 0.042765 -0.091173 0.153079 -0.209567 -0.071652 -0.031274 -0.091120 0.198326 -0.267049 -0.228439 -0.104801 0.061777 0.176775
13 -0.069124 -0.245752 0.060571 0.033871 0.038092 -0.116173 0.083594 0.138896 0.125013 -0.002115 -0.048363 0.166243 0.026604 -0.165181 0.103772 -0.206403 -0.044308 -0.157700 0.007514 -0.031572 0.167551 -0.002522 0.123092 0.029903 0.046643 -0.013802 -0.117139 0.027247 0.006187 0.087172 -0.021476 0.124714 -0.082376 0.018325 -0.078190 -0.170957 0.174389 0.039166 -0.027897 -0.039293 -0.183221 0.026950 0.148831 0.179509 -0.175720 0.098858 0.012763 -0.037712 -0.019613 0.102950 -0.145322 0.172066 0.031312 0.143408 -0.150965 -0.119804 -0.097087 0.058958 -0.046227 -0.040938 0.143963 -0.209529 0.003965 0.132595 -0.071603 -0.038818 -0.024139 0.061170 -0.011826 -0.208645 -0.086691 0.026214 -0.062913 -0.069013 0.152167 0.034532 0.081250 -0.031513 -0.049957 -0.127862 -0.007443 -0.084290 -0.023185 -0.078325 -0.193048 0.053252 0.107433 -0.009064 0.080457 0.027151 0.121029 -0.001721 0.125609 -0.023328 -0.142038 0.111610 -0.029107 -0.183250 0.089692 0.043646 -0.151349 0.068143 -0.185571 -0.050789 -0.025390 0.008137 0.180674 0.061075 -0.032729 -0.110124 -0.011505 0.086135 -0.016835 -0.035904 -0.124949 0.018415 -0.100547 0.147124 -0.181067 -0.046227 -0.038031 -0.090887 0.137004 -0.221204 -0.170063 -0.058935 0.035906 0.157733
21 -0.090520 -0.257677 0.095218 0.039072 0.047293 -0.118573 0.100015 0.120142 0.095767 0.015225 -0.063546 0.177671 0.042221 -0.175534 0.071046 -0.224952 -0.032425 -0.167337 0.001990 -0.008196 0.187068 0.015867 0.157670 0.047313 0.038650 0.002549 -0.143436 0.052320 -0.006130 0.109635 -0.040238 0.169221 -0.087686 0.031198 -0.085861 -0.187428 0.186357 0.033426 -0.015636 -0.039133 -0.221240 0.039778 0.134232 0.185196 -0.162863 0.087542 -0.012250 -0.035842 -0.058172 0.093968 -0.113840 0.184913 0.042512 0.124979 -0.136272 -0.110968 -0.121431 0.044363 -0.072418 -0.030424 0.127415 -0.224299 -0.003611 0.131211 -0.033191 -0.065101 -0.007650 0.054181 -0.024547 -0.171623 -0.061990 0.030750 -0.052617 -0.071233 0.106475 0.011827 0.065560 -0.027403 -0.045682 -0.064311 0.013665 -0.108943 -0.013891 -0.085618 -0.170364 0.105769 0.046913 0.014383 0.055038 0.021552 0.075823 0.017485 0.097856 -0.027290 -0.111490 0.120045 -0.044897 -0.101296 0.082787 -0.002939 -0.170357 0.077922 -0.158787 -0.049976 0.001771 0.033686 0.182451 0.053459 -0.034056 -0.084095 -0.015028 0.040731 -0.030982 -0.039019 -0.081286 0.008908 -0.109571 0.133750 -0.154673 -0.016010 -0.043283 -0.095599 0.085735 -0.189949 -0.114921 -0.029808 0.011157 0.138245
18 -0.063730 -0.237123 0.044828 0.030600 0.035678 -0.113851 0.071871 0.143641 0.132300 -0.003781 -0.044316 0.168083 0.023510 -0.157033 0.110939 -0.201372 -0.046113 -0.149064 0.008054 -0.028163 0.160310 -0.006607 0.119649 0.025014 0.055251 -0.012078 -0.110268 0.018686 0.009600 0.077897 -0.013529 0.111190 -0.077574 0.020787 -0.073951 -0.162257 0.159135 0.034013 -0.026466 -0.034003 -0.172625 0.028026 0.143584 0.170009 -0.175857 0.097481 0.012437 -0.036298 -0.003919 0.097242 -0.146989 0.157261 0.030096 0.144949 -0.148622 -0.110611 -0.084199 0.061825 -0.044043 -0.041207 0.142277 -0.207545 0.009976 0.133181 -0.078436 -0.025226 -0.021905 0.060835 -0.008790 -0.205159 -0.089449 0.023506 -0.058573 -0.068223 0.160538 0.045942 0.088454 -0.029698 -0.043269 -0.138860 -0.017219 -0.071237 -0.023025 -0.077950 -0.194609 0.039590 0.119534 -0.013354 0.089602 0.024619 0.127677 -0.006442 0.134817 -0.021168 -0.153245 0.109835 -0.027849 -0.191689 0.092855 0.052017 -0.144412 0.065127 -0.185167 -0.050036 -0.028471 0.005589 0.167656 0.058796 -0.034887 -0.112896 -0.019738 0.094613 -0.014689 -0.039076 -0.129313 0.024016 -0.092550 0.140618 -0.182314 -0.048761 -0.038712 -0.094519 0.140258 -0.227883 -0.172746 -0.072983 0.036841 0.152571
27 -0.093790 -0.275470 0.115509 0.042391 0.061670 -0.118295 0.111135 0.116512 0.073538 0.020661 -0.075468 0.178575 0.049148 -0.174222 0.053118 -0.239580 -0.021033 -0.171392 -0.002946 -0.002458 0.196049 0.031308 0.176261 0.058663 0.029514 0.011223 -0.158816 0.071530 -0.015508 0.124159 -0.055230 0.190083 -0.094917 0.033397 -0.079283 -0.195693 0.192247 0.025533 -0.012626 -0.042316 -0.234030 0.038824 0.129722 0.194528 -0.149348 0.083374 -0.025216 -0.036311 -0.085006 0.094626 -0.098396 0.190657 0.041188 0.124483 -0.126191 -0.112901 -0.135854 0.044473 -0.078661 -0.029255 0.116875 -0.227213 -0.011240 0.122391 -0.017488 -0.076855 -0.001736 0.054753 -0.026232 -0.148230 -0.059064 0.043171 -0.049449 -0.079902 0.076751 -0.007640 0.060972 -0.024941 -0.049991 -0.034346 0.023342 -0.124350 -0.008489 -0.078015 -0.158790 0.137263 0.022278 0.029375 0.030836 0.026668 0.042649 0.018117 0.083955 -0.036379 -0.094989 0.123686 -0.051176 -0.063518 0.081505 -0.029987 -0.182231 0.088723 -0.138253 -0.058278 0.010598 0.046203 0.193139 0.052118 -0.038101 -0.067695 -0.020127 0.008229 -0.039100 -0.041871 -0.053051 -0.007520 -0.111490 0.127628 -0.142904 -0.007374 -0.047538 -0.093274 0.060471 -0.167968 -0.091300 -0.011420 -0.004825 0.133288
10 -0.094103 -0.284474 0.102928 0.047250 0.059553 -0.125177 0.109765 0.133277 0.104744 0.008849 -0.066574 0.193587 0.042733 -0.183960 0.074649 -0.241940 -0.031272 -0.174246 0.000769 -0.007713 0.199239 0.017809 0.170725 0.052875 0.037090 0.003239 -0.153137 0.054342 -0.007984 0.117984 -0.048094 0.179187 -0.094299 0.036905 -0.092032 -0.199648 0.203943 0.028132 -0.021184 -0.045581 -0.233268 0.036050 0.150881 0.205297 -0.168915 0.096759 -0.013199 -0.040711 -0.062181 0.099902 -0.126214 0.196759 0.045464 0.136776 -0.147486 -0.119027 -0.126947 0.050239 -0.080156 -0.033722 0.137913 -0.240823 -0.009292 0.137244 -0.041327 -0.066549 -0.010371 0.056690 -0.026968 -0.181343 -0.068573 0.034269 -0.054220 -0.076804 0.114542 0.014087 0.070925 -0.027991 -0.052330 -0.072603 0.011657 -0.120129 -0.013697 -0.083555 -0.181788 0.116658 0.049560 0.013764 0.055119 0.023253 0.079036 0.015769 0.110043 -0.031063 -0.117593 0.130379 -0.048572 -0.113698 0.089622 0.001110 -0.184446 0.085665 -0.168669 -0.056412 -0.004395 0.033271 0.203282 0.066031 -0.038713 -0.086591 -0.018089 0.034431 -0.029880 -0.044886 -0.084056 0.002674 -0.113442 0.145068 -0.168119 -0.025865 -0.046178 -0.103944 0.090778 -0.198366 -0.121535 -0.034130 0.005588 0.150883
16 -0.104557 -0.291792 0.124754 0.049566 0.061846 -0.131884 0.120519 0.123546 0.087475 0.021356 -0.081869 0.198592 0.052253 -0.190781 0.063430 -0.258901 -0.032596 -0.190627 -0.005116 -0.002376 0.208883 0.029127 0.191748 0.055446 0.036544 0.013561 -0.166205 0.070322 -0.014023 0.128926 -0.060294 0.210106 -0.103595 0.033382 -0.089939 -0.209737 0.217366 0.028041 -0.016457 -0.048285 -0.256549 0.045488 0.148512 0.213327 -0.166276 0.087205 -0.024993 -0.037821 -0.091937 0.107116 -0.113447 0.208158 0.048158 0.136386 -0.139939 -0.121981 -0.147444 0.049493 -0.085965 -0.038821 0.137908 -0.258655 -0.011246 0.134599 -0.021289 -0.084856 -0.001357 0.063044 -0.028930 -0.169231 -0.059954 0.038944 -0.054434 -0.084490 0.096385 -0.003104 0.070848 -0.024975 -0.053211 -0.043371 0.030617 -0.137636 -0.008925 -0.095068 -0.172544 0.149431 0.028112 0.033570 0.043083 0.028788 0.053041 0.024926 0.091288 -0.038127 -0.106972 0.139654 -0.052197 -0.078035 0.085382 -0.029416 -0.193510 0.098582 -0.157229 -0.063028 0.004686 0.043572 0.204729 0.060421 -0.034371 -0.078667 -0.023847 0.021021 -0.044086 -0.041562 -0.065343 -0.001555 -0.124048 0.146763 -0.159445 -0.011752 -0.050847 -0.103317 0.068413 -0.191325 -0.104406 -0.015497 -0.001962 0.154531
23 -0.083523 -0.264798 0.080747 0.043252 0.047179 -0.118669 0.097068 0.138449 0.114333 0.004298 -0.061339 0.183399 0.036767 -0.177959 0.085118 -0.225803 -0.037909 -0.168351 0.005250 -0.013038 0.183318 0.008339 0.149687 0.044468 0.046104 -0.004490 -0.145495 0.039434 -0.007274 0.107548 -0.034976 0.159252 -0.090520 0.025794 -0.088335 -0.189520 0.190918 0.031596 -0.026030 -0.041024 -0.215398 0.035594 0.149950 0.194241 -0.172750 0.093401 -0.004758 -0.034676 -0.047963 0.101489 -0.131549 0.186225 0.039726 0.136449 -0.145992 -0.123910 -0.118005 0.055872 -0.064087 -0.041439 0.139848 -0.231608 0.004440 0.139077 -0.052565 -0.055803 -0.011269 0.066076 -0.019351 -0.189668 -0.075894 0.034637 -0.056966 -0.073519 0.125177 0.022682 0.077756 -0.027706 -0.046872 -0.092990 0.010042 -0.103875 -0.013880 -0.082040 -0.187260 0.092465 0.072550 0.009641 0.065020 0.022777 0.094728 0.011139 0.113743 -0.027253 -0.132937 0.121415 -0.036874 -0.142180 0.089070 0.019703 -0.172041 0.079038 -0.174186 -0.059773 -0.012790 0.021395 0.188143 0.059877 -0.032901 -0.095014 -0.022602 0.057563 -0.027491 -0.045288 -0.102162 0.011651 -0.110676 0.146304 -0.173485 -0.030103 -0.042123 -0.096598 0.107917 -0.213266 -0.142447 -0.048549 0.018690 0.154413
15 -0.099875 -0.274935 0.119751 0.043824 0.060711 -0.115328 0.112269 0.110152 0.078725 0.019028 -0.071909 0.181252 0.050527 -0.175361 0.054867 -0.238281 -0.027190 -0.174097 -0.006410 0.000379 0.198404 0.030643 0.178284 0.057076 0.027718 0.013548 -0.162078 0.066531 -0.014678 0.121901 -0.057065 0.197699 -0.088734 0.034254 -0.083573 -0.194065 0.192546 0.026127 -0.008470 -0.037352 -0.235145 0.040752 0.128613 0.192796 -0.148681 0.084373 -0.033272 -0.034372 -0.085963 0.089328 -0.099474 0.188776 0.044251 0.120538 -0.126491 -0.112372 -0.138699 0.038396 -0.080593 -0.027181 0.120635 -0.227721 -0.006301 0.120696 -0.015926 -0.074171 0.003453 0.051898 -0.022892 -0.142331 -0.052089 0.038232 -0.048325 -0.079210 0.074224 -0.005199 0.057237 -0.021902 -0.051871 -0.036950 0.027386 -0.120041 -0.006566 -0.082712 -0.158217 0.134450 0.015634 0.029205 0.034533 0.027266 0.046866 0.024656 0.086040 -0.038669 -0.093912 0.125738 -0.048846 -0.055779 0.079871 -0.025371 -0.175136 0.088995 -0.144549 -0.053895 0.012220 0.040598 0.191797 0.054870 -0.034171 -0.072579 -0.022500 0.008104 -0.039739 -0.044613 -0.057383 -0.002519 -0.108970 0.128489 -0.142048 -0.004310 -0.041850 -0.099160 0.062612 -0.161901 -0.091621 -0.014585 -0.004755 0.135070
17 -0.027029 -0.203399 -0.035928 0.036319 -0.006753 -0.098986 0.055513 0.170327 0.203438 -0.032011 -0.002406 0.163018 -0.009819 -0.124419 0.169720 -0.144633 -0.072250 -0.152286 0.005857 -0.059855 0.123498 -0.054653 0.070425 -0.006272 0.090383 -0.055302 -0.088791 -0.058521 0.015965 0.034373 0.037599 0.029191 -0.055905 -0.024988 -0.075107 -0.136419 0.148189 0.047731 -0.064753 -0.039471 -0.128116 0.018638 0.162193 0.154031 -0.211217 0.119751 0.073559 -0.026117 0.073562 0.106784 -0.189609 0.149971 0.008078 0.143394 -0.150109 -0.123188 -0.040400 0.081394 0.014707 -0.059507 0.173479 -0.183515 0.045911 0.160158 -0.145505 0.023372 -0.051560 0.084973 0.009088 -0.268792 -0.116797 0.018022 -0.090009 -0.059202 0.246254 0.097751 0.090900 -0.039697 -0.052462 -0.235371 -0.046333 0.001609 -0.026708 -0.047646 -0.235928 -0.071036 0.214160 -0.046875 0.147103 0.021978 0.203779 -0.030397 0.188239 0.023896 -0.190660 0.096636 0.031181 -0.323010 0.103869 0.131122 -0.101371 0.043501 -0.238480 -0.043051 -0.071674 -0.041080 0.140226 0.056310 -0.019378 -0.134307 -0.002425 0.197079 0.010848 -0.041935 -0.201113 0.061266 -0.078246 0.157096 -0.221226 -0.087288 -0.022662 -0.075921 0.238681 -0.281035 -0.270086 -0.128617 0.084732 0.187646
19 -0.088558 -0.274312 0.108677 0.042204 0.054946 -0.119429 0.106288 0.119670 0.093373 0.015517 -0.073010 0.186180 0.044561 -0.177719 0.064919 -0.234303 -0.032940 -0.175428 0.002320 -0.001269 0.192908 0.018640 0.168391 0.052773 0.035791 0.010251 -0.153846 0.058399 -0.012067 0.116125 -0.047307 0.183665 -0.091161 0.027725 -0.084445 -0.192060 0.188893 0.031033 -0.012823 -0.039915 -0.226657 0.037637 0.137046 0.192725 -0.156862 0.087245 -0.017028 -0.039060 -0.071145 0.098000 -0.114790 0.188850 0.037858 0.126823 -0.129956 -0.112702 -0.132608 0.050388 -0.070808 -0.035576 0.126981 -0.234260 -0.002486 0.132225 -0.031622 -0.072301 -0.001228 0.055201 -0.025468 -0.164508 -0.062403 0.037888 -0.052809 -0.074361 0.093180 0.001467 0.066924 -0.022038 -0.051785 -0.059528 0.017828 -0.114654 -0.010188 -0.084472 -0.168559 0.118701 0.041046 0.024543 0.043186 0.023692 0.062708 0.020569 0.099221 -0.030565 -0.108334 0.126203 -0.046234 -0.088258 0.082604 -0.014175 -0.172719 0.087299 -0.156338 -0.059125 0.000411 0.036885 0.188563 0.056613 -0.036320 -0.079307 -0.022648 0.027070 -0.032932 -0.043614 -0.068904 0.003337 -0.106001 0.136820 -0.155445 -0.010688 -0.045877 -0.097491 0.075541 -0.183550 -0.112539 -0.024157 0.000445 0.138216
22 -0.063138 -0.226777 0.055940 0.030669 0.035582 -0.108952 0.073638 0.126215 0.106635 -0.003578 -0.047950 0.155677 0.026781 -0.151159 0.093761 -0.191110 -0.039549 -0.142358 0.013282 -0.020930 0.152222 -0.000859 0.117836 0.026573 0.040550 -0.005442 -0.108805 0.024597 0.007594 0.080726 -0.019281 0.110608 -0.078574 0.021978 -0.073784 -0.158125 0.155034 0.030314 -0.023567 -0.038762 -0.168017 0.020524 0.132786 0.167962 -0.158186 0.088997 0.003982 -0.033517 -0.015550 0.091382 -0.134154 0.151938 0.024676 0.130525 -0.134795 -0.107060 -0.086456 0.061510 -0.045577 -0.039424 0.131090 -0.194426 0.005805 0.126071 -0.067074 -0.031927 -0.023039 0.058771 -0.010972 -0.184563 -0.080604 0.026555 -0.054642 -0.063954 0.138383 0.035314 0.075043 -0.025891 -0.038542 -0.114360 -0.010035 -0.081422 -0.018006 -0.076533 -0.172951 0.051526 0.097584 -0.010594 0.079655 0.020241 0.107496 -0.000493 0.115751 -0.025319 -0.133449 0.104381 -0.031406 -0.160595 0.085415 0.034775 -0.141069 0.062824 -0.164937 -0.046312 -0.019298 0.015574 0.164373 0.060053 -0.033472 -0.096499 -0.014644 0.076009 -0.012343 -0.030705 -0.111081 0.018891 -0.092769 0.134269 -0.170336 -0.039866 -0.035926 -0.089125 0.119016 -0.206045 -0.149822 -0.055591 0.032437 0.141779
12 -0.068160 -0.234388 0.048805 0.031545 0.031673 -0.108424 0.074249 0.129682 0.121184 -0.002978 -0.038054 0.165142 0.019989 -0.147905 0.103647 -0.190214 -0.046018 -0.149264 0.008496 -0.031221 0.157288 -0.000868 0.120452 0.024761 0.046978 -0.017459 -0.112837 0.018256 0.003855 0.077104 -0.013039 0.113336 -0.078735 0.016207 -0.072600 -0.154457 0.158619 0.036797 -0.028579 -0.034229 -0.171353 0.027815 0.141286 0.163929 -0.169505 0.096831 0.015533 -0.034380 -0.013998 0.091741 -0.136485 0.161048 0.026486 0.128009 -0.140461 -0.112669 -0.083819 0.058126 -0.041518 -0.035774 0.136590 -0.195848 0.008736 0.133242 -0.077256 -0.029462 -0.018734 0.061191 -0.007878 -0.193453 -0.076246 0.028245 -0.060593 -0.063148 0.148095 0.038025 0.079832 -0.025944 -0.045734 -0.119835 -0.010890 -0.068197 -0.024321 -0.071977 -0.185102 0.045196 0.103941 -0.007788 0.080565 0.019179 0.115825 0.000828 0.123772 -0.017403 -0.134098 0.104085 -0.020091 -0.179871 0.088313 0.043789 -0.143759 0.060557 -0.176456 -0.047633 -0.025065 0.003707 0.164420 0.056479 -0.026130 -0.105229 -0.018247 0.088675 -0.015123 -0.035537 -0.117838 0.027251 -0.091490 0.137574 -0.175525 -0.045574 -0.037804 -0.090155 0.134338 -0.210589 -0.164022 -0.062464 0.030701 0.148273
