173 128
27 -0.130202 -0.155167 -0.020929 -0.080399 -0.013979 -0.083125 -0.001956 -0.069049 0.159019 -0.057861 -0.129221 0.164787 -0.018790 0.007461 0.062466 -0.246839 0.104611 0.124169 -0.062470 0.049625 -0.042327 0.112747 0.080971 0.018768 0.016710 0.026549 0.013555 -0.025424 -0.071785 -0.034245 0.199652 -0.052503 0.034964 -0.015364 0.004085 0.149493 0.027972 -0.149114 0.013341 -0.003592 -0.084051 0.140638 -0.003854 -0.124177 -0.093849 -0.090040 0.003047 -0.024448 0.080073 -0.031292 -0.310508 0.011481 0.130399 0.228148 -0.123458 -0.125040 -0.144948 0.145939 0.026540 0.037992 -0.055474 -0.166955 -0.073757 0.044599 -0.030857 -0.031410 -0.117565 0.055545 -0.240214 0.076027 0.029943 -0.023951 0.088623 -0.211328 -0.036134 -0.023987 0.139896 0.054875 0.095857 -0.190022 -0.044089 -0.047020 -0.078061 0.035716 0.046148 0.081347 0.153342 -0.016980 -0.037026 0.059350 0.100715 -0.005575 -0.080746 -0.037490 -0.125193 0.063922 0.168311 -0.291250 -0.020879 -0.030455 0.072180 -0.073094 -0.060378 -0.116679 0.157348 -0.137732 0.161939 0.052469 -0.154193 -0.115873 -0.097982 0.127991 0.033036 -0.001445 -0.134517 0.075846 -0.047010 0.098564 -0.089721 -0.222036 0.036007 0.116493 0.103425 -0.000402 -0.104238 0.019517 0.018203 0.024192
57 -0.130709 -0.161622 -0.015281 -0.093767 -0.021966 -0.085723 -0.014744 -0.080320 0.164092 -0.054609 -0.124612 0.165938 -0.010445 0.012002 0.060533 -0.253886 0.085614 0.134278 -0.060896 0.052058 -0.055838 0.105427 0.089696 0.008975 0.013166 0.030414 0.013537 -0.024388 -0.064859 -0.047050 0.193412 -0.046069 0.038140 -0.007387 -0.002212 0.164592 0.023858 -0.152592 0.014918 0.006227 -0.075276 0.139419 0.001208 -0.132480 -0.094545 -0.078118 -0.003269 -0.025788 0.088416 -0.031593 -0.328335 0.007938 0.135961 0.216356 -0.135438 -0.134775 -0.145693 0.154234 0.021478 0.045047 -0.047980 -0.167885 -0.078706 0.041838 -0.028362 -0.034919 -0.109962 0.042394 -0.232374 0.092582 0.044830 -0.027980 0.101056 -0.213976 -0.019335 -0.030278 0.138174 0.056107 0.103499 -0.191264 -0.032860 -0.029820 -0.083903 0.031299 0.053899 0.079204 0.147276 -0.029977 -0.033845 0.071721 0.111916 0.013973 -0.089916 -0.026648 -0.130760 0.067255 0.176661 -0.285109 -0.015557 -0.028817 0.087620 -0.071028 -0.071190 -0.111894 0.152789 -0.137108 0.155975 0.067434 -0.149708 -0.120511 -0.101717 0.130231 0.027939 0.006564 -0.144341 0.091622 -0.034847 0.105505 -0.103342 -0.219361 0.047093 0.111838 0.092879 0.017858 -0.103216 0.021160 0.014693 0.026647
87 -0.096756 -0.107247 -0.005843 -0.050018 -0.013374 -0.060442 -0.002139 -0.053855 0.119018 -0.044388 -0.084362 0.119570 -0.011206 0.002105 0.051842 -0.169108 0.062298 0.087808 -0.042390 0.037868 -0.024709 0.072574 0.045959 0.009999 0.012586 0.021718 0.010451 -0.027011 -0.046360 -0.034310 0.144448 -0.032229 0.020568 -0.011446 0.009056 0.109420 0.023852 -0.093302 0.010844 0.001985 -0.053480 0.097663 -0.012225 -0.081955 -0.064422 -0.065375 -0.008222 -0.024417 0.057938 -0.029784 -0.222411 0.002536 0.091338 0.149174 -0.085800 -0.085230 -0.088897 0.093986 0.016449 0.026807 -0.035940 -0.123368 -0.045213 0.031636 -0.020830 -0.020873 -0.078890 0.034245 -0.162362 0.055691 0.031860 -0.022864 0.058387 -0.137233 -0.014914 -0.021326 0.097793 0.037266 0.064533 -0.140317 -0.036142 -0.029937 -0.059382 0.022254 0.033311 0.054849 0.099908 -0.011600 -0.014684 0.046830 0.077484 -0.003444 -0.057790 -0.020133 -0.083158 0.041007 0.121477 -0.197216 -0.019245 -0.017926 0.059891 -0.057792 -0.043582 -0.076141 0.101807 -0.104559 0.100660 0.036517 -0.099836 -0.085666 -0.072368 0.091820 0.020453 0.000448 -0.100005 0.057463 -0.034181 0.069856 -0.060258 -0.149306 0.023508 0.081745 0.065465 -0.002750 -0.076729 0.014833 0.018405 0.014075
32 -0.124119 -0.144092 -0.020302 -0.070805 -0.012804 -0.080706 -0.000901 -0.069199 0.149515 -0.055654 -0.119547 0.158227 -0.017095 0.003933 0.060381 -0.226179 0.093374 0.117814 -0.062103 0.051848 -0.043048 0.105107 0.073180 0.011039 0.011598 0.027291 0.015946 -0.023970 -0.063862 -0.036618 0.185907 -0.048245 0.038781 -0.008456 -0.002789 0.141092 0.031313 -0.136401 0.013309 -0.004410 -0.077242 0.133300 -0.004320 -0.119418 -0.091207 -0.087368 0.001898 -0.022040 0.073633 -0.034544 -0.293358 0.009355 0.123557 0.210505 -0.118404 -0.115390 -0.135924 0.136698 0.022075 0.032547 -0.047936 -0.158853 -0.071474 0.044712 -0.032114 -0.032103 -0.109183 0.050843 -0.222462 0.069874 0.028327 -0.021918 0.082733 -0.195064 -0.034296 -0.017340 0.126608 0.052979 0.092089 -0.179873 -0.040221 -0.043105 -0.069413 0.029893 0.045996 0.078802 0.140690 -0.013668 -0.029578 0.053073 0.099007 0.001268 -0.073449 -0.036948 -0.114365 0.057650 0.157991 -0.270504 -0.026795 -0.028550 0.074530 -0.071707 -0.062218 -0.107833 0.146740 -0.127866 0.148458 0.048382 -0.145365 -0.111795 -0.093640 0.119663 0.034303 0.004254 -0.124621 0.074922 -0.043426 0.095435 -0.078611 -0.210028 0.034878 0.103713 0.092409 0.003741 -0.093060 0.013449 0.012946 0.024983
200 -0.139313 -0.148660 -0.012373 -0.077139 -0.022173 -0.097490 -0.005069 -0.064134 0.168329 -0.073336 -0.125765 0.163063 -0.012576 -0.014347 0.061817 -0.251441 0.094847 0.133252 -0.062358 0.053322 -0.032895 0.103912 0.084373 0.016065 0.007054 0.037243 0.014879 -0.042206 -0.082414 -0.037437 0.207731 -0.043306 0.039173 -0.004239 -0.005073 0.150446 0.023832 -0.147235 0.016020 -0.007256 -0.063220 0.155095 -0.008599 -0.136773 -0.101128 -0.105059 -0.009441 -0.022585 0.088214 -0.025739 -0.312084 0.001212 0.142883 0.233211 -0.122448 -0.119976 -0.146999 0.139068 0.018424 0.019555 -0.057204 -0.171072 -0.069913 0.040750 -0.042571 -0.023576 -0.116428 0.056220 -0.241399 0.085565 0.024945 -0.019372 0.095344 -0.206370 -0.026278 -0.027332 0.148518 0.049549 0.090571 -0.195619 -0.035647 -0.037084 -0.074389 0.030601 0.059288 0.081746 0.154810 -0.015211 -0.034958 0.071107 0.112415 -0.008162 -0.077677 -0.035325 -0.125890 0.067781 0.176319 -0.291650 -0.033356 -0.017883 0.096347 -0.065315 -0.053552 -0.103293 0.168707 -0.148848 0.152902 0.053944 -0.152570 -0.123747 -0.102373 0.124293 0.033937 -0.000512 -0.137008 0.074136 -0.044323 0.101417 -0.086162 -0.217942 0.044323 0.111790 0.089739 0.005310 -0.110954 0.021574 0.010878 0.014430
12 -0.116924 -0.141839 -0.011521 -0.077791 -0.021007 -0.077391 -0.012169 -0.071498 0.138538 -0.047147 -0.102853 0.146701 -0.012010 0.009433 0.054653 -0.213434 0.071941 0.116348 -0.047689 0.043413 -0.045891 0.094547 0.076553 0.007483 0.010555 0.022119 0.015769 -0.024083 -0.057654 -0.038062 0.171570 -0.039263 0.028968 -0.008271 -0.001414 0.140717 0.024295 -0.126414 0.013144 0.004432 -0.068673 0.121147 -0.000911 -0.113128 -0.081259 -0.067275 -0.002460 -0.021971 0.070329 -0.029889 -0.280414 0.006479 0.118677 0.183221 -0.117143 -0.116885 -0.126183 0.129262 0.016693 0.037592 -0.036096 -0.147022 -0.065778 0.035927 -0.030006 -0.029652 -0.092804 0.037268 -0.197973 0.081688 0.038710 -0.022438 0.084781 -0.180823 -0.020590 -0.023516 0.119654 0.048979 0.086822 -0.162007 -0.033175 -0.028759 -0.077605 0.023902 0.040682 0.068750 0.125490 -0.022022 -0.029625 0.054105 0.094175 0.010124 -0.073204 -0.027145 -0.108667 0.053367 0.154435 -0.250396 -0.015920 -0.022343 0.069652 -0.066830 -0.056479 -0.092793 0.132506 -0.125416 0.131289 0.052299 -0.123367 -0.109356 -0.094282 0.112595 0.026509 0.005294 -0.122123 0.080223 -0.035149 0.095667 -0.087863 -0.193401 0.036417 0.095681 0.083079 0.014303 -0.092853 0.019795 0.010446 0.022944
106 -0.166830 -0.198739 -0.015311 -0.093992 -0.018886 -0.110551 -0.004633 -0.100850 0.205989 -0.092560 -0.159460 0.207382 -0.032791 -0.008322 0.070394 -0.320661 0.131008 0.168884 -0.075454 0.094644 -0.067863 0.132370 0.101210 0.008167 0.021445 0.044547 0.025242 -0.057730 -0.097302 -0.055905 0.251716 -0.035590 0.035934 -0.019490 0.006243 0.206886 0.046248 -0.202360 0.020849 -0.008648 -0.086007 0.183911 -0.021108 -0.175577 -0.126875 -0.114223 0.006917 -0.032247 0.114326 -0.055266 -0.414329 0.010322 0.164213 0.270805 -0.155403 -0.159085 -0.179225 0.186383 0.027925 0.027545 -0.077983 -0.234843 -0.083669 0.055093 -0.038031 -0.049044 -0.147188 0.061142 -0.304797 0.108766 0.030533 -0.044336 0.126012 -0.266765 -0.050762 -0.031537 0.183347 0.073417 0.133155 -0.244368 -0.044533 -0.065110 -0.099668 0.023138 0.060493 0.092758 0.184019 -0.033591 -0.034396 0.064605 0.135278 0.000093 -0.099570 -0.025771 -0.160060 0.090091 0.229712 -0.367866 -0.025979 -0.014346 0.111645 -0.082390 -0.059110 -0.152336 0.197277 -0.188827 0.201083 0.083210 -0.190509 -0.152483 -0.150463 0.176327 0.028343 -0.008857 -0.189015 0.110254 -0.077151 0.126555 -0.101125 -0.288117 0.041297 0.142233 0.124260 0.004105 -0.127126 0.022042 0.035596 0.022146
174 -0.175753 -0.175052 -0.002991 -0.084953 -0.023825 -0.098433 -0.006566 -0.102071 0.216219 -0.094695 -0.163046 0.218894 -0.028962 0.013321 0.082578 -0.323431 0.125999 0.162871 -0.079710 0.063957 -0.058355 0.132992 0.102003 0.020150 0.030025 0.058232 0.025269 -0.025823 -0.096136 -0.033820 0.254967 -0.061094 0.044807 -0.004630 0.019947 0.211048 0.032921 -0.210173 0.015622 0.005520 -0.102128 0.180833 -0.001275 -0.166094 -0.125051 -0.122556 -0.005791 -0.022251 0.122431 -0.047871 -0.383809 0.004526 0.177939 0.299964 -0.159981 -0.156424 -0.203798 0.201319 0.033719 0.040063 -0.069759 -0.233680 -0.089527 0.046996 -0.060978 -0.047257 -0.141437 0.056790 -0.326679 0.097167 0.046123 -0.048064 0.115604 -0.262837 -0.030636 -0.035282 0.193209 0.077442 0.138870 -0.248506 -0.065259 -0.058110 -0.106356 0.037570 0.090666 0.082894 0.178256 -0.010503 -0.036472 0.084805 0.133140 0.005644 -0.111183 -0.046081 -0.155791 0.086619 0.218885 -0.365325 -0.044403 -0.030455 0.108382 -0.097229 -0.082519 -0.145472 0.218636 -0.179330 0.202941 0.073387 -0.202856 -0.147049 -0.144507 0.157765 0.057487 -0.011264 -0.170461 0.086959 -0.069726 0.117424 -0.110092 -0.301714 0.056952 0.144514 0.132126 0.016686 -0.135146 0.017212 0.024955 0.036517
251 -0.092570 -0.102222 -0.015814 -0.056104 -0.004259 -0.058631 0.001422 -0.054215 0.109700 -0.033246 -0.085683 0.111466 -0.005338 0.004660 0.040650 -0.174300 0.069139 0.092054 -0.033764 0.038137 -0.027382 0.069806 0.050743 0.004052 0.012505 0.019942 0.021351 -0.015738 -0.049831 -0.021906 0.139854 -0.028081 0.023922 -0.005167 0.003412 0.104184 0.021424 -0.103933 0.017981 0.005350 -0.049882 0.092172 -0.004148 -0.086977 -0.061976 -0.061016 -0.003215 -0.016909 0.062557 -0.017002 -0.208696 0.002946 0.085449 0.154195 -0.081630 -0.083448 -0.097545 0.092017 0.023722 0.017885 -0.029026 -0.115661 -0.043527 0.032426 -0.021847 -0.027158 -0.071525 0.041678 -0.167235 0.048157 0.030375 -0.024387 0.065594 -0.142108 -0.012350 -0.022273 0.098051 0.035890 0.059107 -0.134233 -0.021492 -0.029061 -0.059033 0.025028 0.036198 0.051523 0.098776 -0.005149 -0.008877 0.037138 0.073797 -0.006229 -0.057488 -0.023039 -0.085856 0.040445 0.109957 -0.184978 -0.019739 -0.008257 0.049725 -0.047992 -0.046078 -0.079832 0.102045 -0.089490 0.100662 0.043169 -0.103360 -0.085481 -0.070024 0.087438 0.019774 -0.001825 -0.096784 0.058751 -0.026164 0.063882 -0.057926 -0.154187 0.032824 0.077498 0.066945 0.008380 -0.062382 0.016664 0.011821 0.007116
233 -0.132485 -0.161297 0.018913 -0.067602 -0.017986 -0.083925 0.006091 -0.076293 0.136377 -0.053962 -0.141852 0.198288 -0.025298 -0.007961 0.079535 -0.237226 0.115710 0.142624 -0.064035 0.052717 -0.053132 0.101261 0.064150 0.023712 0.037382 0.040819 0.031052 -0.046371 -0.069607 -0.041158 0.204001 -0.048518 0.053152 0.001196 -0.019309 0.155373 0.021882 -0.159441 0.034332 -0.004120 -0.053123 0.134037 0.010573 -0.114175 -0.103657 -0.088937 -0.012394 -0.018678 0.092943 -0.008855 -0.302545 0.001701 0.150663 0.233044 -0.114482 -0.092609 -0.139543 0.158747 0.034756 0.020821 -0.053513 -0.182852 -0.081601 0.051656 -0.011867 -0.027740 -0.091074 0.063959 -0.246999 0.075718 0.040863 -0.045623 0.097984 -0.219418 -0.034922 -0.010993 0.135496 0.066225 0.115195 -0.213566 -0.042011 -0.042710 -0.081079 0.018631 0.034088 0.096031 0.151402 -0.036318 -0.040530 0.083135 0.099406 0.002282 -0.102730 -0.047213 -0.134354 0.064657 0.176415 -0.302562 -0.036004 -0.030093 0.077166 -0.101409 -0.084998 -0.113809 0.146122 -0.152458 0.169315 0.043160 -0.170310 -0.104702 -0.087683 0.168392 0.062265 0.017511 -0.146910 0.089759 -0.040045 0.112682 -0.090424 -0.189978 0.032369 0.121853 0.092903 -0.008909 -0.103142 0.027924 0.015244 0.041313
92 -0.131740 -0.141963 -0.013636 -0.085604 -0.008200 -0.069167 0.002593 -0.090885 0.160248 -0.048564 -0.123164 0.156125 -0.004628 0.006823 0.051280 -0.237462 0.091762 0.111063 -0.068084 0.042848 -0.040576 0.094514 0.085937 0.007930 0.019506 0.036766 0.019114 -0.016923 -0.071533 -0.020885 0.195686 -0.060753 0.031362 -0.010237 -0.001036 0.156668 0.025552 -0.150848 0.009265 0.004131 -0.069907 0.138340 0.003771 -0.116046 -0.093690 -0.073173 -0.009496 -0.031480 0.092935 -0.030676 -0.320964 -0.008677 0.134199 0.204720 -0.123909 -0.097289 -0.141672 0.152466 0.016152 0.047675 -0.042318 -0.171929 -0.083493 0.047377 -0.030305 -0.041934 -0.109605 0.047086 -0.241092 0.072901 0.038189 -0.040428 0.085944 -0.204755 -0.029921 -0.019928 0.134339 0.047019 0.106900 -0.182375 -0.031493 -0.031056 -0.086352 0.042732 0.057209 0.075902 0.132305 -0.013704 -0.018234 0.050525 0.092896 -0.004855 -0.086383 -0.037097 -0.119482 0.057672 0.164968 -0.281187 -0.040924 -0.019275 0.079672 -0.054759 -0.061672 -0.115215 0.149731 -0.130871 0.152327 0.059198 -0.147356 -0.127970 -0.106059 0.119755 0.045055 0.015519 -0.132679 0.069279 -0.030993 0.106154 -0.074082 -0.198460 0.041655 0.113657 0.089686 0.011060 -0.104473 0.026630 0.005779 0.013913
195 -0.136576 -0.151717 -0.010654 -0.077965 -0.022989 -0.091150 -0.006226 -0.069002 0.169270 -0.068816 -0.131799 0.171248 -0.018025 -0.010803 0.062334 -0.253833 0.095117 0.135829 -0.061915 0.055488 -0.038706 0.109228 0.083349 0.017213 0.006448 0.040858 0.018797 -0.037823 -0.080908 -0.037980 0.210091 -0.046989 0.041732 -0.005836 -0.005227 0.153028 0.027540 -0.157312 0.013642 -0.008932 -0.067917 0.157347 -0.007448 -0.135750 -0.098690 -0.104228 -0.007681 -0.023921 0.083246 -0.033238 -0.324893 -0.000086 0.145385 0.234555 -0.126726 -0.124334 -0.146935 0.145860 0.015600 0.024719 -0.055326 -0.176165 -0.074599 0.043678 -0.043961 -0.025827 -0.112001 0.049847 -0.247036 0.084276 0.034313 -0.029513 0.097268 -0.214172 -0.028696 -0.024177 0.143300 0.049741 0.097514 -0.199102 -0.035332 -0.038791 -0.078760 0.029837 0.060147 0.081180 0.158978 -0.012907 -0.032272 0.071499 0.108583 -0.000365 -0.076073 -0.032344 -0.123685 0.065914 0.184825 -0.295033 -0.025473 -0.024829 0.094033 -0.065556 -0.055638 -0.108795 0.166768 -0.147966 0.156245 0.055282 -0.153231 -0.126783 -0.103796 0.134121 0.033819 -0.001053 -0.140388 0.071856 -0.046416 0.106217 -0.093018 -0.227709 0.039265 0.112717 0.089856 0.003774 -0.111627 0.025937 0.011530 0.021471
104 -0.126389 -0.168776 -0.001746 -0.086264 -0.030146 -0.108171 0.000879 -0.080439 0.180954 -0.077215 -0.127701 0.176184 -0.016359 0.008615 0.058830 -0.267553 0.098953 0.133658 -0.071059 0.063298 -0.033650 0.126935 0.089899 0.038741 0.025469 0.029396 0.029336 -0.029698 -0.067773 -0.035007 0.229735 -0.052824 0.033778 -0.010977 0.009252 0.174854 0.033990 -0.184940 0.035399 0.002474 -0.076979 0.164172 0.013714 -0.136908 -0.110304 -0.112461 0.007342 -0.019960 0.079389 -0.056894 -0.338954 -0.004903 0.145642 0.253656 -0.144212 -0.126199 -0.163067 0.163836 0.031983 0.047582 -0.070454 -0.176735 -0.082837 0.054601 -0.045569 -0.035372 -0.123781 0.048804 -0.263759 0.095957 0.050688 -0.035573 0.111928 -0.230985 -0.027945 -0.035911 0.160133 0.047559 0.106095 -0.226578 -0.047811 -0.045706 -0.075054 0.027475 0.059213 0.081744 0.176584 -0.028136 -0.016069 0.056216 0.107892 -0.001036 -0.105060 -0.033763 -0.119733 0.067216 0.187520 -0.303352 -0.030943 -0.011129 0.093432 -0.084959 -0.074313 -0.106760 0.159171 -0.179663 0.186917 0.066155 -0.167235 -0.140743 -0.104432 0.125851 0.038842 0.014835 -0.163709 0.088372 -0.049356 0.088693 -0.076976 -0.235406 0.051530 0.117343 0.113189 -0.009982 -0.111617 0.027980 0.016213 0.010557
105 -0.128337 -0.159121 -0.003658 -0.079600 -0.024451 -0.099334 -0.001219 -0.073359 0.173165 -0.069559 -0.123298 0.174282 -0.013236 0.005256 0.055760 -0.254295 0.101062 0.133617 -0.063959 0.060342 -0.033468 0.116945 0.086507 0.031209 0.019288 0.033033 0.027994 -0.026103 -0.071002 -0.037607 0.214029 -0.054675 0.033628 -0.011118 0.008734 0.163328 0.027357 -0.172786 0.023537 0.000472 -0.074707 0.160838 0.008821 -0.131586 -0.103670 -0.104118 0.003901 -0.027089 0.078466 -0.050551 -0.323835 0.000454 0.142205 0.237980 -0.133560 -0.124228 -0.156192 0.154844 0.019591 0.047452 -0.064165 -0.175518 -0.082275 0.043678 -0.040429 -0.030090 -0.123448 0.044801 -0.252396 0.085949 0.047241 -0.038390 0.098870 -0.217443 -0.031094 -0.031158 0.152098 0.053412 0.104562 -0.213167 -0.048244 -0.049447 -0.075860 0.026569 0.061692 0.077924 0.168106 -0.024783 -0.024822 0.057050 0.106236 0.002783 -0.096267 -0.034570 -0.121215 0.063116 0.179252 -0.287483 -0.031176 -0.016399 0.089546 -0.077859 -0.064721 -0.106310 0.154963 -0.164879 0.173606 0.057911 -0.161317 -0.125028 -0.100662 0.124184 0.034197 0.008860 -0.153011 0.087801 -0.047786 0.088099 -0.075928 -0.222706 0.045242 0.110865 0.107093 -0.004552 -0.106065 0.026521 0.021081 0.013961
154 -0.126705 -0.148027 -0.006707 -0.079964 -0.020154 -0.099764 -0.002579 -0.068465 0.172891 -0.058099 -0.130388 0.164561 -0.011938 0.005709 0.062054 -0.247500 0.094081 0.127998 -0.062961 0.056855 -0.059095 0.103461 0.086205 0.019954 0.012377 0.029872 0.022033 -0.038393 -0.068561 -0.045460 0.198105 -0.053991 0.038372 -0.015110 -0.008361 0.155116 0.033537 -0.157049 0.014961 -0.010944 -0.072659 0.146432 -0.009174 -0.136481 -0.093268 -0.099679 -0.005759 -0.026894 0.092728 -0.033527 -0.323976 0.006805 0.139538 0.221882 -0.127587 -0.131061 -0.144724 0.145342 0.021920 0.042068 -0.047773 -0.186922 -0.070568 0.038754 -0.027866 -0.026385 -0.100045 0.059469 -0.251433 0.081644 0.033001 -0.037289 0.091189 -0.202150 -0.033898 -0.024196 0.136579 0.056138 0.099228 -0.207108 -0.045746 -0.041357 -0.084276 0.025687 0.049079 0.072237 0.147566 -0.021007 -0.029592 0.058244 0.110426 -0.005757 -0.075013 -0.025931 -0.126695 0.055948 0.162068 -0.293012 -0.022472 -0.018424 0.086897 -0.077001 -0.059515 -0.118314 0.152857 -0.141798 0.158753 0.059927 -0.157798 -0.132941 -0.098775 0.131656 0.034914 0.007866 -0.144549 0.074242 -0.042592 0.109239 -0.095871 -0.214484 0.044313 0.114245 0.093865 0.000992 -0.101877 0.024908 0.012690 0.026206
53 -0.170174 -0.171849 -0.018185 -0.094638 -0.001051 -0.097206 -0.005478 -0.092249 0.173457 -0.083655 -0.166052 0.199897 -0.026915 -0.009065 0.056281 -0.278762 0.104774 0.156079 -0.063554 0.066818 -0.049158 0.125752 0.088851 0.024769 0.022572 0.013165 0.026577 -0.045257 -0.086335 -0.052335 0.241648 -0.042404 0.036654 -0.026522 0.001373 0.181078 0.040827 -0.169773 0.031535 -0.004489 -0.093129 0.177546 -0.021263 -0.142919 -0.107980 -0.109445 -0.006372 -0.015456 0.095876 -0.033141 -0.362295 -0.016887 0.167755 0.264264 -0.134287 -0.152143 -0.162311 0.149155 0.023319 0.046351 -0.052111 -0.198284 -0.073202 0.053810 -0.041420 -0.037341 -0.122702 0.054249 -0.270811 0.089970 0.061259 -0.038268 0.100427 -0.227460 -0.028545 -0.004787 0.154522 0.049796 0.109318 -0.224820 -0.049081 -0.043283 -0.112845 0.036304 0.071041 0.081095 0.170917 -0.015318 -0.016348 0.080653 0.131382 -0.008464 -0.081181 -0.039848 -0.137272 0.060972 0.187686 -0.332720 -0.035749 -0.033076 0.080714 -0.087169 -0.066496 -0.117618 0.170099 -0.165413 0.186031 0.062103 -0.182380 -0.128008 -0.132309 0.148126 0.035244 0.011218 -0.170985 0.094343 -0.032657 0.098803 -0.087862 -0.236065 0.037262 0.142856 0.100616 -0.006612 -0.113986 0.022289 0.034232 0.018169
68 -0.136956 -0.135458 -0.013555 -0.071862 -0.005853 -0.079766 -0.001070 -0.075976 0.145736 -0.066243 -0.130747 0.162759 -0.014873 -0.006286 0.053317 -0.232076 0.082765 0.125003 -0.053267 0.055987 -0.043754 0.102754 0.075319 0.023383 0.017541 0.019240 0.018615 -0.033852 -0.067535 -0.038605 0.196557 -0.036319 0.033383 -0.012075 0.002511 0.144324 0.027224 -0.138383 0.022826 -0.004371 -0.070279 0.144523 -0.012618 -0.122160 -0.083325 -0.089529 -0.001559 -0.015588 0.076605 -0.025485 -0.299672 -0.009050 0.129674 0.212493 -0.117008 -0.116820 -0.133912 0.126912 0.022062 0.036045 -0.043043 -0.166180 -0.061817 0.043174 -0.027931 -0.030403 -0.108277 0.044783 -0.220382 0.080943 0.040673 -0.034815 0.084937 -0.194487 -0.030116 -0.009921 0.133284 0.046460 0.088620 -0.185572 -0.042290 -0.033399 -0.086216 0.027922 0.056342 0.068611 0.141177 -0.016630 -0.019157 0.066245 0.109172 -0.001666 -0.072299 -0.028565 -0.117158 0.053012 0.156253 -0.274272 -0.029038 -0.022995 0.072177 -0.073858 -0.055796 -0.100708 0.138248 -0.137912 0.152336 0.052160 -0.150837 -0.106327 -0.103215 0.126612 0.025202 0.009338 -0.136682 0.076136 -0.032132 0.085724 -0.078923 -0.201562 0.029913 0.116511 0.091241 0.002526 -0.092738 0.022641 0.019743 0.019773
137 -0.111803 -0.118854 -0.014028 -0.063120 -0.007519 -0.066374 -0.008902 -0.059994 0.139685 -0.045023 -0.108516 0.135753 -0.013261 0.000287 0.051623 -0.205065 0.083229 0.103775 -0.047455 0.042966 -0.032887 0.090479 0.069179 0.011644 0.012683 0.019231 0.015918 -0.030327 -0.062706 -0.028551 0.163815 -0.033360 0.028450 -0.014873 0.004959 0.129514 0.026824 -0.122710 0.008422 0.003095 -0.062915 0.115774 -0.005774 -0.103850 -0.079049 -0.077666 0.000291 -0.014020 0.065788 -0.022949 -0.263185 0.002190 0.107362 0.181744 -0.102535 -0.095456 -0.113271 0.120434 0.018872 0.032372 -0.049804 -0.134367 -0.055585 0.039394 -0.029874 -0.021321 -0.096371 0.041079 -0.199446 0.066595 0.036474 -0.023677 0.068840 -0.169662 -0.024811 -0.013706 0.112327 0.050881 0.085709 -0.154312 -0.033169 -0.036336 -0.059337 0.020918 0.037354 0.061368 0.119173 -0.007011 -0.028445 0.047025 0.081630 -0.004712 -0.071860 -0.034770 -0.100793 0.051651 0.136864 -0.239108 -0.023995 -0.013193 0.067088 -0.055956 -0.044313 -0.087265 0.119298 -0.122672 0.123388 0.042305 -0.122189 -0.094612 -0.084220 0.110341 0.025557 -0.003026 -0.116092 0.056827 -0.029925 0.077857 -0.072685 -0.183407 0.037736 0.096866 0.074317 -0.003535 -0.080442 0.013713 0.020002 0.018390
88 -0.096548 -0.113618 -0.006903 -0.052707 -0.019234 -0.065830 -0.003914 -0.055236 0.116298 -0.047931 -0.084431 0.124109 -0.017296 0.004485 0.054171 -0.178619 0.071768 0.087758 -0.044156 0.038298 -0.027422 0.082711 0.048323 0.014832 0.012797 0.017509 0.012849 -0.032062 -0.045738 -0.031523 0.144114 -0.028100 0.027053 -0.008834 0.005351 0.115985 0.020171 -0.101009 0.017780 -0.000494 -0.057892 0.108548 -0.007740 -0.092244 -0.073707 -0.068768 -0.002716 -0.025126 0.057159 -0.026658 -0.230072 0.007661 0.099725 0.159406 -0.086710 -0.087041 -0.099366 0.100160 0.016289 0.028294 -0.040579 -0.130004 -0.047816 0.037488 -0.022059 -0.023285 -0.075738 0.038338 -0.168423 0.058801 0.034445 -0.017933 0.058014 -0.144823 -0.014184 -0.017153 0.094566 0.046512 0.064476 -0.151151 -0.028524 -0.028134 -0.062639 0.017405 0.041064 0.059903 0.103953 -0.014137 -0.017786 0.044207 0.080589 -0.003589 -0.061223 -0.019377 -0.089298 0.040155 0.121063 -0.207400 -0.020030 -0.015032 0.065093 -0.061958 -0.048643 -0.072873 0.105451 -0.109471 0.103488 0.034358 -0.109990 -0.085588 -0.072826 0.097164 0.022762 0.000411 -0.107978 0.058675 -0.029880 0.074105 -0.064929 -0.159410 0.029233 0.080437 0.072883 -0.004295 -0.075640 0.018129 0.012626 0.016647
38 -0.126918 -0.150289 -0.008836 -0.077143 -0.021410 -0.095718 -0.007236 -0.074937 0.175757 -0.062783 -0.132229 0.165553 -0.010731 0.002259 0.058246 -0.248699 0.095545 0.130007 -0.059478 0.060193 -0.057775 0.105103 0.086694 0.017549 0.013697 0.030175 0.026670 -0.038189 -0.066356 -0.047166 0.198725 -0.052798 0.035776 -0.019099 -0.008186 0.150696 0.028586 -0.156942 0.012537 -0.011731 -0.075508 0.145481 -0.006094 -0.130395 -0.096768 -0.092194 -0.003101 -0.029561 0.093632 -0.037694 -0.322940 0.003247 0.134423 0.222033 -0.128245 -0.128661 -0.137796 0.143994 0.017822 0.040439 -0.052069 -0.183307 -0.069201 0.030795 -0.029638 -0.024767 -0.100121 0.059473 -0.252825 0.084165 0.030049 -0.036746 0.087264 -0.204923 -0.036347 -0.021563 0.141516 0.059935 0.102844 -0.202477 -0.044280 -0.041835 -0.080469 0.029699 0.050635 0.074879 0.147786 -0.021916 -0.032720 0.058773 0.109651 -0.006434 -0.079490 -0.029457 -0.129451 0.057406 0.163580 -0.289970 -0.024570 -0.019348 0.083708 -0.073765 -0.057285 -0.121279 0.145487 -0.144505 0.154475 0.058784 -0.154478 -0.126023 -0.102905 0.132533 0.034562 0.004972 -0.146870 0.072422 -0.044146 0.103103 -0.092945 -0.214689 0.045629 0.114257 0.095372 0.003464 -0.105576 0.023348 0.011927 0.023481
252 -0.094086 -0.109095 -0.012417 -0.053995 -0.004595 -0.064427 0.002043 -0.051852 0.118725 -0.039990 -0.092895 0.117768 -0.005378 0.001702 0.044879 -0.182543 0.073432 0.098858 -0.038748 0.037773 -0.023000 0.074839 0.062920 0.003722 0.015375 0.020908 0.020301 -0.014254 -0.053510 -0.027808 0.144021 -0.034757 0.026303 -0.007112 0.000253 0.107573 0.024377 -0.106412 0.021698 0.006510 -0.047002 0.095565 0.001069 -0.089169 -0.066705 -0.066300 -0.001637 -0.015892 0.069667 -0.022410 -0.218327 -0.000584 0.090075 0.165260 -0.088912 -0.091267 -0.096147 0.102932 0.025763 0.025218 -0.032650 -0.121923 -0.042553 0.030009 -0.021957 -0.031650 -0.083082 0.042974 -0.178354 0.052353 0.032649 -0.023789 0.072279 -0.149274 -0.012317 -0.023480 0.106081 0.038595 0.060597 -0.143887 -0.026588 -0.026464 -0.054648 0.029762 0.043058 0.060853 0.107538 -0.012341 -0.006825 0.042382 0.076618 0.000127 -0.063219 -0.019724 -0.086891 0.045241 0.121119 -0.200209 -0.019370 -0.009121 0.056660 -0.050521 -0.046166 -0.078899 0.110490 -0.101277 0.112598 0.049556 -0.107694 -0.092019 -0.081669 0.089182 0.018758 -0.000728 -0.102829 0.060377 -0.025830 0.069950 -0.057131 -0.157004 0.035823 0.084908 0.073036 0.009290 -0.069613 0.021260 0.012727 0.006963
192 -0.152553 -0.156704 -0.017856 -0.078196 -0.025311 -0.103043 -0.003478 -0.070487 0.187435 -0.081535 -0.137731 0.179424 -0.020703 -0.012120 0.057482 -0.277670 0.107551 0.148055 -0.072006 0.058165 -0.038847 0.110694 0.089948 0.016019 0.006099 0.046113 0.022708 -0.044966 -0.088224 -0.041363 0.232084 -0.049821 0.048224 -0.005832 -0.004561 0.165821 0.023012 -0.164930 0.017061 -0.011821 -0.070692 0.175288 -0.007020 -0.147473 -0.108221 -0.108506 -0.004870 -0.026737 0.097227 -0.028263 -0.344732 -0.000105 0.155137 0.249484 -0.127303 -0.132504 -0.157335 0.156852 0.023051 0.021108 -0.066136 -0.192275 -0.083709 0.044016 -0.044702 -0.031397 -0.127207 0.061425 -0.267952 0.097795 0.033744 -0.023512 0.108143 -0.232633 -0.028767 -0.035154 0.159427 0.051466 0.100119 -0.215658 -0.038726 -0.044280 -0.082565 0.033887 0.067442 0.091587 0.166520 -0.013974 -0.035256 0.081406 0.114082 -0.002504 -0.086769 -0.037274 -0.132321 0.066851 0.199599 -0.314086 -0.035504 -0.027352 0.095988 -0.068540 -0.060064 -0.116221 0.180263 -0.162387 0.171603 0.059699 -0.163054 -0.141603 -0.116689 0.137584 0.042064 0.000568 -0.148900 0.083402 -0.048721 0.108700 -0.096774 -0.238295 0.044882 0.124094 0.094303 0.006851 -0.120570 0.027613 0.017590 0.013033
249 -0.134144 -0.140119 -0.011874 -0.071648 -0.026715 -0.083581 -0.024675 -0.063949 0.142222 -0.036627 -0.115334 0.155541 -0.030285 -0.003565 0.051836 -0.233557 0.086399 0.137305 -0.060470 0.051324 -0.048381 0.079680 0.086475 0.019291 0.026703 0.031079 0.023246 -0.033755 -0.062212 -0.044511 0.187336 -0.047945 0.037260 -0.005520 -0.019573 0.154699 0.034607 -0.148595 0.011425 0.008036 -0.071503 0.146996 0.009047 -0.127048 -0.085546 -0.096285 -0.000237 -0.021977 0.074952 -0.045038 -0.322731 0.000548 0.137304 0.212363 -0.118692 -0.107608 -0.131159 0.143047 0.007564 0.028033 -0.059271 -0.154290 -0.059928 0.041992 -0.039024 -0.024447 -0.100205 0.030965 -0.240652 0.078364 0.024810 -0.030369 0.078753 -0.210785 -0.027070 -0.014283 0.142299 0.053097 0.103033 -0.191525 -0.040009 -0.040153 -0.075280 0.033386 0.040296 0.075306 0.142274 -0.018646 -0.028268 0.055930 0.119261 0.007611 -0.064699 -0.024511 -0.110438 0.055104 0.159276 -0.248184 -0.004792 -0.034214 0.095053 -0.061350 -0.071623 -0.113863 0.149542 -0.147184 0.158944 0.061538 -0.129511 -0.115594 -0.089747 0.140986 0.037414 -0.012084 -0.144883 0.063835 -0.059307 0.101126 -0.099937 -0.210917 0.043445 0.101766 0.077231 0.007699 -0.115213 0.030676 0.008128 0.037065
90 -0.125426 -0.137279 -0.012276 -0.077343 -0.006729 -0.068350 0.006171 -0.084511 0.152542 -0.054106 -0.121685 0.144497 -0.004658 0.004425 0.047096 -0.225885 0.086831 0.107739 -0.061717 0.042944 -0.034107 0.088532 0.083715 0.008259 0.015756 0.035614 0.016524 -0.015504 -0.072010 -0.020356 0.186549 -0.060906 0.028044 -0.009361 0.002072 0.150668 0.029630 -0.140822 0.005775 0.007108 -0.068029 0.134938 0.006551 -0.109462 -0.088621 -0.070832 -0.007592 -0.026660 0.084921 -0.026860 -0.301285 -0.004574 0.132436 0.200009 -0.123890 -0.094946 -0.135671 0.144135 0.015676 0.039942 -0.046685 -0.161482 -0.078240 0.047962 -0.029885 -0.042614 -0.104587 0.040507 -0.229399 0.072421 0.037333 -0.034130 0.087825 -0.192437 -0.029745 -0.022015 0.123572 0.044560 0.095900 -0.165864 -0.033888 -0.029244 -0.078920 0.037909 0.051794 0.065096 0.122296 -0.015223 -0.016319 0.048621 0.090653 -0.000657 -0.077454 -0.039044 -0.108617 0.056955 0.151664 -0.261457 -0.039963 -0.020217 0.073822 -0.056818 -0.062237 -0.109494 0.151001 -0.122551 0.140733 0.052919 -0.144222 -0.120123 -0.096569 0.112182 0.047998 0.017379 -0.128736 0.066492 -0.032767 0.100678 -0.070215 -0.192504 0.035288 0.104165 0.086784 0.011145 -0.098167 0.021406 0.004636 0.014228
283 -0.108897 -0.119376 -0.007868 -0.063816 -0.017431 -0.070928 -0.001741 -0.056723 0.126838 -0.048451 -0.092873 0.127863 -0.013285 0.000833 0.053707 -0.198717 0.070776 0.102689 -0.050438 0.042923 -0.029618 0.084710 0.057923 0.010325 0.017737 0.019209 0.016115 -0.030110 -0.050502 -0.030887 0.155881 -0.033501 0.024200 -0.012274 0.004595 0.124733 0.018907 -0.112112 0.014295 0.002412 -0.054739 0.111753 -0.007075 -0.096509 -0.077826 -0.076256 -0.001680 -0.021859 0.069976 -0.031978 -0.250122 0.006523 0.108829 0.166203 -0.095353 -0.089799 -0.110423 0.107324 0.016694 0.031250 -0.043979 -0.140019 -0.051840 0.032919 -0.023188 -0.022143 -0.084943 0.038296 -0.187104 0.064794 0.026111 -0.023541 0.068150 -0.158361 -0.025529 -0.022262 0.102436 0.046632 0.076102 -0.155344 -0.036112 -0.034483 -0.060128 0.023179 0.042538 0.061211 0.118005 -0.007925 -0.018582 0.047184 0.085271 -0.002624 -0.062323 -0.025383 -0.095665 0.043469 0.135233 -0.221030 -0.016297 -0.019754 0.066068 -0.061036 -0.048799 -0.082417 0.117846 -0.118785 0.114583 0.040649 -0.114965 -0.094230 -0.080477 0.104487 0.027382 -0.001735 -0.115045 0.062576 -0.033085 0.080033 -0.069632 -0.173052 0.032304 0.087907 0.078883 -0.001780 -0.079559 0.013146 0.016439 0.021243
7 -0.140663 -0.161044 -0.023017 -0.075964 -0.029421 -0.088885 0.000613 -0.077179 0.181745 -0.063706 -0.139961 0.177208 -0.007301 -0.012617 0.076436 -0.263610 0.103519 0.138475 -0.066825 0.060385 -0.053370 0.112050 0.088773 0.024984 0.035753 0.027785 0.014576 -0.041095 -0.078898 -0.041205 0.225877 -0.045969 0.036839 -0.024048 -0.005853 0.164439 0.024646 -0.166392 0.015172 -0.011193 -0.087997 0.156609 -0.000766 -0.137546 -0.098996 -0.098814 0.001354 -0.029817 0.101100 -0.035445 -0.344828 0.012166 0.140907 0.246593 -0.138380 -0.123709 -0.150956 0.151544 0.033603 0.038317 -0.043876 -0.184178 -0.072055 0.045512 -0.038900 -0.033229 -0.120535 0.056793 -0.256162 0.078224 0.037704 -0.029216 0.083643 -0.212916 -0.035484 -0.016811 0.139391 0.067933 0.104007 -0.215688 -0.045757 -0.032069 -0.080705 0.040883 0.053542 0.074525 0.153960 -0.012056 -0.038355 0.071234 0.121440 0.000786 -0.074336 -0.037177 -0.138190 0.071418 0.192610 -0.317063 -0.032481 -0.024301 0.084978 -0.074320 -0.070667 -0.116875 0.161941 -0.162763 0.160214 0.060956 -0.156898 -0.124256 -0.109046 0.141409 0.030757 0.001490 -0.156777 0.093096 -0.049843 0.102010 -0.093776 -0.224284 0.046389 0.127768 0.107993 0.001602 -0.120230 0.015426 0.029291 0.027263
246 -0.129076 -0.136383 -0.010025 -0.067727 -0.027404 -0.089431 -0.017821 -0.064779 0.142290 -0.039097 -0.113262 0.158588 -0.024465 -0.006677 0.056573 -0.232536 0.089707 0.132212 -0.052879 0.046172 -0.052219 0.082029 0.079712 0.015739 0.022572 0.036833 0.026451 -0.036072 -0.065217 -0.034839 0.181385 -0.050233 0.038261 -0.004331 -0.016780 0.145997 0.030160 -0.149531 0.009502 0.004740 -0.066241 0.136801 0.007960 -0.120679 -0.081873 -0.095818 -0.004192 -0.017556 0.076589 -0.036509 -0.309024 0.000358 0.129415 0.207154 -0.108514 -0.108581 -0.130450 0.134409 0.007361 0.024082 -0.058048 -0.158473 -0.063239 0.037411 -0.041615 -0.021994 -0.099702 0.036385 -0.233797 0.073318 0.023495 -0.027250 0.082894 -0.203696 -0.024465 -0.012004 0.140321 0.049580 0.099126 -0.180325 -0.042146 -0.032534 -0.072856 0.030976 0.043023 0.069448 0.142049 -0.014933 -0.031369 0.059073 0.112193 -0.000127 -0.070534 -0.024643 -0.111202 0.053149 0.162440 -0.247713 -0.008351 -0.034571 0.086297 -0.059070 -0.068043 -0.107332 0.150682 -0.141449 0.153604 0.057545 -0.128533 -0.110330 -0.088167 0.134805 0.033103 -0.011463 -0.134232 0.067538 -0.057025 0.097861 -0.093000 -0.210427 0.038479 0.102132 0.080059 -0.000280 -0.108961 0.029387 0.007151 0.032760
13 -0.135791 -0.162972 -0.016905 -0.094848 -0.018678 -0.101968 -0.002725 -0.080964 0.189521 -0.056083 -0.147319 0.183145 -0.001877 -0.010932 0.070115 -0.286250 0.095559 0.144998 -0.069186 0.062261 -0.036412 0.115213 0.091673 0.021080 0.013596 0.038754 0.036056 -0.025825 -0.068319 -0.041501 0.220232 -0.046490 0.032745 -0.009943 -0.004343 0.165490 0.039819 -0.163862 0.027613 -0.006707 -0.077621 0.168098 -0.007085 -0.138850 -0.108312 -0.093353 -0.009003 -0.027315 0.097141 -0.035640 -0.359478 0.001489 0.160307 0.264960 -0.154469 -0.134869 -0.159549 0.156611 0.024149 0.037880 -0.051407 -0.198064 -0.086994 0.030113 -0.028022 -0.034449 -0.132011 0.044060 -0.265496 0.084509 0.029461 -0.042950 0.111804 -0.236005 -0.029288 -0.028119 0.161289 0.056882 0.110941 -0.224584 -0.057809 -0.054635 -0.093513 0.023552 0.048892 0.085417 0.170213 -0.021014 -0.033797 0.076644 0.132667 -0.005063 -0.092539 -0.053592 -0.147361 0.066136 0.180496 -0.324261 -0.036289 -0.019189 0.098295 -0.080078 -0.064322 -0.130378 0.166271 -0.170225 0.181854 0.061828 -0.174460 -0.147514 -0.114528 0.138083 0.032075 0.005432 -0.169825 0.074649 -0.052485 0.115293 -0.091767 -0.254021 0.045232 0.127044 0.117981 -0.000043 -0.112896 0.025308 0.029010 0.025901
43 -0.149767 -0.151009 -0.015820 -0.082279 -0.019383 -0.100651 0.001255 -0.070526 0.180326 -0.075387 -0.128649 0.176056 -0.021035 -0.011580 0.062311 -0.268713 0.095057 0.141266 -0.071846 0.056160 -0.037498 0.111725 0.094040 0.012299 0.007508 0.044049 0.021377 -0.039027 -0.083149 -0.042386 0.224412 -0.041132 0.041456 -0.001966 0.001974 0.160892 0.024706 -0.158829 0.019702 -0.005951 -0.067675 0.168849 -0.006922 -0.140458 -0.107654 -0.109747 -0.000550 -0.026851 0.089173 -0.035137 -0.334360 0.002207 0.148099 0.242271 -0.129122 -0.128806 -0.150823 0.149363 0.017117 0.019803 -0.059680 -0.178683 -0.080540 0.048831 -0.045822 -0.030974 -0.118189 0.052617 -0.252151 0.096097 0.035478 -0.023356 0.106830 -0.225514 -0.032286 -0.034420 0.153379 0.048317 0.097366 -0.204969 -0.034586 -0.040744 -0.078551 0.031093 0.062004 0.083723 0.166125 -0.010721 -0.034774 0.074957 0.115550 -0.001026 -0.080770 -0.035178 -0.129240 0.067394 0.188880 -0.307170 -0.032731 -0.021142 0.101067 -0.065749 -0.057324 -0.115652 0.175207 -0.161073 0.168570 0.057188 -0.155742 -0.135570 -0.111534 0.135116 0.034198 0.002704 -0.151751 0.075138 -0.050094 0.102268 -0.090129 -0.233744 0.045950 0.118553 0.093362 0.004362 -0.116210 0.024343 0.018485 0.015484
127 -0.117291 -0.125243 -0.005378 -0.052459 -0.003166 -0.065974 -0.007766 -0.070913 0.126183 -0.052696 -0.090764 0.129116 -0.020933 -0.000793 0.056133 -0.196486 0.096336 0.099970 -0.034553 0.043536 -0.036638 0.077367 0.082149 0.002061 0.019363 0.026186 0.021114 -0.024621 -0.067614 -0.032261 0.170970 -0.047392 0.031570 -0.008283 0.004448 0.135464 0.037950 -0.130807 0.018755 -0.004516 -0.055898 0.114658 -0.010160 -0.118444 -0.076260 -0.082280 -0.011579 -0.014322 0.080504 -0.043050 -0.275977 -0.007152 0.110256 0.181174 -0.107472 -0.112615 -0.116367 0.126254 0.014418 0.024932 -0.048081 -0.158336 -0.063939 0.048505 -0.012161 -0.028174 -0.096666 0.047037 -0.196279 0.073985 0.027945 -0.025717 0.061538 -0.155835 -0.012986 -0.015923 0.106700 0.058077 0.092134 -0.161210 -0.034385 -0.037089 -0.067638 0.014632 0.053964 0.050843 0.109990 -0.011575 -0.022068 0.056393 0.086918 -0.005214 -0.058447 -0.024198 -0.105869 0.048272 0.131270 -0.233180 -0.026293 -0.009127 0.070076 -0.068254 -0.036375 -0.085757 0.119104 -0.114808 0.123830 0.063632 -0.125885 -0.100875 -0.095010 0.091502 0.025214 -0.001090 -0.109166 0.069513 -0.033238 0.086144 -0.076704 -0.192152 0.025481 0.100931 0.080814 0.008966 -0.099237 0.023672 0.022452 0.025196
131 -0.142599 -0.148782 -0.008828 -0.072724 -0.005599 -0.080124 -0.001188 -0.066817 0.147909 -0.044588 -0.121295 0.167523 -0.028718 -0.005474 0.066902 -0.238925 0.100227 0.110244 -0.051462 0.047846 -0.028889 0.114049 0.063874 0.012801 0.040599 0.029270 0.035668 -0.026055 -0.065494 -0.055750 0.202789 -0.055625 0.021780 -0.018779 -0.013474 0.141664 0.032121 -0.140337 0.011534 0.014480 -0.051791 0.129603 0.000632 -0.112275 -0.072834 -0.100144 -0.010097 -0.009913 0.074352 -0.037840 -0.299450 0.002204 0.122639 0.200489 -0.090050 -0.117521 -0.116429 0.153037 0.026822 0.032120 -0.064180 -0.161795 -0.057784 0.049752 -0.029773 -0.025167 -0.115044 0.051406 -0.212134 0.086714 0.024171 -0.031318 0.067164 -0.188927 -0.040848 -0.009476 0.119224 0.055454 0.093229 -0.195837 -0.028770 -0.034576 -0.078881 0.048984 0.053848 0.074350 0.133689 -0.015174 -0.040784 0.056800 0.103170 -0.001525 -0.085985 -0.046068 -0.113754 0.061027 0.157359 -0.257607 -0.019948 -0.024472 0.094163 -0.090140 -0.064935 -0.091066 0.150787 -0.138820 0.145077 0.053199 -0.150389 -0.114190 -0.081001 0.134980 0.021176 0.001650 -0.126746 0.089593 -0.041687 0.078137 -0.083567 -0.211043 0.042976 0.118868 0.097103 0.000189 -0.100655 0.013798 0.010659 0.024745
280 -0.151248 -0.161346 -0.007807 -0.090886 -0.020680 -0.084378 0.003815 -0.074095 0.152862 -0.071677 -0.125075 0.162338 -0.011632 0.006065 0.058970 -0.261954 0.099093 0.143467 -0.061681 0.069808 -0.043098 0.114335 0.089175 0.012160 0.025673 0.028216 0.012339 -0.047359 -0.090739 -0.031180 0.206336 -0.049136 0.055208 -0.026998 0.025374 0.164574 0.036068 -0.148087 0.002833 -0.000713 -0.095487 0.159532 -0.023853 -0.119931 -0.090487 -0.101507 0.009349 -0.047981 0.099319 -0.021714 -0.340530 0.008936 0.154453 0.252065 -0.120990 -0.142102 -0.128288 0.124277 0.026163 0.048374 -0.048342 -0.180627 -0.065712 0.014570 -0.019906 -0.029082 -0.106928 0.040107 -0.238115 0.072923 0.038543 -0.022973 0.098694 -0.217249 -0.037531 -0.003615 0.128615 0.070065 0.087885 -0.204799 -0.040265 -0.033336 -0.070526 0.032183 0.077858 0.066462 0.164743 -0.039429 -0.042711 0.062897 0.130507 -0.025346 -0.063910 -0.047200 -0.130075 0.073908 0.157957 -0.287300 -0.040240 -0.039251 0.079721 -0.063965 -0.045884 -0.101811 0.163386 -0.153274 0.160134 0.084393 -0.160575 -0.128644 -0.116846 0.133669 0.034551 -0.012552 -0.162063 0.079020 -0.069223 0.106308 -0.078001 -0.249995 0.026490 0.113443 0.100109 -0.026511 -0.095877 0.041298 0.022282 0.000455
264 -0.117839 -0.128629 -0.009612 -0.066905 -0.006788 -0.080181 -0.001733 -0.056758 0.163538 -0.042397 -0.104799 0.156555 -0.003192 -0.006361 0.062111 -0.244011 0.088861 0.106888 -0.064737 0.045604 -0.030597 0.101430 0.081188 0.028504 0.029037 0.021796 0.026604 -0.033513 -0.070570 -0.039000 0.175795 -0.057642 0.035045 -0.005520 -0.002202 0.137830 0.032171 -0.140782 0.025800 -0.003695 -0.061208 0.123884 -0.012875 -0.118059 -0.087689 -0.103124 -0.007550 -0.039040 0.073496 -0.013175 -0.297373 0.008264 0.121164 0.220753 -0.103439 -0.107851 -0.134504 0.120483 0.013416 0.018147 -0.049068 -0.161032 -0.074431 0.033606 -0.034580 -0.034353 -0.090017 0.031145 -0.235481 0.082046 0.028909 -0.026217 0.086435 -0.191119 -0.019755 -0.007762 0.123668 0.040793 0.085873 -0.175378 -0.058313 -0.023354 -0.076913 0.024944 0.053640 0.049248 0.138558 -0.008571 -0.025852 0.067968 0.092183 0.008363 -0.077533 -0.038147 -0.117620 0.054222 0.151425 -0.271394 -0.014009 -0.026948 0.074534 -0.056253 -0.054054 -0.104934 0.153688 -0.128699 0.139905 0.051369 -0.119634 -0.121777 -0.108534 0.113451 0.038270 0.018640 -0.138041 0.074551 -0.032757 0.071426 -0.078010 -0.207034 0.030573 0.103677 0.100723 -0.000959 -0.104314 0.027357 0.032946 0.015944
129 -0.147699 -0.155279 -0.006418 -0.073942 -0.005488 -0.087742 -0.009771 -0.067211 0.159880 -0.049676 -0.118980 0.168559 -0.026538 -0.006698 0.072386 -0.247752 0.098185 0.115014 -0.052745 0.046605 -0.033951 0.118045 0.064876 0.011552 0.038132 0.029514 0.031939 -0.031701 -0.071084 -0.056769 0.208211 -0.059244 0.028863 -0.013322 -0.010363 0.139011 0.038832 -0.139159 0.008516 0.016555 -0.054911 0.140854 -0.006530 -0.121367 -0.079075 -0.103971 -0.005510 -0.009923 0.077434 -0.032298 -0.311418 0.010279 0.128752 0.208170 -0.095489 -0.119352 -0.119069 0.154621 0.018792 0.025696 -0.060126 -0.164585 -0.059693 0.045494 -0.026341 -0.030476 -0.113142 0.044279 -0.224385 0.085625 0.026501 -0.032279 0.068557 -0.190697 -0.044687 -0.019366 0.120261 0.062086 0.096374 -0.199703 -0.029580 -0.032185 -0.079397 0.046490 0.052649 0.080859 0.133738 -0.022799 -0.045091 0.063861 0.103930 -0.002467 -0.085599 -0.042746 -0.122377 0.061800 0.156700 -0.265620 -0.023316 -0.021073 0.097021 -0.091018 -0.059920 -0.092647 0.152219 -0.146537 0.150865 0.051181 -0.155476 -0.117719 -0.088193 0.139648 0.022524 0.007155 -0.133009 0.089684 -0.036056 0.086040 -0.083993 -0.222798 0.044817 0.123130 0.099449 0.006354 -0.099645 0.022028 0.015347 0.018670
278 -0.144282 -0.150644 -0.015938 -0.084193 -0.015395 -0.086423 0.005368 -0.073575 0.150620 -0.070582 -0.124560 0.161999 -0.009646 -0.000566 0.056326 -0.257305 0.100876 0.141060 -0.058792 0.065426 -0.040805 0.111857 0.087924 0.011095 0.024674 0.032410 0.012869 -0.045099 -0.084030 -0.029103 0.202949 -0.042863 0.054883 -0.026394 0.020320 0.156269 0.039147 -0.148895 0.007914 -0.003132 -0.089923 0.157394 -0.022286 -0.121394 -0.092440 -0.103070 0.011720 -0.042378 0.089966 -0.026828 -0.328020 0.012711 0.142316 0.241781 -0.119753 -0.136846 -0.129121 0.125177 0.019931 0.045186 -0.054979 -0.170081 -0.068297 0.017991 -0.023203 -0.024393 -0.110299 0.040530 -0.240854 0.076089 0.035091 -0.021973 0.098234 -0.211630 -0.029887 -0.007141 0.123945 0.070613 0.087546 -0.198400 -0.035897 -0.033685 -0.072479 0.035009 0.067651 0.066795 0.161783 -0.038097 -0.040617 0.056236 0.123512 -0.021984 -0.061589 -0.043933 -0.121357 0.067393 0.158484 -0.284436 -0.030827 -0.032533 0.083979 -0.064024 -0.047070 -0.103437 0.152355 -0.144626 0.153274 0.077804 -0.159964 -0.119151 -0.111355 0.124707 0.038141 -0.014736 -0.156598 0.075416 -0.064500 0.103745 -0.079637 -0.240713 0.025570 0.116620 0.092751 -0.020120 -0.096546 0.035564 0.021412 0.004292
35 -0.095866 -0.100231 -0.014133 -0.050790 -0.014029 -0.058426 0.000061 -0.060468 0.102728 -0.036251 -0.088555 0.118127 -0.013148 0.002952 0.038971 -0.169814 0.071839 0.092361 -0.035222 0.044878 -0.024751 0.069908 0.054997 0.011122 0.016717 0.021216 0.021073 -0.018551 -0.051342 -0.024119 0.138705 -0.033019 0.021366 -0.009867 0.006010 0.106963 0.024360 -0.103273 0.016519 -0.005160 -0.056680 0.099495 0.004056 -0.083483 -0.062418 -0.070764 -0.003571 -0.016686 0.053061 -0.022958 -0.210868 -0.003394 0.090254 0.146548 -0.075384 -0.087970 -0.091167 0.093937 0.012940 0.019469 -0.039697 -0.119023 -0.048478 0.026244 -0.027081 -0.030626 -0.081682 0.032998 -0.156841 0.057549 0.020781 -0.018188 0.060073 -0.135842 -0.019838 -0.019574 0.089971 0.044261 0.065391 -0.129333 -0.033533 -0.035661 -0.052241 0.013613 0.040447 0.056209 0.106761 -0.013683 -0.028119 0.050231 0.071740 -0.003932 -0.058226 -0.027688 -0.089438 0.033858 0.112742 -0.184184 -0.015961 -0.011547 0.063064 -0.047554 -0.049343 -0.083317 0.107313 -0.099079 0.104043 0.042713 -0.094880 -0.077511 -0.065255 0.083045 0.025389 0.002388 -0.096041 0.057474 -0.026563 0.072591 -0.060851 -0.143115 0.028543 0.074138 0.067793 0.003582 -0.070907 0.018744 0.010962 0.017996
34 -0.089480 -0.097034 -0.008025 -0.042442 -0.007489 -0.057596 0.003616 -0.053446 0.095477 -0.037995 -0.086606 0.109366 -0.010948 0.000566 0.035005 -0.161884 0.068700 0.084647 -0.032087 0.043532 -0.025920 0.066631 0.056451 0.006651 0.015032 0.014506 0.020492 -0.021579 -0.046666 -0.020928 0.133184 -0.030375 0.017879 -0.007637 0.004527 0.103625 0.027432 -0.094178 0.012001 -0.001408 -0.052499 0.097260 0.002844 -0.077596 -0.061076 -0.067132 0.002530 -0.017927 0.054238 -0.017870 -0.197438 0.000967 0.089108 0.145179 -0.076811 -0.084836 -0.088575 0.090962 0.015141 0.019489 -0.037786 -0.107268 -0.050489 0.025725 -0.022082 -0.027722 -0.076749 0.025591 -0.145720 0.053307 0.019528 -0.017592 0.053326 -0.125702 -0.019838 -0.014967 0.081690 0.043278 0.064158 -0.120561 -0.032498 -0.032670 -0.047752 0.013532 0.038472 0.052974 0.097313 -0.010345 -0.026618 0.045780 0.063381 -0.001090 -0.052611 -0.025726 -0.083720 0.039387 0.107000 -0.173965 -0.018469 -0.014240 0.054751 -0.041632 -0.042099 -0.076802 0.095076 -0.092519 0.100753 0.034518 -0.094174 -0.075644 -0.061521 0.083193 0.023556 0.005603 -0.090255 0.050724 -0.026308 0.068932 -0.058229 -0.134553 0.023270 0.069902 0.064774 0.002839 -0.069987 0.017442 0.013302 0.015257
201 -0.119392 -0.134709 -0.009095 -0.066190 -0.020601 -0.078844 -0.015418 -0.061059 0.158611 -0.060618 -0.113001 0.146278 -0.015709 0.008436 0.062070 -0.223707 0.079301 0.125982 -0.042697 0.061201 -0.044714 0.097533 0.065683 0.011142 0.019746 0.019831 0.019194 -0.033961 -0.049169 -0.024991 0.180678 -0.045406 0.037750 -0.015813 -0.005846 0.135239 0.027115 -0.142446 0.005151 -0.003184 -0.069703 0.132880 -0.011887 -0.115777 -0.079917 -0.083836 0.006050 -0.029932 0.078289 -0.021368 -0.274712 -0.002654 0.119887 0.206022 -0.111308 -0.108079 -0.132556 0.137862 0.014923 0.028228 -0.049442 -0.153071 -0.058582 0.043189 -0.031284 -0.030535 -0.101600 0.047112 -0.223424 0.064044 0.029180 -0.022355 0.079516 -0.185849 -0.035826 -0.021117 0.114383 0.050324 0.081957 -0.176796 -0.050513 -0.044036 -0.068583 0.017000 0.054020 0.066109 0.134868 -0.013660 -0.018345 0.055408 0.092914 -0.013024 -0.064532 -0.029676 -0.108429 0.064036 0.151198 -0.246344 -0.032509 -0.029302 0.075170 -0.076042 -0.043681 -0.104310 0.136395 -0.119613 0.122984 0.045638 -0.137327 -0.111602 -0.098884 0.107572 0.029185 -0.009230 -0.128947 0.068014 -0.041041 0.085447 -0.071674 -0.199919 0.041798 0.104180 0.088071 0.003689 -0.089999 0.015166 0.012848 0.022966
203 -0.130833 -0.136267 -0.004536 -0.070396 -0.016523 -0.084617 -0.020371 -0.072397 0.171450 -0.070318 -0.121398 0.147022 -0.013475 0.010361 0.060556 -0.235166 0.081906 0.134142 -0.043821 0.060851 -0.049510 0.109493 0.073793 0.016329 0.012885 0.018687 0.023364 -0.038991 -0.047844 -0.024090 0.190311 -0.041979 0.033984 -0.010130 0.001268 0.141220 0.026976 -0.156206 0.006521 -0.010668 -0.078494 0.136682 -0.007869 -0.125360 -0.079521 -0.089231 0.005497 -0.037668 0.085733 -0.020180 -0.291402 -0.001247 0.121582 0.214650 -0.113051 -0.115858 -0.138881 0.150744 0.016863 0.039145 -0.051152 -0.163129 -0.060048 0.049636 -0.028081 -0.037574 -0.112506 0.048165 -0.232013 0.066723 0.033849 -0.018573 0.088977 -0.194106 -0.040802 -0.028533 0.124081 0.053460 0.085781 -0.179485 -0.056134 -0.043486 -0.069601 0.013937 0.056893 0.076442 0.141754 -0.012078 -0.015851 0.062204 0.105557 -0.013966 -0.071011 -0.023744 -0.107648 0.070251 0.156279 -0.256747 -0.037723 -0.028049 0.083606 -0.080071 -0.043017 -0.116687 0.148743 -0.125794 0.124796 0.057046 -0.140936 -0.117753 -0.104449 0.110981 0.025968 -0.007635 -0.136557 0.080378 -0.041964 0.088788 -0.074431 -0.205252 0.039154 0.115781 0.091382 0.002469 -0.096388 0.018799 0.018603 0.020780
262 -0.112306 -0.125805 -0.012841 -0.067541 -0.007328 -0.073820 0.000567 -0.058195 0.159146 -0.041807 -0.106752 0.149639 -0.004365 -0.007399 0.053075 -0.237527 0.090818 0.109574 -0.058057 0.045222 -0.028955 0.099682 0.074139 0.022576 0.029641 0.027865 0.029301 -0.028733 -0.067532 -0.031433 0.169900 -0.055996 0.036087 -0.002229 -0.008363 0.131454 0.024674 -0.141883 0.028226 -0.000644 -0.062039 0.127384 -0.008545 -0.109990 -0.089284 -0.098141 -0.007241 -0.034009 0.077121 -0.013459 -0.293686 0.000046 0.118971 0.212679 -0.101210 -0.106292 -0.132978 0.120384 0.017182 0.018382 -0.045767 -0.160683 -0.069100 0.037418 -0.034711 -0.037336 -0.087030 0.034441 -0.226979 0.080105 0.025501 -0.023041 0.086136 -0.181103 -0.016775 -0.011649 0.123204 0.037274 0.084593 -0.179426 -0.050700 -0.025726 -0.077024 0.021275 0.054242 0.054514 0.135786 -0.017213 -0.018581 0.061955 0.089366 0.007294 -0.074322 -0.030255 -0.108180 0.055935 0.151231 -0.264702 -0.008829 -0.015290 0.076498 -0.056251 -0.054635 -0.101227 0.147443 -0.130215 0.135547 0.053280 -0.117685 -0.118848 -0.101518 0.117279 0.031749 0.018246 -0.128712 0.074893 -0.034617 0.071485 -0.080436 -0.198737 0.029072 0.097354 0.096793 0.006658 -0.097035 0.028568 0.031258 0.011049
125 -0.118014 -0.127990 -0.006734 -0.057965 -0.002519 -0.071589 -0.008576 -0.075005 0.129178 -0.058858 -0.096786 0.130497 -0.023423 0.006117 0.050335 -0.204402 0.100005 0.103105 -0.037438 0.040699 -0.033883 0.077803 0.085540 0.006337 0.018453 0.032352 0.013749 -0.028393 -0.071645 -0.039349 0.180246 -0.041348 0.033920 -0.010937 0.006681 0.142112 0.036329 -0.135227 0.024105 -0.004603 -0.059140 0.120662 -0.001047 -0.118513 -0.077562 -0.089330 -0.013960 -0.011537 0.079256 -0.045603 -0.285793 -0.003833 0.117003 0.188493 -0.114966 -0.116572 -0.118598 0.127956 0.013813 0.027764 -0.052825 -0.165566 -0.066280 0.050135 -0.012630 -0.035109 -0.104594 0.043752 -0.208390 0.076707 0.024502 -0.023846 0.064314 -0.163546 -0.014119 -0.019023 0.110626 0.058166 0.095959 -0.158131 -0.034833 -0.038637 -0.065328 0.020551 0.057268 0.056973 0.116752 -0.008658 -0.015267 0.057079 0.089785 -0.000105 -0.064861 -0.022911 -0.106588 0.046508 0.143172 -0.239844 -0.025557 -0.014042 0.071551 -0.071990 -0.037891 -0.096115 0.122757 -0.124941 0.131393 0.067840 -0.125505 -0.099019 -0.094165 0.094397 0.028024 0.000325 -0.119321 0.073339 -0.031113 0.090979 -0.073366 -0.195381 0.031844 0.099110 0.088631 0.011248 -0.103189 0.026546 0.022407 0.021108
268 -0.185311 -0.172125 -0.030859 -0.084748 -0.036710 -0.125286 -0.014086 -0.110359 0.207806 -0.082112 -0.175699 0.231718 -0.022447 0.006556 0.098683 -0.320827 0.123214 0.163573 -0.090584 0.083913 -0.048030 0.130508 0.110379 0.005673 0.008806 0.036872 0.034180 -0.049031 -0.090675 -0.045010 0.270314 -0.081040 0.061106 -0.019785 0.019762 0.218015 0.034323 -0.205636 0.010481 -0.011141 -0.098869 0.183976 -0.005336 -0.172109 -0.105865 -0.123453 -0.012202 -0.043156 0.097993 -0.045963 -0.422613 0.005547 0.188458 0.297957 -0.143558 -0.159019 -0.173226 0.200220 0.016004 0.067380 -0.082680 -0.219578 -0.101354 0.055913 -0.042207 -0.057028 -0.154019 0.071864 -0.310266 0.117680 0.065140 -0.032290 0.115327 -0.263635 -0.045153 -0.027028 0.177246 0.078283 0.133600 -0.263481 -0.073493 -0.066241 -0.103535 0.019969 0.070148 0.116073 0.203232 -0.012023 -0.048448 0.066877 0.155236 0.013988 -0.102715 -0.023439 -0.166960 0.075674 0.240279 -0.357733 -0.029003 -0.042318 0.094300 -0.086617 -0.094145 -0.139355 0.197226 -0.190328 0.192898 0.062860 -0.202846 -0.164035 -0.130253 0.173602 0.042825 -0.000021 -0.187952 0.109533 -0.059199 0.138053 -0.097663 -0.282055 0.049145 0.154370 0.130737 0.004121 -0.132396 0.045961 0.020932 0.041945
276 -0.202746 -0.214406 -0.027448 -0.119087 -0.029617 -0.145489 -0.021007 -0.108761 0.246827 -0.087428 -0.205684 0.237076 -0.030520 0.021116 0.083331 -0.382879 0.138391 0.194877 -0.082583 0.084919 -0.082174 0.160209 0.129909 0.025084 0.028373 0.047787 0.043340 -0.039865 -0.099412 -0.052603 0.302367 -0.063677 0.049978 -0.002698 -0.011168 0.215969 0.039112 -0.237850 0.039426 -0.020650 -0.124450 0.229575 -0.002590 -0.201042 -0.150331 -0.137068 0.005857 -0.038110 0.124039 -0.064438 -0.481166 0.001907 0.207648 0.322423 -0.187878 -0.173090 -0.228426 0.226447 0.035214 0.048830 -0.074509 -0.261550 -0.106445 0.057060 -0.049519 -0.052270 -0.167632 0.079436 -0.348456 0.118017 0.063386 -0.038048 0.137765 -0.308620 -0.048325 -0.034695 0.207221 0.073682 0.138785 -0.311656 -0.063769 -0.071094 -0.118437 0.051507 0.093928 0.105434 0.230132 -0.020005 -0.039757 0.111839 0.148139 -0.002403 -0.109542 -0.046145 -0.182838 0.081935 0.263768 -0.442926 -0.036706 -0.039708 0.122456 -0.104770 -0.081497 -0.170349 0.224708 -0.226603 0.236825 0.087304 -0.230042 -0.196334 -0.158792 0.203357 0.036932 0.001480 -0.214742 0.118232 -0.062948 0.140954 -0.132752 -0.335625 0.063316 0.167406 0.156746 0.001100 -0.147758 0.031124 0.042139 0.022571
181 -0.190920 -0.200398 -0.034851 -0.119770 -0.026165 -0.127570 -0.009936 -0.098551 0.246524 -0.082853 -0.154223 0.260256 -0.007880 -0.015877 0.098152 -0.369678 0.123962 0.193376 -0.097105 0.103610 -0.084826 0.144106 0.128745 0.020098 0.049485 0.046511 0.030194 -0.059725 -0.094772 -0.057007 0.305773 -0.072545 0.071383 -0.031347 -0.004852 0.217184 0.056090 -0.205522 0.003215 0.004497 -0.124187 0.222502 -0.015970 -0.182987 -0.129684 -0.132781 -0.001792 -0.029757 0.127677 -0.023635 -0.443124 0.003545 0.202207 0.323873 -0.165102 -0.163821 -0.213812 0.212992 0.023954 0.041168 -0.062606 -0.261617 -0.109277 0.048961 -0.057433 -0.051777 -0.171577 0.056621 -0.358060 0.142078 0.062924 -0.045777 0.116604 -0.312777 -0.060917 -0.058385 0.207414 0.081072 0.146219 -0.290117 -0.081075 -0.063431 -0.103067 0.033212 0.080879 0.135177 0.226497 -0.015053 -0.062880 0.074105 0.148909 0.007718 -0.104665 -0.055527 -0.176179 0.074164 0.238086 -0.412173 -0.044616 -0.048127 0.125846 -0.110724 -0.097923 -0.148321 0.205325 -0.221674 0.215227 0.081992 -0.222806 -0.177793 -0.154409 0.182650 0.043905 0.000515 -0.208834 0.117403 -0.061559 0.118625 -0.120313 -0.336499 0.053097 0.182066 0.142728 -0.012311 -0.164659 0.015986 0.027653 0.022982
148 -0.172822 -0.190775 -0.001635 -0.124168 -0.026842 -0.122199 -0.014457 -0.102750 0.210116 -0.075735 -0.181815 0.222453 -0.027093 -0.018245 0.073662 -0.309918 0.135246 0.175829 -0.094508 0.067425 -0.065658 0.138455 0.109776 0.017198 0.012085 0.052834 0.035380 -0.053653 -0.089036 -0.044949 0.255592 -0.052530 0.058623 -0.007432 0.003897 0.196139 0.035678 -0.198941 0.030801 -0.027260 -0.106137 0.191580 -0.010286 -0.175391 -0.120189 -0.123386 0.008929 -0.035235 0.112523 -0.047782 -0.410175 0.006934 0.170401 0.296322 -0.154414 -0.168666 -0.172677 0.184640 0.024045 0.042275 -0.058158 -0.232737 -0.081691 0.041517 -0.048289 -0.034296 -0.127267 0.057922 -0.322293 0.123610 0.057073 -0.053904 0.106898 -0.263273 -0.031360 -0.025689 0.168875 0.071362 0.121159 -0.271173 -0.045944 -0.054217 -0.097493 0.033347 0.065846 0.107034 0.179850 -0.042063 -0.039447 0.087818 0.129652 -0.008253 -0.111148 -0.031116 -0.161519 0.072626 0.216930 -0.359663 -0.033971 -0.020827 0.105783 -0.099212 -0.086851 -0.149663 0.203584 -0.194240 0.204312 0.096497 -0.189053 -0.157701 -0.125846 0.157840 0.056366 -0.001514 -0.172228 0.103657 -0.070032 0.143476 -0.115959 -0.300634 0.056771 0.154900 0.129211 -0.007024 -0.128254 0.032287 0.010866 0.032695
291 -0.096229 -0.110964 -0.005551 -0.053320 -0.015120 -0.068715 0.003429 -0.057725 0.116036 -0.047099 -0.088916 0.120521 -0.013888 0.000634 0.047155 -0.175374 0.067662 0.094067 -0.047587 0.039850 -0.033268 0.079889 0.055781 0.006971 0.013278 0.016949 0.018894 -0.025703 -0.048356 -0.031721 0.139973 -0.033616 0.020917 -0.007203 0.005531 0.111502 0.018028 -0.100001 0.015162 -0.005936 -0.052211 0.106501 -0.010891 -0.087807 -0.070424 -0.070297 -0.007278 -0.018863 0.055476 -0.025887 -0.222250 0.005511 0.099448 0.154098 -0.090298 -0.082768 -0.095101 0.104361 0.015946 0.028065 -0.034647 -0.127538 -0.045707 0.029219 -0.026355 -0.025315 -0.072689 0.034694 -0.170287 0.058156 0.025989 -0.023620 0.066632 -0.143368 -0.016650 -0.015811 0.098807 0.043024 0.067661 -0.143770 -0.030436 -0.031792 -0.056256 0.020814 0.038503 0.050418 0.104344 -0.007385 -0.018982 0.046745 0.079964 0.002396 -0.057140 -0.020495 -0.086482 0.041553 0.123683 -0.204208 -0.021846 -0.015907 0.063238 -0.058386 -0.047493 -0.074289 0.107434 -0.101101 0.101969 0.038569 -0.105532 -0.089853 -0.071960 0.095467 0.028752 0.001894 -0.099447 0.053414 -0.031938 0.068689 -0.060703 -0.153756 0.027330 0.083106 0.065580 -0.002253 -0.077802 0.011971 0.016422 0.017604
219 -0.105754 -0.123169 -0.010670 -0.063473 -0.015803 -0.072935 -0.001857 -0.060224 0.143559 -0.052848 -0.105448 0.139757 -0.012994 0.002087 0.047881 -0.208761 0.078743 0.107915 -0.050832 0.053256 -0.044217 0.082938 0.070369 0.014456 0.015675 0.025756 0.024695 -0.031250 -0.052299 -0.039281 0.167614 -0.041621 0.027956 -0.015804 -0.003877 0.125482 0.029166 -0.125966 0.011278 -0.006053 -0.058645 0.120892 -0.007213 -0.112036 -0.075601 -0.076705 -0.001173 -0.020141 0.077517 -0.026893 -0.266040 0.001835 0.112283 0.184755 -0.105961 -0.101885 -0.120371 0.121416 0.018981 0.030129 -0.042079 -0.151950 -0.059123 0.029958 -0.029836 -0.019521 -0.086155 0.049592 -0.206315 0.066604 0.025148 -0.030925 0.078052 -0.172312 -0.026531 -0.017828 0.119464 0.048064 0.084600 -0.170124 -0.039006 -0.036719 -0.064719 0.018008 0.042073 0.064990 0.124715 -0.017894 -0.030533 0.046556 0.090792 0.000640 -0.063159 -0.022014 -0.103837 0.052935 0.139138 -0.240639 -0.022467 -0.015007 0.067303 -0.060111 -0.051822 -0.098380 0.121822 -0.123844 0.130066 0.049473 -0.129385 -0.107922 -0.082974 0.102397 0.027151 0.007681 -0.117668 0.061065 -0.039018 0.087469 -0.072973 -0.178940 0.037430 0.099034 0.079648 0.005701 -0.089215 0.021448 0.014859 0.018713
54 -0.149829 -0.158504 -0.011856 -0.079001 -0.014864 -0.093539 -0.002010 -0.084598 0.169269 -0.071992 -0.142646 0.174062 -0.014174 -0.001732 0.057932 -0.255951 0.094997 0.135464 -0.058522 0.058084 -0.049282 0.111260 0.085578 0.023013 0.022935 0.021120 0.021855 -0.038468 -0.077482 -0.045490 0.214962 -0.039551 0.037421 -0.018364 0.002962 0.161101 0.031242 -0.152665 0.025938 -0.004790 -0.081117 0.153404 -0.012315 -0.130059 -0.094352 -0.095685 -0.008413 -0.023417 0.091033 -0.030409 -0.333937 -0.004607 0.148218 0.234040 -0.126078 -0.132088 -0.147155 0.146399 0.024205 0.037441 -0.052365 -0.181778 -0.073652 0.043541 -0.035927 -0.037570 -0.115304 0.046894 -0.246672 0.089531 0.048059 -0.034291 0.094936 -0.208557 -0.031024 -0.012290 0.140843 0.052473 0.100758 -0.205442 -0.046171 -0.039699 -0.090969 0.026437 0.058039 0.071235 0.154169 -0.017325 -0.027275 0.069900 0.119867 -0.003535 -0.082260 -0.035037 -0.125646 0.063317 0.171189 -0.303957 -0.028346 -0.026996 0.082018 -0.082102 -0.058706 -0.114424 0.155395 -0.153497 0.168096 0.063075 -0.166153 -0.116977 -0.117153 0.134911 0.033717 0.008983 -0.154388 0.082234 -0.039079 0.096036 -0.082814 -0.225285 0.039203 0.127876 0.097503 -0.001976 -0.108056 0.021732 0.029118 0.020464
234 -0.101528 -0.118008 0.002930 -0.058092 -0.013644 -0.068370 0.002123 -0.059473 0.119459 -0.043191 -0.103317 0.143828 -0.011342 -0.005891 0.054741 -0.197525 0.079240 0.102367 -0.047255 0.040333 -0.034994 0.078925 0.063376 0.012420 0.016145 0.028954 0.018389 -0.026983 -0.058075 -0.032052 0.161038 -0.041699 0.030745 -0.008458 -0.004124 0.125417 0.023619 -0.121800 0.020461 -0.003649 -0.048983 0.110495 0.001979 -0.097646 -0.076496 -0.075362 -0.005511 -0.015401 0.073300 -0.017183 -0.244163 -0.000613 0.113768 0.181051 -0.092764 -0.086646 -0.113780 0.119219 0.023372 0.027670 -0.043997 -0.142943 -0.057185 0.031769 -0.017096 -0.021621 -0.083519 0.044670 -0.192729 0.065087 0.032616 -0.031408 0.073707 -0.169178 -0.028260 -0.013684 0.111825 0.049065 0.085838 -0.160266 -0.035963 -0.031620 -0.063123 0.020627 0.041924 0.065923 0.121324 -0.019114 -0.028610 0.055949 0.079153 -0.002414 -0.067745 -0.028941 -0.103520 0.047657 0.135958 -0.236277 -0.020850 -0.021347 0.060947 -0.068563 -0.058462 -0.092011 0.119107 -0.114726 0.130347 0.046274 -0.126148 -0.088327 -0.077481 0.116598 0.038871 0.008859 -0.108480 0.064696 -0.030430 0.085503 -0.066409 -0.163322 0.026042 0.093508 0.077875 -0.002675 -0.082386 0.016309 0.009519 0.024638
173 -0.171328 -0.176319 -0.004262 -0.086697 -0.022963 -0.103942 -0.003779 -0.096250 0.214462 -0.086923 -0.164114 0.211013 -0.029960 0.012566 0.081898 -0.326081 0.124975 0.170704 -0.078033 0.068603 -0.058689 0.132760 0.106377 0.015048 0.030020 0.054067 0.024353 -0.028099 -0.088518 -0.035248 0.261834 -0.055285 0.045537 -0.008215 0.014749 0.210450 0.037522 -0.204600 0.012733 0.007790 -0.102357 0.184647 -0.008358 -0.166934 -0.123146 -0.123225 -0.002509 -0.021087 0.121402 -0.050297 -0.384199 0.001041 0.179331 0.290838 -0.154066 -0.149648 -0.202200 0.200982 0.028679 0.039657 -0.064813 -0.234941 -0.084152 0.046402 -0.061651 -0.044040 -0.136572 0.063359 -0.319502 0.101228 0.051291 -0.044345 0.117980 -0.263185 -0.025434 -0.028229 0.188622 0.073575 0.137894 -0.244974 -0.058704 -0.057573 -0.104437 0.040670 0.087659 0.085914 0.179842 -0.006704 -0.034613 0.081583 0.137546 0.003884 -0.108534 -0.044907 -0.162270 0.084896 0.218569 -0.369325 -0.045169 -0.030956 0.101127 -0.102186 -0.077851 -0.143439 0.216530 -0.184681 0.202218 0.077770 -0.195258 -0.146700 -0.134975 0.151117 0.054269 -0.009027 -0.172353 0.089281 -0.065332 0.122753 -0.110065 -0.292831 0.052632 0.149974 0.130495 0.017311 -0.134967 0.020737 0.025171 0.031613
140 -0.110882 -0.127686 -0.018481 -0.066046 -0.006962 -0.077299 -0.004786 -0.063151 0.142624 -0.052738 -0.105385 0.143259 -0.011406 0.000492 0.056120 -0.204380 0.086076 0.110504 -0.052769 0.049030 -0.040057 0.092352 0.067661 0.011612 0.007461 0.028089 0.018936 -0.024477 -0.056473 -0.032711 0.166487 -0.047825 0.028471 -0.012912 0.000335 0.130911 0.024242 -0.128913 0.014813 0.001896 -0.068452 0.116459 -0.003772 -0.109158 -0.080538 -0.083603 -0.001479 -0.023696 0.065065 -0.028857 -0.268639 0.008977 0.116718 0.193618 -0.106640 -0.106575 -0.121587 0.124188 0.016176 0.030623 -0.046150 -0.142009 -0.060215 0.036349 -0.022996 -0.022750 -0.101036 0.044746 -0.203209 0.066212 0.027397 -0.024240 0.077610 -0.173995 -0.030346 -0.020096 0.113984 0.050031 0.087723 -0.157774 -0.037392 -0.041651 -0.066245 0.027423 0.040765 0.068550 0.126207 -0.015211 -0.031528 0.047351 0.086670 -0.000979 -0.073072 -0.032535 -0.107987 0.056952 0.140859 -0.249864 -0.017141 -0.023902 0.064058 -0.064105 -0.055374 -0.095709 0.133110 -0.120529 0.130680 0.050843 -0.129921 -0.105978 -0.083679 0.111742 0.030022 0.000280 -0.115163 0.061683 -0.037361 0.085477 -0.075372 -0.191410 0.030761 0.102168 0.088748 0.001636 -0.085371 0.016062 0.019030 0.022390
40 -0.136929 -0.142777 -0.013076 -0.072917 -0.016738 -0.090028 -0.005476 -0.064868 0.164586 -0.069885 -0.120984 0.159297 -0.016755 -0.010890 0.055325 -0.250477 0.090430 0.126072 -0.063205 0.051011 -0.036492 0.102786 0.087092 0.015240 0.008759 0.036481 0.017437 -0.038778 -0.076331 -0.042628 0.201804 -0.043340 0.035730 -0.003979 -0.001596 0.145857 0.021769 -0.143540 0.016445 -0.004564 -0.072277 0.150810 -0.006466 -0.125602 -0.096116 -0.100004 -0.005765 -0.026633 0.085054 -0.028684 -0.311434 -0.001632 0.133378 0.220673 -0.114851 -0.121927 -0.143133 0.139529 0.020691 0.024020 -0.052693 -0.166183 -0.074721 0.039633 -0.038809 -0.028648 -0.113082 0.049571 -0.232834 0.087432 0.028895 -0.025896 0.093346 -0.208466 -0.027907 -0.029895 0.139324 0.047958 0.090207 -0.193656 -0.036181 -0.039798 -0.076064 0.024425 0.059903 0.080601 0.151821 -0.015741 -0.033794 0.069497 0.101153 -0.007281 -0.077398 -0.032958 -0.118459 0.065027 0.173832 -0.284670 -0.026593 -0.024404 0.090078 -0.069910 -0.052160 -0.106302 0.160003 -0.145028 0.154196 0.051130 -0.147699 -0.124587 -0.102005 0.124260 0.029869 0.001857 -0.135841 0.072099 -0.042113 0.096689 -0.082627 -0.218226 0.044302 0.112676 0.088058 0.000211 -0.107553 0.025765 0.017188 0.014263
123 -0.148226 -0.147001 -0.004395 -0.085061 -0.010243 -0.084328 -0.004763 -0.080314 0.176783 -0.070469 -0.134980 0.178053 -0.017275 0.003974 0.062890 -0.276979 0.087908 0.144280 -0.066735 0.061154 -0.043448 0.114234 0.098533 0.011445 0.012603 0.035867 0.033868 -0.030379 -0.071846 -0.047412 0.219039 -0.053020 0.042033 -0.020316 0.004039 0.167771 0.025643 -0.168428 0.009282 -0.002417 -0.076396 0.149734 0.000296 -0.136769 -0.095576 -0.105013 0.008001 -0.014859 0.100440 -0.031382 -0.334340 0.002954 0.139558 0.242944 -0.132944 -0.129183 -0.164025 0.156519 0.038028 0.042223 -0.054832 -0.173845 -0.078751 0.054930 -0.037090 -0.036252 -0.124032 0.051560 -0.246514 0.083629 0.053544 -0.031599 0.103441 -0.223575 -0.030773 -0.012417 0.143901 0.051240 0.119192 -0.204541 -0.033834 -0.045258 -0.091560 0.027812 0.067860 0.078976 0.163458 -0.003599 -0.018254 0.070692 0.122072 0.008407 -0.090767 -0.035971 -0.130627 0.062042 0.177663 -0.309095 -0.030831 -0.015995 0.080473 -0.061788 -0.070665 -0.133133 0.174468 -0.157730 0.165727 0.057554 -0.166617 -0.143394 -0.118059 0.147089 0.041995 0.009122 -0.164525 0.087877 -0.040322 0.091105 -0.101853 -0.232729 0.044849 0.129095 0.099357 0.000391 -0.097808 0.020090 0.021283 0.015292
115 -0.163102 -0.235125 -0.006468 -0.123092 -0.027357 -0.140352 -0.030005 -0.123873 0.232057 -0.100665 -0.204794 0.229585 -0.030004 -0.016220 0.099970 -0.348149 0.111909 0.190083 -0.079359 0.057140 -0.077991 0.175496 0.131302 0.016131 0.043460 0.035210 0.020322 -0.037238 -0.094043 -0.044738 0.278786 -0.051167 0.066361 -0.034229 0.002727 0.229234 0.041937 -0.208273 0.015989 0.005216 -0.136660 0.214009 -0.024506 -0.171357 -0.125862 -0.123760 0.006875 -0.046651 0.110196 -0.049106 -0.466679 -0.010543 0.206638 0.335632 -0.172809 -0.176834 -0.229020 0.220004 0.034055 0.064720 -0.067447 -0.254493 -0.093925 0.054056 -0.054558 -0.043379 -0.164166 0.074692 -0.357066 0.110224 0.035390 -0.044845 0.108892 -0.302643 -0.036989 -0.013207 0.175129 0.058913 0.129768 -0.291757 -0.067776 -0.053076 -0.116595 0.060639 0.059215 0.109793 0.221527 -0.016683 -0.050510 0.070038 0.150563 -0.009428 -0.094164 -0.065557 -0.174407 0.082737 0.249669 -0.406047 -0.047530 -0.046598 0.133462 -0.115596 -0.082267 -0.175349 0.225098 -0.193732 0.215936 0.069870 -0.204543 -0.178901 -0.135588 0.203410 0.037159 0.000524 -0.202285 0.135423 -0.066646 0.161304 -0.120786 -0.322842 0.060521 0.160116 0.118748 -0.005566 -0.153119 0.022252 0.021639 0.033647
114 -0.204767 -0.206562 -0.029951 -0.118596 -0.036787 -0.130978 -0.010151 -0.104875 0.264556 -0.090346 -0.186538 0.246493 -0.026019 0.024386 0.102552 -0.359871 0.166339 0.213761 -0.101304 0.086024 -0.078165 0.165542 0.117809 0.033377 0.039342 0.051755 0.034021 -0.058666 -0.121674 -0.067506 0.299443 -0.072491 0.066848 -0.022533 -0.003941 0.208779 0.039324 -0.227448 0.038105 -0.005546 -0.102280 0.200218 -0.001471 -0.181948 -0.128616 -0.143927 -0.017784 -0.043254 0.113506 -0.062164 -0.458252 0.024304 0.196368 0.340350 -0.166765 -0.160006 -0.212438 0.207285 0.012822 0.054257 -0.093503 -0.261893 -0.107544 0.060783 -0.052303 -0.022664 -0.185267 0.087466 -0.363239 0.124681 0.050258 -0.049473 0.123396 -0.295719 -0.048586 -0.039787 0.209373 0.078898 0.149041 -0.283739 -0.067339 -0.061460 -0.116092 0.018792 0.081337 0.101749 0.228220 -0.022316 -0.052414 0.085336 0.177028 -0.004001 -0.126378 -0.042475 -0.166527 0.091716 0.248575 -0.410399 -0.036083 -0.044835 0.097158 -0.120625 -0.104355 -0.172565 0.240051 -0.209070 0.227700 0.099204 -0.226480 -0.157357 -0.156018 0.185463 0.034496 -0.008881 -0.214632 0.130775 -0.077027 0.144830 -0.102748 -0.330322 0.081987 0.159426 0.156564 -0.006185 -0.170577 0.043089 0.049541 0.026310
8 -0.181381 -0.210411 -0.016803 -0.098796 -0.027517 -0.116991 -0.004140 -0.091812 0.229279 -0.079269 -0.175892 0.230406 -0.027690 -0.002806 0.094548 -0.349412 0.130199 0.178149 -0.073890 0.082475 -0.066058 0.143136 0.117134 0.006000 0.028204 0.052568 0.027963 -0.040534 -0.102188 -0.045608 0.274752 -0.062264 0.053122 -0.018482 0.001081 0.205859 0.057211 -0.200772 0.023823 0.012313 -0.106898 0.195018 -0.011404 -0.161422 -0.124469 -0.118219 -0.004385 -0.030636 0.107214 -0.039756 -0.429924 -0.000830 0.189831 0.305753 -0.166862 -0.168559 -0.203004 0.195618 0.021769 0.039131 -0.073671 -0.244257 -0.095599 0.062035 -0.039979 -0.054584 -0.145234 0.060305 -0.323805 0.101418 0.046249 -0.039545 0.116168 -0.280698 -0.029284 -0.024719 0.174539 0.072126 0.126495 -0.265308 -0.045655 -0.060684 -0.117253 0.039296 0.055543 0.110338 0.214383 -0.017395 -0.037550 0.080291 0.150535 -0.014515 -0.099045 -0.037322 -0.171813 0.066817 0.229123 -0.391707 -0.042656 -0.030771 0.117191 -0.106206 -0.098406 -0.151538 0.215738 -0.203079 0.210563 0.067469 -0.209615 -0.179035 -0.149161 0.184699 0.049330 -0.001667 -0.200420 0.108570 -0.071812 0.133889 -0.123852 -0.300772 0.046203 0.140934 0.140947 0.002343 -0.138012 0.015037 0.026991 0.023379
41 -0.158446 -0.180239 -0.013729 -0.083736 -0.013122 -0.100640 -0.000198 -0.088317 0.190011 -0.081333 -0.144158 0.188810 -0.028043 -0.002484 0.069434 -0.282116 0.113045 0.154427 -0.065728 0.081977 -0.058614 0.115772 0.093528 0.008133 0.024847 0.039210 0.019146 -0.046069 -0.085213 -0.052416 0.229437 -0.034123 0.030923 -0.016904 0.002338 0.183359 0.036834 -0.180009 0.013349 -0.006638 -0.076294 0.163831 -0.012905 -0.159122 -0.112290 -0.100332 0.006720 -0.024375 0.103750 -0.048570 -0.367503 0.007937 0.146432 0.242640 -0.131939 -0.144076 -0.157027 0.172102 0.024733 0.024636 -0.067322 -0.206067 -0.076745 0.052735 -0.035396 -0.039874 -0.137996 0.054209 -0.271576 0.096120 0.035013 -0.040772 0.109826 -0.237164 -0.045394 -0.031597 0.168853 0.065519 0.118774 -0.218964 -0.037636 -0.056990 -0.091157 0.023204 0.062686 0.080136 0.167255 -0.024040 -0.032290 0.062777 0.125704 0.000452 -0.087569 -0.028382 -0.146874 0.081690 0.201045 -0.324974 -0.024965 -0.014499 0.092128 -0.081950 -0.054459 -0.135103 0.178672 -0.166236 0.177929 0.070191 -0.178947 -0.135926 -0.129935 0.157344 0.026093 -0.011354 -0.171815 0.094274 -0.070077 0.113989 -0.092551 -0.258595 0.037826 0.124522 0.111502 0.009332 -0.118123 0.023085 0.030284 0.020089
139 -0.087474 -0.104282 -0.011945 -0.050358 -0.009762 -0.055294 -0.006399 -0.049350 0.116909 -0.042186 -0.085835 0.111093 -0.014146 0.003271 0.043113 -0.170684 0.066762 0.082969 -0.042735 0.042656 -0.029227 0.075086 0.052468 0.006872 0.014778 0.016498 0.011549 -0.022000 -0.052037 -0.023834 0.134663 -0.029225 0.028395 -0.011157 0.001645 0.106286 0.019689 -0.104911 0.005836 0.000384 -0.051099 0.100127 -0.002792 -0.090496 -0.067874 -0.064954 -0.004713 -0.012938 0.060401 -0.023681 -0.219038 -0.003131 0.095227 0.145984 -0.082688 -0.086031 -0.093435 0.103450 0.018494 0.027349 -0.039258 -0.112762 -0.050779 0.027782 -0.025096 -0.022705 -0.075816 0.037836 -0.165348 0.053855 0.026642 -0.022727 0.062959 -0.142236 -0.023370 -0.015106 0.090139 0.038143 0.071876 -0.131596 -0.025185 -0.028393 -0.055393 0.016276 0.038495 0.052420 0.097532 -0.005825 -0.022597 0.039901 0.071975 -0.002886 -0.059075 -0.028826 -0.084861 0.040535 0.117752 -0.199197 -0.018695 -0.012360 0.052136 -0.046915 -0.037494 -0.073232 0.099141 -0.100951 0.103445 0.041189 -0.102919 -0.080017 -0.071072 0.087427 0.021621 -0.004412 -0.092671 0.046862 -0.027518 0.068399 -0.059501 -0.155592 0.026005 0.079951 0.063654 -0.002520 -0.068429 0.015066 0.016036 0.018528
199 -0.144541 -0.150124 -0.017129 -0.074270 -0.021803 -0.097947 -0.000347 -0.070400 0.175239 -0.073106 -0.127451 0.171293 -0.020599 -0.006610 0.058179 -0.260905 0.102013 0.133028 -0.064141 0.057732 -0.042991 0.108463 0.086478 0.013731 0.009217 0.039028 0.021913 -0.037046 -0.081904 -0.042841 0.217415 -0.046693 0.041577 -0.006220 -0.000268 0.160628 0.024618 -0.156530 0.014378 -0.005001 -0.067849 0.163116 -0.010424 -0.140784 -0.100543 -0.103886 -0.007324 -0.021334 0.087638 -0.030478 -0.327574 0.002781 0.140367 0.232450 -0.122014 -0.127431 -0.153580 0.146878 0.021719 0.020711 -0.061283 -0.181952 -0.072346 0.046475 -0.043520 -0.032000 -0.113917 0.054843 -0.250039 0.090815 0.030382 -0.026327 0.103808 -0.220046 -0.028550 -0.025619 0.153217 0.052675 0.099666 -0.205621 -0.040982 -0.046286 -0.078816 0.026063 0.061444 0.084984 0.154741 -0.011540 -0.033781 0.073173 0.113259 -0.005685 -0.085501 -0.034029 -0.128317 0.066061 0.184896 -0.301130 -0.031598 -0.023568 0.091957 -0.071448 -0.061140 -0.112014 0.170364 -0.154140 0.157898 0.054062 -0.158237 -0.129221 -0.107106 0.131003 0.037544 0.002102 -0.142580 0.072404 -0.051313 0.105179 -0.092893 -0.229185 0.041198 0.119946 0.094177 0.004698 -0.110921 0.023914 0.015684 0.020819
177 -0.153215 -0.158178 -0.008527 -0.077332 -0.013780 -0.093129 -0.003393 -0.089613 0.187413 -0.078570 -0.146265 0.186778 -0.020988 0.007210 0.067697 -0.276804 0.109279 0.143511 -0.071655 0.062287 -0.053975 0.119808 0.088601 0.010624 0.025618 0.046786 0.020810 -0.027693 -0.081275 -0.032825 0.224159 -0.048649 0.041451 -0.004791 0.015104 0.183085 0.028443 -0.179787 0.017590 0.006350 -0.089742 0.163750 -0.002537 -0.147706 -0.104148 -0.103174 -0.000005 -0.018622 0.107568 -0.044961 -0.335008 -0.000448 0.157167 0.253777 -0.137098 -0.132446 -0.177004 0.173413 0.031083 0.040479 -0.055913 -0.206156 -0.078317 0.037488 -0.050248 -0.043209 -0.125115 0.051478 -0.276079 0.090106 0.039957 -0.037719 0.097619 -0.227440 -0.027031 -0.026222 0.164890 0.064735 0.120083 -0.214932 -0.056413 -0.052518 -0.094743 0.035291 0.074703 0.074229 0.162889 -0.006917 -0.032541 0.068756 0.115306 0.003189 -0.093711 -0.040527 -0.136276 0.074474 0.190165 -0.321109 -0.040874 -0.027454 0.091256 -0.088363 -0.065519 -0.122473 0.181426 -0.161222 0.178919 0.063340 -0.177239 -0.125691 -0.120664 0.133124 0.042513 -0.005007 -0.149223 0.083798 -0.058552 0.102643 -0.093955 -0.263279 0.049200 0.131214 0.109535 0.013472 -0.114073 0.018959 0.024684 0.026715
159 -0.142652 -0.152464 -0.025251 -0.065607 -0.032909 -0.095625 -0.003179 -0.076980 0.173166 -0.073001 -0.134323 0.177847 -0.014308 0.000310 0.055393 -0.276632 0.103548 0.151765 -0.059365 0.072216 -0.062418 0.108283 0.103050 0.003705 0.018757 0.040834 0.040939 -0.033555 -0.074355 -0.036781 0.222458 -0.055038 0.052173 -0.007791 -0.011669 0.165255 0.024941 -0.166033 0.017023 -0.003532 -0.072473 0.151888 0.003444 -0.139193 -0.111639 -0.104098 -0.003442 -0.025340 0.090172 -0.036945 -0.353666 0.001982 0.147483 0.237907 -0.126477 -0.140244 -0.154057 0.164220 0.035558 0.023505 -0.063108 -0.193085 -0.066603 0.040881 -0.030953 -0.034111 -0.131544 0.062259 -0.264061 0.086335 0.044753 -0.041001 0.109018 -0.222615 -0.040541 -0.016027 0.149035 0.054466 0.116974 -0.229758 -0.039348 -0.051008 -0.091558 0.030738 0.054010 0.087140 0.151758 -0.026615 -0.030267 0.075000 0.107988 0.004368 -0.088459 -0.031505 -0.137526 0.059905 0.177012 -0.308748 -0.027963 -0.018958 0.085875 -0.084007 -0.069344 -0.129797 0.167876 -0.161037 0.158165 0.054389 -0.159926 -0.149079 -0.117420 0.133271 0.030762 0.011542 -0.144439 0.073119 -0.039182 0.115920 -0.096640 -0.244241 0.042904 0.112857 0.110097 0.014443 -0.117003 0.020301 0.002047 0.012319
98 -0.137289 -0.155475 -0.014516 -0.086359 -0.007567 -0.096124 0.010101 -0.066601 0.171955 -0.070569 -0.119185 0.167297 -0.006724 0.003962 0.074665 -0.261707 0.105214 0.139747 -0.065432 0.069845 -0.063925 0.108139 0.079719 0.027951 0.012248 0.021951 0.034629 -0.036707 -0.066466 -0.053689 0.212664 -0.056387 0.034888 -0.007379 -0.009857 0.146706 0.042720 -0.151052 0.010810 -0.003990 -0.080275 0.144306 -0.008344 -0.137497 -0.081753 -0.097577 0.005225 -0.029762 0.074565 -0.044763 -0.336403 -0.006282 0.153554 0.229104 -0.132867 -0.133252 -0.153035 0.149062 0.025483 0.048018 -0.046422 -0.173087 -0.079938 0.040126 -0.037784 -0.034818 -0.113240 0.044303 -0.255974 0.096062 0.048988 -0.025577 0.091966 -0.198647 -0.039072 -0.023697 0.119040 0.048135 0.096802 -0.190684 -0.048196 -0.042561 -0.075464 0.041063 0.061226 0.081452 0.148196 -0.006960 -0.021807 0.073088 0.124363 -0.015154 -0.069779 -0.026857 -0.127144 0.066912 0.176766 -0.288297 -0.041034 -0.037622 0.074681 -0.083869 -0.070677 -0.122295 0.167537 -0.145195 0.144729 0.043812 -0.149949 -0.135012 -0.098600 0.144315 0.033681 0.000742 -0.137015 0.069329 -0.046037 0.092387 -0.077243 -0.225299 0.056971 0.130954 0.099023 0.019833 -0.101331 0.007271 0.019926 0.022422
117 -0.128471 -0.177316 -0.010556 -0.092351 -0.016047 -0.107897 -0.020475 -0.093396 0.181143 -0.078597 -0.154822 0.179074 -0.024750 -0.010683 0.078120 -0.265246 0.088467 0.148770 -0.062411 0.047133 -0.053747 0.133113 0.096828 0.013546 0.029564 0.030539 0.019381 -0.028103 -0.078685 -0.040250 0.216653 -0.042187 0.051030 -0.025757 -0.002156 0.172119 0.029491 -0.158291 0.018028 0.004639 -0.100221 0.161203 -0.018269 -0.130623 -0.094726 -0.095937 0.002211 -0.032428 0.088819 -0.038889 -0.355823 -0.004925 0.159414 0.255917 -0.131077 -0.134090 -0.173054 0.168451 0.023479 0.043366 -0.055854 -0.193814 -0.077718 0.040218 -0.037802 -0.032284 -0.129395 0.057513 -0.269949 0.086767 0.030342 -0.029180 0.086333 -0.232514 -0.031147 -0.011610 0.137140 0.045168 0.103574 -0.221694 -0.049442 -0.038086 -0.092777 0.044884 0.051112 0.088660 0.165971 -0.016923 -0.032461 0.057251 0.120993 -0.004820 -0.075190 -0.050631 -0.138173 0.061167 0.195651 -0.317648 -0.031106 -0.035104 0.099492 -0.083687 -0.066300 -0.133861 0.174353 -0.150588 0.171850 0.055038 -0.154211 -0.138270 -0.107009 0.156109 0.035083 0.006132 -0.157432 0.101904 -0.053896 0.122802 -0.094362 -0.248809 0.049394 0.122568 0.091774 -0.002980 -0.117664 0.021219 0.017524 0.026662
157 -0.144625 -0.149143 -0.028675 -0.067828 -0.033219 -0.088649 -0.005336 -0.071568 0.169885 -0.072586 -0.130562 0.179812 -0.016788 -0.003024 0.054803 -0.271681 0.097170 0.151436 -0.065202 0.074776 -0.062876 0.103862 0.097598 0.003413 0.015128 0.038689 0.040289 -0.035934 -0.072269 -0.038016 0.220559 -0.055238 0.050012 -0.011689 -0.015641 0.166920 0.022559 -0.163424 0.011500 0.001476 -0.071637 0.155981 -0.001596 -0.131654 -0.109931 -0.099408 -0.005077 -0.022934 0.093611 -0.031013 -0.349142 -0.003624 0.142205 0.238223 -0.125326 -0.137521 -0.158411 0.159513 0.037882 0.024108 -0.062183 -0.196257 -0.071728 0.041901 -0.033017 -0.030459 -0.131391 0.053290 -0.267603 0.092405 0.045616 -0.034390 0.107908 -0.220985 -0.039285 -0.017168 0.152758 0.052726 0.117546 -0.228498 -0.037614 -0.053363 -0.085951 0.034395 0.056751 0.080206 0.154652 -0.021324 -0.032783 0.066125 0.110107 0.005270 -0.087918 -0.033988 -0.131296 0.062558 0.175917 -0.310750 -0.023897 -0.023857 0.088643 -0.077719 -0.069709 -0.122267 0.169646 -0.160262 0.159143 0.055742 -0.154672 -0.147836 -0.115145 0.132373 0.030206 0.007215 -0.142489 0.074892 -0.040514 0.113253 -0.097335 -0.241238 0.039413 0.114893 0.105898 0.013586 -0.111701 0.024133 0.001388 0.013220
172 -0.181554 -0.203230 -0.023934 -0.113221 -0.014811 -0.128692 0.000111 -0.104685 0.235182 -0.079769 -0.180639 0.240622 -0.017573 0.004263 0.077900 -0.355471 0.141775 0.192011 -0.091311 0.088833 -0.067202 0.150435 0.108920 0.014833 0.021405 0.038869 0.035336 -0.043452 -0.101805 -0.057656 0.287821 -0.066439 0.049437 -0.008690 -0.003133 0.221822 0.045496 -0.204063 0.033401 -0.006406 -0.106160 0.208756 -0.011444 -0.179695 -0.127719 -0.129293 -0.008440 -0.034194 0.125564 -0.047470 -0.443422 0.001357 0.191867 0.305714 -0.176487 -0.165553 -0.203619 0.195345 0.030510 0.045143 -0.087907 -0.259097 -0.103021 0.058374 -0.047567 -0.055061 -0.147378 0.067915 -0.341902 0.122276 0.042500 -0.038997 0.113899 -0.282264 -0.035258 -0.024147 0.202156 0.075693 0.137314 -0.284327 -0.064334 -0.053782 -0.122112 0.045996 0.081818 0.110493 0.215640 -0.028620 -0.029653 0.087836 0.146153 0.001803 -0.114221 -0.034194 -0.170990 0.082421 0.236270 -0.400168 -0.033488 -0.018391 0.126181 -0.105441 -0.093384 -0.165726 0.217344 -0.203048 0.222211 0.086059 -0.197013 -0.171020 -0.143821 0.188198 0.042924 -0.004647 -0.199091 0.106289 -0.074729 0.143973 -0.132054 -0.318277 0.058384 0.162987 0.135091 0.016925 -0.148054 0.026249 0.028157 0.022300
266 -0.180474 -0.162276 -0.027640 -0.082844 -0.037037 -0.120419 -0.015793 -0.102095 0.197827 -0.070598 -0.164613 0.215285 -0.014437 -0.004511 0.094571 -0.300918 0.116472 0.156008 -0.081362 0.073355 -0.040669 0.124647 0.111280 0.005177 0.007823 0.033123 0.037535 -0.047536 -0.085483 -0.041860 0.250088 -0.074763 0.059026 -0.019898 0.018483 0.205989 0.036273 -0.196287 0.012628 -0.005617 -0.093022 0.173393 -0.012296 -0.160759 -0.099924 -0.111688 -0.008170 -0.042347 0.090904 -0.045232 -0.401327 0.008003 0.181802 0.285911 -0.136037 -0.151393 -0.167457 0.191075 0.014191 0.061748 -0.076254 -0.208819 -0.097721 0.053797 -0.040444 -0.055796 -0.148701 0.064616 -0.287540 0.110706 0.061390 -0.030897 0.114052 -0.251373 -0.039437 -0.026282 0.171433 0.075158 0.128988 -0.246130 -0.070733 -0.058366 -0.099685 0.019861 0.063256 0.110596 0.189203 -0.013500 -0.049647 0.060466 0.147340 0.017534 -0.089128 -0.024408 -0.154845 0.066214 0.225821 -0.341144 -0.031360 -0.037287 0.096014 -0.076918 -0.085683 -0.133912 0.182012 -0.177338 0.177186 0.057956 -0.189436 -0.153338 -0.126242 0.164038 0.045217 -0.000926 -0.176944 0.099677 -0.048828 0.130375 -0.094305 -0.272012 0.049024 0.145989 0.119716 -0.002043 -0.127317 0.045680 0.021760 0.041166
50 -0.152714 -0.176422 -0.023347 -0.074007 -0.030918 -0.100195 0.004507 -0.079402 0.187971 -0.063178 -0.148659 0.185679 -0.005627 -0.013289 0.076723 -0.276933 0.112567 0.147442 -0.063862 0.065538 -0.062135 0.119861 0.093116 0.023833 0.037644 0.035347 0.016978 -0.036226 -0.082122 -0.039689 0.234919 -0.054329 0.036954 -0.023501 -0.002018 0.176415 0.025790 -0.168545 0.019518 -0.010306 -0.087522 0.166386 -0.001028 -0.151464 -0.104957 -0.109885 0.002596 -0.036109 0.104653 -0.039885 -0.364965 0.011912 0.149055 0.254283 -0.148000 -0.136314 -0.158900 0.167554 0.034872 0.033516 -0.041615 -0.199499 -0.076335 0.042350 -0.041070 -0.042707 -0.130023 0.053898 -0.272108 0.083683 0.039318 -0.031361 0.088630 -0.222546 -0.042394 -0.015040 0.146250 0.073785 0.111808 -0.225773 -0.053913 -0.031997 -0.083732 0.045272 0.056851 0.078256 0.161809 -0.014075 -0.038765 0.076377 0.119502 0.001201 -0.082683 -0.039091 -0.148393 0.075789 0.203462 -0.336364 -0.029071 -0.024756 0.088210 -0.077300 -0.069371 -0.122106 0.174172 -0.169030 0.175868 0.059525 -0.169416 -0.130942 -0.113076 0.143230 0.035007 0.009999 -0.162462 0.102887 -0.056788 0.114179 -0.092344 -0.234923 0.056417 0.133502 0.110216 -0.002290 -0.127292 0.012738 0.026277 0.029752
214 -0.139008 -0.152137 0.001802 -0.080227 -0.027958 -0.093843 -0.008724 -0.080475 0.187794 -0.057765 -0.138273 0.180696 -0.026982 0.007265 0.056727 -0.270899 0.097381 0.127988 -0.068472 0.057472 -0.058026 0.117352 0.087450 0.015977 0.017886 0.040363 0.036878 -0.041426 -0.089169 -0.039791 0.230185 -0.060015 0.031003 -0.006697 -0.010262 0.156435 0.028769 -0.161913 0.031949 -0.017959 -0.092878 0.141762 -0.014051 -0.145322 -0.084709 -0.105898 -0.009807 -0.018521 0.098980 -0.039297 -0.344423 0.004710 0.138702 0.234029 -0.117398 -0.124668 -0.154614 0.155648 0.025849 0.046797 -0.040900 -0.197227 -0.086625 0.041794 -0.034918 -0.029829 -0.123657 0.054285 -0.275391 0.077225 0.041498 -0.037500 0.084761 -0.219668 -0.031192 -0.011840 0.141819 0.044094 0.120530 -0.224759 -0.044044 -0.053985 -0.097248 0.038564 0.069624 0.086619 0.165183 -0.023720 -0.026313 0.060788 0.105062 -0.012314 -0.102729 -0.026314 -0.122987 0.074246 0.187888 -0.309653 -0.032967 -0.020579 0.091727 -0.088301 -0.064716 -0.117431 0.167042 -0.167644 0.179269 0.062149 -0.145357 -0.143877 -0.109799 0.150681 0.024552 -0.006991 -0.144840 0.094027 -0.040968 0.103061 -0.095933 -0.242210 0.051185 0.123216 0.114743 -0.005858 -0.109660 0.021627 0.017817 0.018100
215 -0.124457 -0.141147 -0.000217 -0.081726 -0.026416 -0.089979 -0.006733 -0.078401 0.177670 -0.051882 -0.122841 0.164615 -0.026609 0.004539 0.055513 -0.244545 0.086838 0.117647 -0.064325 0.052868 -0.056556 0.103342 0.078344 0.011405 0.019687 0.034137 0.032287 -0.038691 -0.081760 -0.039036 0.212647 -0.051831 0.026186 -0.008910 -0.009202 0.144347 0.033415 -0.153688 0.027049 -0.016282 -0.086543 0.133085 -0.008474 -0.134467 -0.080943 -0.095506 -0.004846 -0.018157 0.094239 -0.034511 -0.323024 0.001881 0.132938 0.218761 -0.114010 -0.118628 -0.141671 0.149257 0.017390 0.041125 -0.038367 -0.181784 -0.077236 0.035590 -0.031632 -0.026328 -0.110283 0.047159 -0.256261 0.071636 0.042880 -0.034261 0.083592 -0.203666 -0.034786 -0.012615 0.128456 0.039664 0.113471 -0.206336 -0.045317 -0.051718 -0.086617 0.034677 0.065266 0.075646 0.144664 -0.017884 -0.025537 0.052331 0.100437 -0.007911 -0.094630 -0.026052 -0.116205 0.066641 0.172156 -0.285135 -0.031370 -0.014182 0.088616 -0.076577 -0.065180 -0.111639 0.152836 -0.152704 0.166873 0.056594 -0.140227 -0.131100 -0.096733 0.135645 0.020502 -0.001200 -0.135197 0.082617 -0.036290 0.097775 -0.085586 -0.219694 0.051552 0.114187 0.106010 -0.007417 -0.104177 0.017364 0.012910 0.022931
212 -0.141691 -0.145094 -0.030796 -0.078805 -0.015384 -0.085873 0.004854 -0.072613 0.160347 -0.044859 -0.115193 0.165460 -0.024443 0.005244 0.050972 -0.247804 0.102101 0.128390 -0.050873 0.057792 -0.051168 0.105506 0.093241 0.007473 0.017652 0.030565 0.031789 -0.029919 -0.071974 -0.027735 0.188900 -0.046606 0.041317 -0.022429 -0.009944 0.145874 0.042460 -0.147000 0.005885 -0.016396 -0.073293 0.140188 -0.011089 -0.119722 -0.093092 -0.093219 0.001643 -0.008454 0.070990 -0.032428 -0.308561 0.001530 0.131790 0.219472 -0.109065 -0.121959 -0.126790 0.127851 0.032984 0.030061 -0.041029 -0.165826 -0.073836 0.035481 -0.033070 -0.033765 -0.111492 0.045079 -0.236898 0.073732 0.036212 -0.020613 0.096233 -0.207939 -0.038103 -0.017397 0.129869 0.061874 0.091839 -0.189564 -0.044664 -0.043287 -0.069822 0.030413 0.054357 0.069875 0.152463 -0.021160 -0.029075 0.060652 0.098908 -0.003178 -0.066747 -0.032093 -0.116564 0.049817 0.166818 -0.259462 -0.025783 -0.013608 0.088136 -0.075509 -0.056908 -0.111061 0.149746 -0.127071 0.150139 0.042304 -0.139166 -0.125262 -0.102364 0.129356 0.039907 -0.005836 -0.137160 0.072285 -0.050260 0.095996 -0.090213 -0.215034 0.041198 0.106072 0.096418 -0.003499 -0.096607 0.018805 0.013791 0.009669
210 -0.128477 -0.130228 -0.026471 -0.067292 -0.010382 -0.076902 0.000760 -0.063167 0.143912 -0.043123 -0.105027 0.151112 -0.020515 0.002429 0.045776 -0.226666 0.090581 0.111321 -0.051432 0.058982 -0.046523 0.099167 0.085374 0.011210 0.014207 0.029218 0.025678 -0.028330 -0.060974 -0.024368 0.172292 -0.048267 0.032772 -0.017912 -0.007347 0.139717 0.040675 -0.128825 0.002691 -0.010691 -0.062826 0.120946 -0.005921 -0.110658 -0.080103 -0.087478 0.000603 -0.008896 0.065544 -0.032397 -0.284779 0.003367 0.125023 0.196585 -0.101469 -0.104857 -0.117127 0.120768 0.032178 0.034316 -0.040576 -0.151616 -0.063614 0.033645 -0.022912 -0.033099 -0.106995 0.044211 -0.213127 0.068855 0.032215 -0.020518 0.089816 -0.186313 -0.031542 -0.015718 0.116277 0.054093 0.087730 -0.173612 -0.040126 -0.035207 -0.065692 0.024520 0.050361 0.071597 0.134097 -0.019489 -0.030106 0.056125 0.087177 -0.005249 -0.062979 -0.029117 -0.108133 0.043136 0.154493 -0.239326 -0.024157 -0.012753 0.082409 -0.064154 -0.053713 -0.100815 0.135446 -0.116688 0.130268 0.038303 -0.125166 -0.108780 -0.097348 0.119640 0.038748 -0.001275 -0.129116 0.069034 -0.045270 0.088614 -0.077487 -0.193100 0.035083 0.096036 0.088063 -0.001066 -0.091118 0.021152 0.008500 0.010128
132 -0.174401 -0.177122 -0.015345 -0.104451 -0.026922 -0.101289 -0.011554 -0.092562 0.193837 -0.080407 -0.159755 0.214349 -0.017727 0.014929 0.087408 -0.311206 0.112711 0.154579 -0.080166 0.063093 -0.066553 0.138143 0.094264 0.030694 0.032603 0.042711 0.033176 -0.045823 -0.083042 -0.041790 0.251470 -0.076222 0.039384 -0.012071 0.011843 0.199512 0.029077 -0.194777 0.012580 -0.002665 -0.095323 0.174909 -0.005057 -0.154406 -0.100319 -0.107024 -0.003442 -0.025463 0.102260 -0.051057 -0.384571 0.008221 0.152154 0.276959 -0.150195 -0.161096 -0.181016 0.171213 0.022317 0.052135 -0.057899 -0.211942 -0.094907 0.057795 -0.040831 -0.050315 -0.139993 0.049585 -0.291404 0.114580 0.046233 -0.041423 0.103228 -0.256988 -0.027916 -0.027836 0.152004 0.060313 0.112330 -0.246566 -0.045980 -0.048618 -0.103891 0.040490 0.077215 0.102421 0.199617 -0.027776 -0.035712 0.080440 0.141218 -0.002965 -0.091585 -0.050544 -0.148999 0.068532 0.212117 -0.351342 -0.018429 -0.038562 0.091952 -0.086177 -0.080312 -0.149874 0.183340 -0.185495 0.194366 0.075907 -0.183125 -0.143722 -0.134516 0.155411 0.047718 0.013833 -0.164914 0.104351 -0.057922 0.119131 -0.116084 -0.273337 0.037188 0.152889 0.129205 0.008490 -0.129253 0.014805 0.006747 0.038431
135 -0.167383 -0.179250 -0.016653 -0.097475 -0.027699 -0.103902 -0.004683 -0.085388 0.195222 -0.079247 -0.148413 0.210766 -0.020878 0.011641 0.081424 -0.308992 0.113416 0.149915 -0.081459 0.059442 -0.066066 0.130179 0.100618 0.026331 0.034629 0.034263 0.030275 -0.042924 -0.084136 -0.043965 0.244847 -0.073553 0.043655 -0.011475 0.008195 0.196216 0.026957 -0.191263 0.015390 0.004007 -0.091035 0.170386 -0.009762 -0.150986 -0.099238 -0.102756 0.001965 -0.031951 0.104841 -0.045699 -0.374857 0.002713 0.150104 0.264453 -0.153166 -0.156374 -0.176489 0.168718 0.028987 0.052308 -0.054711 -0.206704 -0.088353 0.055985 -0.039324 -0.052992 -0.134589 0.045765 -0.289044 0.109999 0.039752 -0.038003 0.103227 -0.254218 -0.028890 -0.024218 0.149185 0.062815 0.114351 -0.244691 -0.042438 -0.043954 -0.099482 0.038719 0.074349 0.099037 0.194958 -0.021352 -0.032614 0.079387 0.133757 0.000987 -0.093392 -0.046341 -0.151759 0.064068 0.213033 -0.348154 -0.018353 -0.031528 0.095314 -0.082976 -0.081338 -0.145937 0.185987 -0.184982 0.188003 0.076514 -0.175590 -0.148890 -0.132764 0.158429 0.047900 0.008162 -0.168388 0.094754 -0.059638 0.115150 -0.116407 -0.268715 0.038881 0.148757 0.125271 0.008780 -0.122190 0.015854 0.009291 0.035554
25 -0.196904 -0.212343 -0.034124 -0.108289 -0.035499 -0.125963 -0.011951 -0.106931 0.247915 -0.092429 -0.188336 0.234616 -0.023154 0.002928 0.081607 -0.368215 0.141518 0.186836 -0.078655 0.101809 -0.059198 0.144100 0.124461 0.032999 0.032004 0.034736 0.034208 -0.058920 -0.116506 -0.047169 0.294424 -0.066244 0.057344 -0.027578 -0.020413 0.217742 0.036711 -0.211819 0.011108 -0.012119 -0.117020 0.217394 -0.017129 -0.192197 -0.125373 -0.126504 0.000350 -0.021289 0.125986 -0.047361 -0.465288 0.009975 0.206140 0.320355 -0.184353 -0.185202 -0.196771 0.194495 0.028558 0.053498 -0.079921 -0.246413 -0.091484 0.053205 -0.053526 -0.053034 -0.158144 0.081640 -0.356472 0.121189 0.050903 -0.049500 0.143513 -0.287690 -0.052782 -0.040510 0.187305 0.084100 0.151929 -0.290574 -0.054594 -0.070837 -0.110954 0.031828 0.068528 0.111106 0.209443 -0.032415 -0.054682 0.076348 0.147861 -0.003843 -0.104957 -0.051805 -0.191462 0.084081 0.246186 -0.409122 -0.037418 -0.018398 0.107399 -0.100616 -0.093580 -0.161133 0.225240 -0.214681 0.217169 0.082356 -0.205162 -0.184903 -0.163871 0.185253 0.052272 -0.010981 -0.216816 0.105824 -0.061472 0.144280 -0.124144 -0.321836 0.060256 0.174863 0.130185 -0.005145 -0.150321 0.039518 0.014702 0.026070
26 -0.154549 -0.178407 -0.009176 -0.108503 -0.008170 -0.116812 0.007279 -0.102908 0.205507 -0.079518 -0.156355 0.195631 -0.001742 -0.012446 0.080053 -0.305033 0.123783 0.160992 -0.075588 0.076778 -0.053441 0.135594 0.118954 0.024714 0.009855 0.040047 0.018853 -0.050667 -0.101744 -0.044246 0.267739 -0.065919 0.043253 -0.021589 -0.016067 0.180057 0.036638 -0.194954 0.017110 -0.003147 -0.093847 0.181182 -0.011011 -0.171906 -0.112493 -0.116072 -0.019824 -0.026403 0.108637 -0.026085 -0.385467 0.006808 0.170694 0.275894 -0.153066 -0.150076 -0.170006 0.193779 0.020249 0.045360 -0.054093 -0.233413 -0.095551 0.054171 -0.032665 -0.045531 -0.131603 0.057202 -0.297844 0.112380 0.042752 -0.038408 0.108937 -0.264853 -0.024386 -0.039339 0.168953 0.068725 0.133603 -0.254824 -0.060946 -0.039691 -0.109882 0.049817 0.080368 0.108889 0.182041 -0.024199 -0.029685 0.068287 0.139342 -0.010078 -0.094899 -0.028152 -0.149100 0.062893 0.210723 -0.366404 -0.028728 -0.025460 0.109446 -0.094218 -0.084435 -0.137958 0.209391 -0.173631 0.195972 0.070432 -0.178991 -0.157606 -0.144273 0.164918 0.040438 0.017629 -0.180206 0.103264 -0.063511 0.115474 -0.091455 -0.284747 0.047161 0.146111 0.112304 -0.011712 -0.130060 0.031934 0.016329 0.018502
23 -0.186378 -0.202008 -0.033936 -0.102590 -0.030343 -0.116872 -0.011189 -0.097880 0.236280 -0.091159 -0.182748 0.229120 -0.022970 -0.001631 0.077605 -0.350502 0.134104 0.184381 -0.076171 0.097658 -0.061325 0.140135 0.114210 0.030556 0.030163 0.036847 0.027219 -0.058003 -0.112920 -0.043874 0.281466 -0.062891 0.054627 -0.023582 -0.018545 0.206469 0.041834 -0.209569 0.008866 -0.007925 -0.112459 0.207121 -0.013378 -0.180603 -0.120347 -0.127293 -0.001662 -0.020239 0.116006 -0.047084 -0.444039 0.005151 0.200531 0.305362 -0.174093 -0.180163 -0.196281 0.192305 0.028410 0.045288 -0.074260 -0.241753 -0.087015 0.054478 -0.045629 -0.051405 -0.149111 0.079412 -0.339988 0.118346 0.049481 -0.044219 0.138612 -0.280850 -0.052801 -0.033483 0.185634 0.080049 0.147503 -0.275684 -0.049377 -0.068893 -0.103642 0.035423 0.065216 0.111231 0.200557 -0.025139 -0.051476 0.075213 0.145667 -0.002584 -0.106844 -0.049315 -0.187074 0.077868 0.238829 -0.397469 -0.039557 -0.017558 0.106815 -0.100035 -0.082894 -0.161071 0.215593 -0.207665 0.205862 0.075162 -0.200109 -0.176296 -0.161080 0.177442 0.047051 -0.011885 -0.207163 0.102955 -0.065153 0.140907 -0.118762 -0.310676 0.058213 0.167785 0.125221 -0.004379 -0.140342 0.029770 0.017359 0.025576
120 -0.145209 -0.166162 -0.027190 -0.068556 -0.030197 -0.109723 0.006905 -0.066642 0.191106 -0.055621 -0.139415 0.167313 -0.003021 -0.015930 0.074405 -0.273563 0.110042 0.132353 -0.052523 0.067279 -0.060188 0.103160 0.084099 0.020403 0.021313 0.038794 0.025052 -0.029161 -0.074243 -0.046177 0.226411 -0.053857 0.043945 -0.023132 -0.018698 0.161810 0.020623 -0.148158 0.008746 -0.006238 -0.093186 0.160756 -0.016867 -0.131933 -0.090804 -0.110322 -0.006451 -0.014315 0.087639 -0.022453 -0.343578 0.018614 0.132726 0.221320 -0.135868 -0.135995 -0.144889 0.145173 0.020744 0.040130 -0.058044 -0.185068 -0.071375 0.032016 -0.026344 -0.038217 -0.117869 0.056553 -0.262720 0.097891 0.041702 -0.018229 0.095205 -0.225752 -0.040199 -0.021808 0.139951 0.056705 0.100705 -0.215894 -0.056526 -0.035586 -0.079168 0.047127 0.048289 0.075327 0.148448 -0.005159 -0.028942 0.056636 0.116975 -0.013390 -0.085417 -0.026817 -0.144985 0.071991 0.169855 -0.309362 -0.018162 -0.037321 0.075478 -0.078911 -0.072434 -0.112151 0.167486 -0.160125 0.160778 0.061090 -0.153663 -0.132411 -0.109614 0.134936 0.023855 -0.005831 -0.154440 0.070303 -0.062941 0.115164 -0.080012 -0.227006 0.045122 0.100567 0.101521 -0.006313 -0.104764 0.027132 0.023665 0.005508
121 -0.134569 -0.152934 -0.025293 -0.074353 -0.018525 -0.090604 0.004490 -0.100930 0.193947 -0.061230 -0.137239 0.181399 -0.027960 -0.018968 0.052610 -0.296203 0.098022 0.161342 -0.075031 0.042119 -0.047376 0.130731 0.102796 0.013075 0.035263 0.024001 0.040909 -0.039111 -0.061728 -0.048855 0.228177 -0.039404 0.034734 -0.011681 0.006022 0.160210 0.033113 -0.183516 0.005827 -0.011609 -0.083072 0.181009 -0.014178 -0.140610 -0.110839 -0.102339 0.007050 -0.040366 0.110216 -0.045605 -0.343192 -0.001330 0.150010 0.242712 -0.129256 -0.130632 -0.164775 0.156569 0.019624 0.050364 -0.052687 -0.190839 -0.090215 0.057785 -0.031831 -0.030107 -0.124900 0.050959 -0.270186 0.099349 0.053335 -0.050373 0.109634 -0.251276 -0.035323 -0.032630 0.148130 0.050597 0.102667 -0.227538 -0.032645 -0.033940 -0.096544 0.034200 0.061717 0.089848 0.173444 -0.005288 -0.053939 0.070061 0.104937 0.003455 -0.075342 -0.029259 -0.133844 0.051310 0.188736 -0.318870 -0.038681 -0.014329 0.110619 -0.076042 -0.077484 -0.106652 0.169351 -0.189780 0.177869 0.076766 -0.155383 -0.138676 -0.097898 0.143595 0.035312 -0.002925 -0.160876 0.082795 -0.042865 0.102541 -0.109783 -0.247369 0.043190 0.128911 0.104536 0.001806 -0.125962 0.031543 0.023978 0.017534
269 -0.121475 -0.154403 -0.017575 -0.088005 -0.019022 -0.087973 -0.015847 -0.070502 0.153624 -0.063233 -0.131286 0.168073 -0.021602 0.003191 0.054838 -0.251570 0.103657 0.121938 -0.066169 0.062286 -0.047063 0.109397 0.073212 0.021900 0.020853 0.036725 0.013517 -0.036651 -0.073326 -0.027840 0.204461 -0.042513 0.040366 -0.013182 -0.000262 0.164775 0.042349 -0.146601 0.023017 -0.014040 -0.085155 0.146904 -0.010863 -0.134262 -0.091462 -0.101730 0.005907 -0.015205 0.089151 -0.042041 -0.310216 0.001839 0.148664 0.235749 -0.116112 -0.125459 -0.155488 0.153920 0.018922 0.037582 -0.049144 -0.179928 -0.073528 0.043171 -0.028150 -0.036167 -0.101716 0.038981 -0.251031 0.081434 0.049481 -0.023807 0.082103 -0.213915 -0.022480 -0.019208 0.149691 0.062387 0.093005 -0.195253 -0.040639 -0.057170 -0.084915 0.021870 0.055790 0.076935 0.149990 -0.014329 -0.036283 0.066500 0.101530 -0.001283 -0.082198 -0.037958 -0.131886 0.069944 0.160465 -0.293907 -0.033224 -0.026287 0.083836 -0.080070 -0.052679 -0.120787 0.156932 -0.134646 0.158846 0.064705 -0.164119 -0.110258 -0.110518 0.137898 0.025569 0.010101 -0.142997 0.088008 -0.047453 0.097303 -0.094438 -0.220819 0.032332 0.114982 0.108016 0.011674 -0.105222 0.019275 0.004108 0.030446
58 -0.115468 -0.136854 -0.014719 -0.074091 -0.021344 -0.076912 -0.004029 -0.064739 0.144144 -0.050840 -0.110278 0.144788 -0.008563 0.007050 0.055199 -0.223416 0.080699 0.118146 -0.052200 0.047122 -0.047638 0.088985 0.073763 0.008154 0.019396 0.021098 0.013477 -0.032154 -0.060286 -0.032588 0.177864 -0.046350 0.034443 -0.009572 -0.000214 0.139151 0.026686 -0.127831 0.010928 -0.000933 -0.069315 0.120926 -0.005939 -0.116699 -0.086269 -0.077619 -0.001182 -0.017534 0.076168 -0.034507 -0.281324 0.000952 0.123992 0.197048 -0.112533 -0.107341 -0.125223 0.125339 0.021722 0.035585 -0.040195 -0.156802 -0.062565 0.033377 -0.026717 -0.030770 -0.095752 0.037360 -0.203729 0.079145 0.029945 -0.027615 0.082942 -0.185086 -0.026035 -0.023096 0.115455 0.046032 0.088017 -0.176174 -0.034764 -0.037493 -0.073221 0.026473 0.049445 0.068299 0.134268 -0.023885 -0.029663 0.056205 0.092802 0.000200 -0.072588 -0.023522 -0.114117 0.057770 0.147597 -0.257352 -0.017329 -0.023093 0.074868 -0.066444 -0.051028 -0.093465 0.130253 -0.124846 0.130175 0.054280 -0.129785 -0.107941 -0.095782 0.113457 0.032206 0.000688 -0.129749 0.074392 -0.041333 0.090674 -0.084172 -0.192374 0.039146 0.104737 0.081686 0.005672 -0.090978 0.019679 0.015723 0.022612
51 -0.106809 -0.120622 -0.018310 -0.058570 -0.014220 -0.069998 -0.002437 -0.076622 0.146242 -0.045307 -0.105295 0.140014 -0.020417 -0.011564 0.044151 -0.223389 0.077849 0.122685 -0.060107 0.033082 -0.041056 0.094353 0.077443 0.005772 0.025980 0.021525 0.028085 -0.031883 -0.047856 -0.030497 0.173018 -0.030717 0.031438 -0.005749 0.001349 0.128600 0.031571 -0.136504 0.003596 -0.001381 -0.064230 0.134780 -0.014724 -0.113692 -0.081546 -0.076240 0.007063 -0.028536 0.083060 -0.031759 -0.267919 -0.003216 0.119685 0.182103 -0.105639 -0.105565 -0.122059 0.116635 0.019873 0.035744 -0.036816 -0.147635 -0.069278 0.046830 -0.025574 -0.020454 -0.098609 0.042633 -0.209159 0.072665 0.042104 -0.036236 0.079354 -0.190175 -0.023863 -0.023443 0.117951 0.041307 0.076378 -0.178786 -0.025875 -0.030284 -0.071330 0.020083 0.049381 0.069476 0.127846 -0.004548 -0.039407 0.051380 0.079687 0.007968 -0.058384 -0.021745 -0.109207 0.037629 0.139915 -0.244422 -0.030853 -0.010250 0.080944 -0.055688 -0.055877 -0.084536 0.127617 -0.142344 0.139164 0.060430 -0.125014 -0.106793 -0.079921 0.114362 0.021723 0.002638 -0.119789 0.070329 -0.031783 0.082606 -0.082686 -0.187373 0.037667 0.095638 0.078847 -0.000084 -0.091061 0.026471 0.017146 0.012578
